gru/gru_cell/kernel:0
(1, 240)
[[ 0.1485455  -0.47139007 -0.3664825  -0.237027   -0.33890286 -0.22836086
  -0.23857188 -0.20234042 -0.32281017 -0.3579018  -0.40243796 -0.05810769
  -0.47255275 -0.5513266  -0.19249502 -0.27920836 -0.45988524 -0.35863474
  -0.32153124 -0.44166145 -0.22967282 -0.28338388 -0.26337215 -0.41949454
  -0.26185766 -0.55220854 -0.22268784 -0.09293275 -0.4533481  -0.31912836
  -0.22985376 -0.39654008 -0.47105277 -0.38120204 -0.45267466 -0.4124123
  -0.37066594 -0.3072519  -0.32279587 -0.4041521   0.11767019 -0.47526637
  -0.5571078  -0.03796741 -0.4065796  -0.39460877 -0.413739   -0.23791698
  -0.29078013 -0.39104396 -0.44544178 -0.1333089  -0.45841682 -0.3852594
  -0.21553332 -0.17642257 -0.3840148  -0.15127629 -0.30899125 -0.35995284
  -0.42466378 -0.33451158 -0.13761207 -0.25808975 -0.33623996 -0.15244187
  -0.37444663 -0.30421266 -0.35282522 -0.41125482 -0.31375355 -0.0423787
  -0.31852093 -0.4224481  -0.1902484  -0.35464877 -0.48761398 -0.46822724
  -0.5093763  -0.23855895  0.00693999  0.00538904  0.08977705 -0.02920944
  -0.04458566 -0.03947043  0.08559152  0.02887285  0.07838819  0.1527951
  -0.03557881  0.14033608  0.01505401  0.03908567  0.0442479   0.14888585
  -0.17508116  0.10735245 -0.1044431  -0.10047095 -0.06932921  0.02952138
   0.03141822  0.15295829 -0.02071746 -0.04679089 -0.15607126 -0.03422455
  -0.02684707 -0.01481947  0.07429975  0.00733424  0.11215453 -0.11461697
  -0.03703613  0.07257295  0.15507793 -0.04372231  0.0515433  -0.05752148
   0.00973699  0.00079009  0.02285099 -0.13286881 -0.03251917  0.00267083
   0.09646959  0.10761663 -0.12497661  0.01738597  0.00574693  0.1227381
  -0.1183954  -0.14209162  0.01089627  0.13566408  0.02726171 -0.0860072
   0.05891841  0.09249803 -0.14778697 -0.14584988  0.02336879 -0.03113961
  -0.08659237 -0.00477436  0.11326531 -0.10715105 -0.02219431 -0.10552961
   0.06229135  0.09070656 -0.01879881  0.08580151 -0.10580246 -0.00695111
  -0.03113172  0.05409294 -0.01656416 -0.15545581 -0.11341524 -0.07782763
   0.10234606 -0.02698926 -0.14066355  0.12754582  0.02316457 -0.06107988
   0.05521397  0.13394773 -0.08228589 -0.0546431  -0.02552403  0.07699527
   0.07360761  0.09089217  0.14083514 -0.04410932  0.09919075  0.15572208
   0.08088776  0.06295293  0.13978836 -0.13979936  0.13182774 -0.09267714
  -0.11856876 -0.05187017  0.14388274 -0.10226779 -0.07000525 -0.04027473
   0.06062825 -0.02136074  0.14541131 -0.04730009 -0.07829767  0.09909032
   0.06968351  0.07334235 -0.00172572  0.0939198   0.09203506  0.12549728
  -0.09626687  0.01511821  0.07483706  0.14200568 -0.02969106  0.08419878
  -0.09778292 -0.02489264 -0.06842898  0.11277507 -0.09072126 -0.01403667
   0.0098449  -0.09938019 -0.10973831  0.10929564  0.14047706 -0.13428515
  -0.13730013  0.02859375  0.06684015 -0.12798299  0.0575148   0.13862333
  -0.1467446  -0.05052179 -0.03815814 -0.05350705  0.06094414 -0.1496967
  -0.11416744 -0.02657479 -0.07811575  0.0963807  -0.12702547  0.01804063]]
gru/gru_cell/recurrent_kernel:0
(80, 240)
[[-0.17116533  0.09602281  0.1219189  ...  0.04009866 -0.14313431
  -0.10053087]
 [-0.10136766  0.0915836   0.15749265 ...  0.03551116  0.05648428
  -0.03200993]
 [ 0.00578085 -0.13888708 -0.18500869 ... -0.03834757 -0.09063628
  -0.05197243]
 ...
 [ 0.06081217 -0.11286922 -0.03647971 ...  0.01050855 -0.01981848
  -0.10123255]
 [-0.0442282   0.03211817  0.08608223 ...  0.04023554 -0.053513
   0.00707803]
 [ 0.0249752   0.12249459  0.08445268 ... -0.07867109  0.09202479
  -0.0433731 ]]
gru/gru_cell/bias:0
(2, 240)
[[ 5.26343621e-02 -4.86562103e-01 -6.02212191e-01 -1.19736515e-01
  -5.43436646e-01 -4.35595542e-01 -2.96131819e-01 -4.19805974e-01
  -4.58888620e-01 -2.88074702e-01 -4.48285013e-01 -1.14343166e-01
  -4.28112835e-01 -5.50684631e-01 -3.68046492e-01 -5.46573699e-01
  -4.43906456e-01 -4.23810869e-01 -5.03387094e-01 -6.64207518e-01
  -4.12036061e-01 -3.08800936e-01 -4.40574080e-01 -5.11437833e-01
  -3.57252389e-01 -6.05474055e-01 -4.34576780e-01 -1.29411578e-01
  -4.30274218e-01 -4.05835032e-01 -4.15554255e-01 -5.37875772e-01
  -4.94477451e-01 -3.10030192e-01 -4.34233546e-01 -4.30655718e-01
  -4.54298049e-01 -4.23194706e-01 -3.74230355e-01 -5.13213456e-01
  -6.98172534e-03 -5.15248954e-01 -5.18133879e-01 -1.56734347e-01
  -5.28694868e-01 -3.54674131e-01 -4.34369951e-01 -3.75909477e-01
  -3.52850348e-01 -4.78700876e-01 -4.19838697e-01 -2.41292104e-01
  -4.35711950e-01 -3.94814938e-01 -4.39631134e-01 -6.28275648e-02
  -2.72924960e-01 -3.39774400e-01 -3.97482395e-01 -4.15334105e-01
  -3.81936401e-01 -4.99155879e-01 -2.92247802e-01 -2.56473511e-01
  -5.57637990e-01 -3.42886418e-01 -5.08238852e-01 -4.23712373e-01
  -3.68056506e-01 -4.06499088e-01 -4.72955883e-01 -2.13583216e-01
  -5.36080360e-01 -4.82789725e-01 -3.29338342e-01 -3.44987392e-01
  -4.37469900e-01 -4.91282940e-01 -4.74467576e-01 -1.58904344e-01
  -7.24933052e-04 -2.89368238e-02 -3.00629046e-02 -2.10239999e-02
  -7.90727697e-03 -3.22458916e-04 -1.42181432e-02 -1.00380871e-02
  -1.20648360e-02  1.98106654e-03 -7.24442070e-03  5.86697552e-03
   8.20323476e-04 -1.11342492e-02 -1.08229080e-02 -5.50623238e-03
  -1.21320300e-02 -1.12641556e-02  8.17315001e-03  1.41051272e-02
  -5.80110867e-03 -2.31891237e-02 -1.25951841e-02  6.74649142e-03
   1.37484935e-03 -2.78400071e-03 -4.43091616e-03  9.93444119e-03
  -5.84420981e-03  1.78986811e-03 -4.46746126e-03 -1.38290860e-02
  -1.24831488e-02 -9.57784057e-03  4.44648881e-03 -6.73473487e-03
   3.66397109e-03 -5.12694428e-03 -5.67986071e-03 -2.54119765e-02
  -9.24302265e-03 -9.32784472e-03 -1.89598221e-02 -1.53748859e-02
  -7.87102710e-03  2.87878327e-03 -2.87223491e-03 -6.59588305e-03
  -3.43547086e-03 -8.64049885e-03  2.56199460e-03 -1.87733937e-02
  -5.41645940e-03 -7.12870795e-04 -2.27212999e-02 -1.07604219e-02
  -4.40075202e-03 -6.81804912e-03 -1.18980715e-02  6.83257589e-03
   2.47220712e-04 -8.16471947e-05 -2.62288353e-03 -3.17922980e-02
  -5.01448363e-02 -1.03535764e-02 -2.26737298e-02 -1.90902017e-02
   3.57578159e-03 -1.33552328e-02 -5.70821278e-02 -1.53616036e-03
  -1.82174370e-02  1.04019679e-02  1.09171048e-02 -2.35959589e-02
  -3.91013883e-02 -1.03581743e-02 -1.17737865e-02 -2.58348789e-02
   9.90999397e-03  1.40268300e-02 -1.60585530e-02  8.45749862e-03
   2.00224370e-02 -1.61472466e-02 -5.15166996e-03  1.16655957e-02
  -1.08655468e-02 -1.68549195e-02  1.20344860e-02  6.71814382e-03
   3.68574960e-03 -1.07599422e-02 -6.37243828e-03 -1.29179507e-02
  -1.95767321e-02  6.16154913e-03 -1.48649327e-02 -2.34996472e-02
  -8.65626521e-03 -7.38419872e-03 -1.70369409e-02  1.84706338e-02
  -1.44060841e-02  1.57562587e-02  1.37177063e-02  1.00016864e-02
  -1.54570760e-02  1.26090292e-02  9.62070469e-03  6.34138566e-03
  -8.24401248e-03  6.79529225e-03 -1.65486969e-02  7.74615444e-03
   9.88803990e-03 -1.41076781e-02 -1.03895152e-02 -9.17807873e-03
  -4.60336683e-04 -1.25114210e-02 -1.36428010e-02 -1.21202674e-02
   1.19088516e-02 -3.96840693e-03 -1.13449255e-02 -1.57984793e-02
   6.10114401e-03 -1.12112714e-02  1.67228132e-02  6.70212414e-03
   7.90261105e-03 -1.41456677e-02  1.07490662e-02 -7.04903272e-04
  -4.11571981e-03  1.11561185e-02  1.31606217e-02 -1.57838184e-02
  -1.81876402e-02  1.54653089e-02  1.85952391e-02 -8.50563310e-03
  -8.74203816e-03  1.81685798e-02 -1.07700257e-02 -1.98466778e-02
   1.58289950e-02  8.34381487e-03  6.80301432e-03  1.08714150e-02
  -9.33534838e-03  1.84301343e-02  1.44385546e-02  5.96413063e-03
   1.59734618e-02 -1.45282988e-02  1.55121163e-02 -3.54180555e-03]
 [ 5.26343621e-02 -4.86562103e-01 -6.02212191e-01 -1.19736515e-01
  -5.43436646e-01 -4.35595542e-01 -2.96131819e-01 -4.19805974e-01
  -4.58888620e-01 -2.88074702e-01 -4.48285013e-01 -1.14343166e-01
  -4.28112835e-01 -5.50684631e-01 -3.68046492e-01 -5.46573699e-01
  -4.43906456e-01 -4.23810869e-01 -5.03387094e-01 -6.64207518e-01
  -4.12036061e-01 -3.08800936e-01 -4.40574080e-01 -5.11437833e-01
  -3.57252389e-01 -6.05474055e-01 -4.34576780e-01 -1.29411578e-01
  -4.30274218e-01 -4.05835032e-01 -4.15554255e-01 -5.37875772e-01
  -4.94477451e-01 -3.10030192e-01 -4.34233546e-01 -4.30655718e-01
  -4.54298049e-01 -4.23194706e-01 -3.74230355e-01 -5.13213456e-01
  -6.98172534e-03 -5.15248954e-01 -5.18133879e-01 -1.56734347e-01
  -5.28694868e-01 -3.54674131e-01 -4.34369951e-01 -3.75909477e-01
  -3.52850348e-01 -4.78700876e-01 -4.19838697e-01 -2.41292104e-01
  -4.35711950e-01 -3.94814938e-01 -4.39631134e-01 -6.28275648e-02
  -2.72924960e-01 -3.39774400e-01 -3.97482395e-01 -4.15334105e-01
  -3.81936401e-01 -4.99155879e-01 -2.92247802e-01 -2.56473511e-01
  -5.57637990e-01 -3.42886418e-01 -5.08238852e-01 -4.23712373e-01
  -3.68056506e-01 -4.06499088e-01 -4.72955883e-01 -2.13583216e-01
  -5.36080360e-01 -4.82789725e-01 -3.29338342e-01 -3.44987392e-01
  -4.37469900e-01 -4.91282940e-01 -4.74467576e-01 -1.58904344e-01
  -7.24933052e-04 -2.89368238e-02 -3.00629046e-02 -2.10239999e-02
  -7.90727697e-03 -3.22458916e-04 -1.42181432e-02 -1.00380871e-02
  -1.20648360e-02  1.98106654e-03 -7.24442070e-03  5.86697552e-03
   8.20323476e-04 -1.11342492e-02 -1.08229080e-02 -5.50623238e-03
  -1.21320300e-02 -1.12641556e-02  8.17315001e-03  1.41051272e-02
  -5.80110867e-03 -2.31891237e-02 -1.25951841e-02  6.74649142e-03
   1.37484935e-03 -2.78400071e-03 -4.43091616e-03  9.93444119e-03
  -5.84420981e-03  1.78986811e-03 -4.46746126e-03 -1.38290860e-02
  -1.24831488e-02 -9.57784057e-03  4.44648881e-03 -6.73473487e-03
   3.66397109e-03 -5.12694428e-03 -5.67986071e-03 -2.54119765e-02
  -9.24302265e-03 -9.32784472e-03 -1.89598221e-02 -1.53748859e-02
  -7.87102710e-03  2.87878327e-03 -2.87223491e-03 -6.59588305e-03
  -3.43547086e-03 -8.64049885e-03  2.56199460e-03 -1.87733937e-02
  -5.41645940e-03 -7.12870795e-04 -2.27212999e-02 -1.07604219e-02
  -4.40075202e-03 -6.81804912e-03 -1.18980715e-02  6.83257589e-03
   2.47220712e-04 -8.16471947e-05 -2.62288353e-03 -3.17922980e-02
  -5.01448363e-02 -1.03535764e-02 -2.26737298e-02 -1.90902017e-02
   3.57578159e-03 -1.33552328e-02 -5.70821278e-02 -1.53616036e-03
  -1.82174370e-02  1.04019679e-02  1.09171048e-02 -2.35959589e-02
  -3.91013883e-02 -1.03581743e-02 -1.17737865e-02 -2.58348789e-02
   9.76830535e-03  1.34196728e-02 -1.49803851e-02  8.19836650e-03
   1.94663387e-02 -1.59192644e-02 -5.04271965e-03  1.13325762e-02
  -1.05242301e-02 -1.65583268e-02  1.19104115e-02  6.58272486e-03
   3.58355115e-03 -1.00491811e-02 -6.08041463e-03 -1.21940719e-02
  -1.94267631e-02  5.72629273e-03 -1.48081537e-02 -2.35883854e-02
  -8.80081486e-03 -6.81849197e-03 -1.66952163e-02  1.82198249e-02
  -1.43567864e-02  1.55915525e-02  1.41356830e-02  9.81778186e-03
  -1.53224478e-02  1.24738403e-02  9.29500815e-03  6.51024794e-03
  -7.65045173e-03  7.08440877e-03 -1.64558962e-02  7.43080722e-03
   9.69241839e-03 -1.39237903e-02 -1.01184985e-02 -9.14452597e-03
  -5.89489646e-04 -1.20944791e-02 -1.32259792e-02 -1.14800483e-02
   1.17192119e-02 -4.00117459e-03 -1.06385723e-02 -1.53727019e-02
   6.53093448e-03 -1.09258043e-02  1.63383316e-02  6.63915090e-03
   7.99167436e-03 -1.40560707e-02  1.03441011e-02 -7.73156295e-04
  -4.19799285e-03  1.12730348e-02  1.28454817e-02 -1.52537711e-02
  -1.80261154e-02  1.55380554e-02  1.81416068e-02 -7.90935848e-03
  -8.72845110e-03  1.80639457e-02 -1.01860920e-02 -1.95031911e-02
   1.57063808e-02  8.42392351e-03  6.55567367e-03  1.03979744e-02
  -8.95373430e-03  1.81927569e-02  1.44135328e-02  6.53655268e-03
   1.52332503e-02 -1.39938630e-02  1.50262779e-02 -3.60588264e-03]]
gru_1/gru_cell_1/kernel:0
(80, 300)
[[-0.11263274 -0.07712673 -0.02968998 ...  0.1288468  -0.02355165
   0.04978882]
 [ 0.0808662  -0.04259535  0.04887506 ... -0.02796793  0.01152371
  -0.12020385]
 [ 0.02112512  0.17161743  0.07170957 ... -0.0509293   0.0381734
  -0.03908329]
 ...
 [ 0.14555302 -0.01784455 -0.07779684 ... -0.0892768   0.09308773
   0.07781287]
 [-0.03462835 -0.01848746 -0.04537713 ...  0.03022168  0.08190922
   0.00593346]
 [ 0.04059914 -0.14250545 -0.10033493 ...  0.05796156  0.10494882
   0.10479851]]
gru_1/gru_cell_1/recurrent_kernel:0
(100, 300)
[[-0.14079653 -0.06140926  0.02526353 ... -0.06898244 -0.06952378
   0.0232414 ]
 [ 0.01537517  0.04868647  0.07534266 ... -0.00981999  0.00505288
   0.01817419]
 [ 0.00575386 -0.08560524 -0.08737863 ... -0.00916193 -0.06098854
  -0.01316821]
 ...
 [-0.17607738  0.05650104 -0.11990038 ...  0.01276995 -0.0186493
   0.01647791]
 [-0.00188082 -0.0144798  -0.0773994  ... -0.05662889 -0.01452373
   0.05227966]
 [ 0.12132116  0.0726349   0.10168488 ... -0.00106188 -0.02511816
   0.07075506]]
gru_1/gru_cell_1/bias:0
(2, 300)
[[ 0.0919387   0.07711154  0.06466398  0.00658643 -0.01492783  0.02100684
   0.04521501  0.07047519  0.12232964 -0.03336927  0.06633447  0.15152623
   0.01865387  0.05285645  0.10274767  0.12538774  0.08920705 -0.01708039
   0.08310748  0.08479195  0.02627851  0.01479471  0.10724069 -0.0195825
   0.09931283  0.02838059 -0.01235158  0.05674903  0.127969    0.07962569
   0.03721894 -0.01099106  0.0017374   0.09415209 -0.00550807  0.06253313
   0.03617442  0.00440996  0.04414706  0.12415995  0.02809427  0.06850001
   0.07421253  0.06377015  0.05603173  0.09890057  0.0779868   0.01921664
   0.08978834  0.01078411  0.0316677   0.01132229  0.06461245  0.040468
   0.08775761  0.04124358  0.01697028  0.09248053  0.05350056  0.05407534
   0.03764967  0.05773592  0.05123604  0.03282472  0.00383856  0.00852961
   0.1378459   0.07414178  0.04063053 -0.03030487  0.0795518   0.06552117
   0.04242948  0.08988279 -0.00506569  0.0725883   0.1702848   0.09353144
   0.04526209  0.10296176  0.05919436  0.11848283  0.00518281  0.00018928
   0.06535187 -0.01925754  0.03044833  0.0162998   0.07337567  0.08846553
   0.00068503  0.12076245  0.08867776  0.01760164  0.06304001  0.08603421
   0.03253744  0.12770495  0.05478854 -0.00341867 -0.03058995  0.01276802
  -0.02863258  0.01375654 -0.01763449 -0.01216965 -0.00934202 -0.00629718
  -0.00626946 -0.03272265 -0.0313527  -0.02015307 -0.0491613  -0.01904854
  -0.01724312 -0.01440325 -0.03289777 -0.0544786  -0.02952972 -0.016074
  -0.04705375 -0.03157983 -0.00881664 -0.0458041  -0.01899901 -0.04197574
  -0.02312215 -0.03905781 -0.01081479 -0.01853115 -0.01311533 -0.01232142
  -0.01524125 -0.01676451 -0.01962368 -0.01206639 -0.0076357  -0.0210584
  -0.02595248 -0.0273499  -0.03017003 -0.00056401 -0.00319508  0.01455559
  -0.02606524 -0.03793982  0.01504424 -0.0168814  -0.02074018 -0.033635
  -0.00755978  0.00031791 -0.01566997 -0.04082855 -0.00329704 -0.02689882
  -0.03425584 -0.00815962  0.00320334 -0.00257307  0.00703188 -0.00264064
   0.0254734  -0.0169343  -0.01037191 -0.01519842 -0.0343211  -0.03107024
  -0.03428821 -0.00532646 -0.0472905  -0.00783865 -0.01125811 -0.03056345
  -0.02901777 -0.02345588 -0.00781943 -0.00593069 -0.02601142 -0.02555644
  -0.02131415 -0.00266067 -0.01373992 -0.00348361 -0.01495    -0.01717401
  -0.05314231 -0.04443027 -0.01714375 -0.01911742 -0.03488632 -0.02678963
  -0.02820682 -0.00732182 -0.03514632 -0.00726089 -0.0263693  -0.01565341
   0.00257293 -0.02421282 -0.00635182  0.00070751 -0.00508238 -0.00912433
  -0.00881044  0.01483372 -0.00977507 -0.00760757 -0.0124827  -0.01173317
  -0.00790295  0.01017787  0.00908428 -0.00789444 -0.00801031 -0.00457512
   0.00857252 -0.00781813 -0.00883542 -0.00522242  0.0076224  -0.00814742
  -0.01021083  0.00619485  0.01271678  0.00990021  0.0054556  -0.00787525
   0.00782407  0.00679023 -0.0071913   0.00415156  0.00727798  0.0081932
   0.00609308  0.00945295 -0.00651011  0.01542262  0.00715551  0.00647261
   0.00842077  0.00522261 -0.00492878 -0.00773438 -0.00701424 -0.00484955
   0.00678652 -0.01312784  0.00800734 -0.00922629  0.00326228  0.00897768
  -0.007075    0.00784646  0.00609272 -0.00686592 -0.0066124   0.01026616
   0.00332445  0.00497656  0.01538345  0.00355423 -0.00572893 -0.00720306
  -0.00780587  0.00705336 -0.01019118 -0.00817416  0.00851461 -0.00490616
   0.01131789 -0.00921022 -0.00855913  0.00920023  0.01622608  0.00563275
  -0.00536112  0.00713946 -0.01506132  0.00845555  0.00845208 -0.00919259
   0.00763588  0.00860124 -0.00970338 -0.00639469 -0.005806   -0.01201068
  -0.00804102  0.00558123 -0.01269144  0.00711316  0.00708222 -0.00737027
  -0.00581636 -0.00613154  0.00882782 -0.01354642 -0.00433527  0.00757539]
 [ 0.0919387   0.07711154  0.06466398  0.00658643 -0.01492783  0.02100684
   0.04521501  0.07047519  0.12232964 -0.03336927  0.06633447  0.15152623
   0.01865387  0.05285645  0.10274767  0.12538774  0.08920705 -0.01708039
   0.08310748  0.08479195  0.02627851  0.01479471  0.10724069 -0.0195825
   0.09931283  0.02838059 -0.01235158  0.05674903  0.127969    0.07962569
   0.03721894 -0.01099106  0.0017374   0.09415209 -0.00550807  0.06253313
   0.03617442  0.00440996  0.04414706  0.12415995  0.02809427  0.06850001
   0.07421253  0.06377015  0.05603173  0.09890057  0.0779868   0.01921664
   0.08978834  0.01078411  0.0316677   0.01132229  0.06461245  0.040468
   0.08775761  0.04124358  0.01697028  0.09248053  0.05350056  0.05407534
   0.03764967  0.05773592  0.05123604  0.03282472  0.00383856  0.00852961
   0.1378459   0.07414178  0.04063053 -0.03030487  0.0795518   0.06552117
   0.04242948  0.08988279 -0.00506569  0.0725883   0.1702848   0.09353144
   0.04526209  0.10296176  0.05919436  0.11848283  0.00518281  0.00018928
   0.06535187 -0.01925754  0.03044833  0.0162998   0.07337567  0.08846553
   0.00068503  0.12076245  0.08867776  0.01760164  0.06304001  0.08603421
   0.03253744  0.12770495  0.05478854 -0.00341867 -0.03058995  0.01276802
  -0.02863258  0.01375654 -0.01763449 -0.01216965 -0.00934202 -0.00629718
  -0.00626946 -0.03272265 -0.0313527  -0.02015307 -0.0491613  -0.01904854
  -0.01724312 -0.01440325 -0.03289777 -0.0544786  -0.02952972 -0.016074
  -0.04705375 -0.03157983 -0.00881664 -0.0458041  -0.01899901 -0.04197574
  -0.02312215 -0.03905781 -0.01081479 -0.01853115 -0.01311533 -0.01232142
  -0.01524125 -0.01676451 -0.01962368 -0.01206639 -0.0076357  -0.0210584
  -0.02595248 -0.0273499  -0.03017003 -0.00056401 -0.00319508  0.01455559
  -0.02606524 -0.03793982  0.01504424 -0.0168814  -0.02074018 -0.033635
  -0.00755978  0.00031791 -0.01566997 -0.04082855 -0.00329704 -0.02689882
  -0.03425584 -0.00815962  0.00320334 -0.00257307  0.00703188 -0.00264064
   0.0254734  -0.0169343  -0.01037191 -0.01519842 -0.0343211  -0.03107024
  -0.03428821 -0.00532646 -0.0472905  -0.00783865 -0.01125811 -0.03056345
  -0.02901777 -0.02345588 -0.00781943 -0.00593069 -0.02601142 -0.02555644
  -0.02131415 -0.00266067 -0.01373992 -0.00348361 -0.01495    -0.01717401
  -0.05314231 -0.04443027 -0.01714375 -0.01911742 -0.03488632 -0.02678963
  -0.02820682 -0.00732182 -0.03514632 -0.00726089 -0.0263693  -0.01565341
   0.00257293 -0.02421282 -0.00614816  0.00026509 -0.00492798 -0.00885448
  -0.00775753  0.01338926 -0.01004009 -0.00781402 -0.0126883  -0.01124888
  -0.00804247  0.00972195  0.00997774 -0.00806339 -0.00711453 -0.00451092
   0.00870518 -0.00789132 -0.00688295 -0.00551975  0.00752906 -0.00793443
  -0.01055808  0.00635635  0.012367    0.01022384  0.00593246 -0.00747618
   0.00804877  0.00660368 -0.00702679  0.00318457  0.00693506  0.00819281
   0.00611242  0.00920805 -0.00625788  0.01435191  0.00667354  0.00630146
   0.00842224  0.00519088 -0.00456032 -0.00782375 -0.00592026 -0.00462423
   0.00620151 -0.01235802  0.00752895 -0.00935962  0.00300317  0.00873961
  -0.0074054   0.00771468  0.00603307 -0.00605305 -0.00610216  0.00973281
   0.00322118  0.00398899  0.01487358  0.00354794 -0.00564457 -0.00734698
  -0.00775876  0.00662156 -0.00939873 -0.00796909  0.00680554 -0.00509914
   0.01123763 -0.00956553 -0.00858227  0.00970839  0.01581486  0.0055379
  -0.0053895   0.00683254 -0.01565737  0.00862486  0.00805702 -0.00880373
   0.00733123  0.00820933 -0.00987371 -0.00651111 -0.00601382 -0.01189776
  -0.00807728  0.00544338 -0.01242567  0.00756683  0.00718153 -0.00714909
  -0.00612223 -0.00587497  0.00856009 -0.01271579 -0.00395876  0.00793109]]
dense_1/kernel:0
(100, 1)
[[-0.17960064]
 [ 0.10875244]
 [-0.15177788]
 [-0.06534243]
 [-0.10819542]
 [ 0.06988773]
 [-0.14857738]
 [-0.22783619]
 [-0.10153868]
 [-0.12110413]
 [-0.14742295]
 [ 0.05836309]
 [ 0.10486078]
 [-0.11024179]
 [-0.04408477]
 [-0.12222705]
 [ 0.14168458]
 [-0.21009135]
 [-0.15384725]
 [-0.21207725]
 [ 0.16242398]
 [-0.15329403]
 [-0.16204187]
 [ 0.18513462]
 [ 0.07833035]
 [ 0.18442585]
 [ 0.1945406 ]
 [-0.15381433]
 [ 0.19025096]
 [ 0.18159315]
 [-0.19199531]
 [ 0.13604678]
 [ 0.07123343]
 [ 0.17546369]
 [ 0.20369902]
 [ 0.12559743]
 [-0.17034525]
 [ 0.05670033]
 [ 0.1563526 ]
 [ 0.22863074]
 [ 0.1213848 ]
 [ 0.19147715]
 [-0.17723198]
 [-0.08303449]
 [-0.17067368]
 [-0.2071638 ]
 [ 0.09139002]
 [-0.07336499]
 [ 0.10268591]
 [-0.15483819]
 [ 0.17162633]
 [ 0.09832509]
 [-0.19392511]
 [ 0.13489611]
 [ 0.17492774]
 [-0.07638767]
 [-0.1901836 ]
 [ 0.04880778]
 [ 0.02173262]
 [ 0.17780426]
 [ 0.04945212]
 [-0.0048536 ]
 [-0.06830624]
 [-0.15670596]
 [-0.15700993]
 [ 0.17230459]
 [-0.10172269]
 [-0.18324614]
 [ 0.05383173]
 [-0.15536098]
 [ 0.11659236]
 [-0.20417233]
 [-0.21737376]
 [ 0.14255276]
 [ 0.05664236]
 [ 0.2019528 ]
 [-0.12336165]
 [ 0.21596041]
 [-0.07425935]
 [ 0.17802484]
 [ 0.0930358 ]
 [-0.09277284]
 [ 0.11006018]
 [ 0.08103859]
 [-0.14983135]
 [-0.1994275 ]
 [-0.20433542]
 [-0.08919134]
 [-0.11863444]
 [ 0.18258674]
 [-0.05753257]
 [ 0.21971591]
 [ 0.19238037]
 [-0.21520634]
 [-0.22241336]
 [-0.0740428 ]
 [ 0.0536024 ]
 [-0.04632154]
 [-0.08449032]
 [ 0.17439528]]
dense_1/bias:0
(1,)
[0.06461915]
