le_net5/conv2d_1/kernel:0
(5, 5, 3, 6)
[[[[ 7.01466948e-02  2.66208827e-01  3.07162225e-01  2.24737525e-01
     3.37252051e-01 -2.24933386e-01]
   [-1.33017763e-01 -2.21790686e-01  5.60521930e-02  1.10272646e-01
     1.19764425e-01  7.94104338e-02]
   [-3.59768182e-01 -2.37753451e-01  7.12242797e-02 -1.01744020e-02
     1.57530010e-01  2.20642105e-01]]

  [[ 6.41228110e-02  6.79875016e-02 -9.99249592e-02 -3.27612944e-02
     5.90742767e-01 -7.78602902e-04]
   [ 6.05546087e-02 -2.62388825e-01  4.77754772e-02 -2.17726022e-01
     3.75876099e-01 -2.18411386e-02]
   [-4.08762157e-01 -2.24482745e-01 -2.35821843e-01 -3.12747300e-01
     1.30988449e-01  1.30743071e-01]]

  [[ 2.22965762e-01  3.30284327e-01 -1.10875927e-01  1.01822130e-01
     3.80644709e-01 -1.83207393e-01]
   [ 2.28638634e-01 -4.01435286e-01 -2.59635776e-01 -2.62433589e-01
     2.57366627e-01  7.15704486e-02]
   [-5.28085791e-02 -2.17407405e-01 -3.27475756e-01 -3.66774768e-01
     7.24799857e-02  1.77631170e-01]]

  [[ 8.98175091e-02  3.23541433e-01 -8.23458955e-02  3.02025169e-01
     5.25735080e-01 -1.70869365e-01]
   [ 7.36030489e-02 -1.84768111e-01 -2.16492414e-02 -1.76973671e-01
     3.30997616e-01 -2.58034584e-03]
   [-7.38624856e-02 -2.63065010e-01 -2.85187334e-01 -1.21294342e-01
     3.88478339e-01  1.82106793e-01]]

  [[-5.43833226e-02  8.56538862e-02 -9.19993222e-02  2.78623134e-01
     4.35983807e-01 -8.17307010e-02]
   [-8.66649896e-02 -1.43103926e-02  7.12221116e-02  4.99108136e-02
     3.51162910e-01  9.57109258e-02]
   [-4.01492596e-01  4.54678237e-02 -1.08422905e-01 -2.73178160e-01
     1.72089770e-01  2.44089976e-01]]]


 [[[ 1.77188918e-01  3.84291142e-01  1.88656971e-01  1.56849131e-01
     2.92398930e-01 -2.36339644e-01]
   [ 1.57345802e-01 -1.67806044e-01  2.59779364e-01  1.12003364e-01
     2.25825191e-01 -4.21824828e-02]
   [-3.33613187e-01 -1.47176430e-01 -1.03409328e-02 -7.57638291e-02
     1.72770508e-02  2.24969134e-01]]

  [[ 1.31666943e-01  6.53682724e-02 -5.84695265e-02  1.23356711e-02
     2.43429556e-01 -3.06602061e-01]
   [ 1.85402662e-01 -4.01387572e-01 -1.26813740e-01  8.46105963e-02
     8.22184049e-03  7.70439068e-03]
   [-2.83246458e-01 -4.36583430e-01 -1.18880406e-01 -2.42270499e-01
     9.89239290e-02  1.25530198e-01]]

  [[ 1.75669089e-01  1.60601333e-01 -1.85824692e-01 -1.04018509e-01
     4.66367185e-01 -1.79724663e-01]
   [-8.94066170e-02 -5.77031672e-01 -6.78900033e-02 -2.41170377e-01
     1.33011639e-01  5.78683391e-02]
   [-3.24698299e-01 -2.33605400e-01 -1.06900044e-01 -4.71253932e-01
     2.88321823e-01  2.55547851e-01]]

  [[ 2.34360874e-01 -1.05785914e-01  7.62393400e-02  2.33855158e-01
     2.94225663e-01 -2.11275682e-01]
   [ 1.63633779e-01 -4.91928548e-01 -1.60865113e-01 -1.50912866e-01
     2.04750255e-01 -6.09917939e-02]
   [-1.86113805e-01 -2.96531647e-01 -2.41547182e-01 -3.23715299e-01
     4.79347408e-02  3.02213341e-01]]

  [[-7.64158517e-02  2.28305489e-01 -7.28832232e-03  2.35863060e-01
     4.21114802e-01 -2.82025903e-01]
   [ 9.02700871e-02 -2.64762521e-01 -1.12420678e-01  1.63889766e-01
    -1.79590192e-03 -5.12547716e-02]
   [-2.07520604e-01 -2.74711728e-01 -2.81656682e-01 -1.00641154e-01
     2.19575822e-01  2.79207796e-01]]]


 [[[ 1.77202404e-01  3.96560013e-01  1.11552469e-01  2.07718685e-01
     1.76184744e-01 -2.00002775e-01]
   [ 1.96652800e-01 -7.52860680e-02  2.81758279e-01  1.16385065e-01
    -2.16378629e-01 -9.40620601e-02]
   [-1.92944616e-01  8.22008550e-02  1.11376666e-01 -1.05282404e-01
    -2.31055706e-03  2.57268906e-01]]

  [[-6.14216477e-02 -3.28539647e-02 -1.77605838e-01  1.22014925e-01
     1.07190974e-01 -1.62963405e-01]
   [ 1.39320949e-02 -3.37440133e-01 -2.25306824e-01 -1.01495951e-01
    -2.34131683e-02  2.85210833e-02]
   [-2.84991533e-01 -2.93068737e-01 -2.08827615e-01 -2.68159747e-01
    -2.25473911e-01  3.63110602e-01]]

  [[ 9.22469348e-02 -1.76655889e-01 -2.06105202e-01 -5.88482469e-02
    -4.69041467e-02 -3.41957510e-01]
   [ 1.45991251e-01 -3.99510235e-01  1.18854130e-02  2.11425573e-02
    -1.41222611e-01 -9.17481855e-02]
   [-3.97048652e-01 -5.70589781e-01 -3.07195872e-01 -3.98255348e-01
    -1.92160159e-01  1.47095531e-01]]

  [[ 5.80937527e-02  4.50214706e-02 -6.56071231e-02  4.66278903e-02
     7.07467869e-02 -2.03224421e-01]
   [ 1.76513091e-01 -5.45566916e-01  1.10964432e-01 -1.39385551e-01
    -3.89817029e-01 -1.65805537e-02]
   [-2.29694426e-01 -5.89617014e-01 -2.39547521e-01 -1.87209174e-01
    -2.44198069e-01  2.87323624e-01]]

  [[ 1.25366405e-01 -1.00019671e-01  1.57318234e-01  1.66769788e-01
    -4.94737702e-04 -3.47105920e-01]
   [ 5.03153838e-02 -6.06575549e-01  1.99785829e-01  9.10331681e-02
    -2.19471991e-01  1.21293351e-01]
   [-2.13460103e-01 -4.74501401e-01 -7.20814914e-02 -2.20873833e-01
    -3.18258762e-01  1.90535277e-01]]]


 [[[ 1.42401785e-01  3.81571352e-01  2.07155451e-01  2.90193021e-01
    -3.15706104e-01 -1.69200212e-01]
   [ 5.61251156e-02 -2.98481863e-02  7.43852481e-02 -1.50267854e-02
    -2.30173245e-01  2.24611554e-02]
   [ 4.36283508e-03  1.32166907e-01 -4.20181118e-02 -2.69510806e-01
    -4.09759462e-01  1.11662887e-01]]

  [[-4.96955179e-02  6.05741367e-02  1.43921655e-02 -2.54373159e-02
    -2.28547171e-01 -1.46050781e-01]
   [ 1.21172234e-01 -6.52288869e-02  6.03338704e-02  1.04240678e-01
    -5.98888218e-01 -1.25917733e-01]
   [-2.68308252e-01 -1.59864739e-01 -1.97304502e-01 -2.32784912e-01
    -5.26203811e-01  5.87178059e-02]]

  [[ 1.99577317e-01  1.40204400e-01 -9.29037556e-02 -1.43137157e-01
    -3.90914410e-01 -8.37048143e-02]
   [-1.66036673e-02 -1.49556935e-01 -8.00733939e-02 -1.08555920e-01
    -5.69557667e-01  1.01892039e-01]
   [-3.48908573e-01 -1.32612944e-01 -2.73977757e-01 -4.41761762e-01
    -5.73432803e-01  2.51241803e-01]]

  [[-6.33022115e-02  1.46062702e-01  6.93132654e-02  1.65498540e-01
    -3.08199078e-01 -2.56685853e-01]
   [ 1.86609134e-01 -2.65181333e-01 -1.81665972e-01 -1.06383950e-01
    -5.56693733e-01 -1.51131153e-01]
   [-1.15150616e-01 -2.78203458e-01 -2.98732728e-01 -3.79561752e-01
    -5.80523729e-01  1.67876825e-01]]

  [[ 1.20607771e-01  2.14426201e-02  1.90972865e-01  3.08398694e-01
    -1.57366365e-01 -3.51182997e-01]
   [-5.74658290e-02 -4.05288041e-01  1.79511458e-01  1.84409264e-02
    -4.77594525e-01  2.19999831e-02]
   [-3.74527633e-01 -7.27299824e-02  3.98479402e-02  5.29665723e-02
    -3.20382208e-01  1.42972678e-01]]]


 [[[ 2.39306256e-01  4.99755651e-01  9.07133967e-02  6.90343231e-02
    -3.00106645e-01 -2.01040521e-01]
   [ 2.16031983e-01  3.29481155e-01  1.00453250e-01 -3.92936505e-02
    -1.60308957e-01 -6.54169694e-02]
   [-1.89657524e-01  3.19985360e-01 -1.89827472e-01 -3.60567629e-01
    -2.36688852e-01  1.53640091e-01]]

  [[ 2.63005376e-01  3.26374799e-01  1.57979161e-01  2.20965832e-01
    -3.07432622e-01 -2.00513482e-01]
   [ 1.10818870e-01  1.38318107e-01  8.06149021e-02  2.43095495e-02
    -4.04347509e-01 -1.62790939e-01]
   [-2.00333253e-01  1.16854817e-01 -2.62575168e-02 -2.75082439e-01
    -2.84305006e-01  8.61197785e-02]]

  [[ 1.13606699e-01  3.11999232e-01 -1.19512789e-01 -1.71234846e-01
    -3.19136411e-01 -3.08698356e-01]
   [ 2.16049731e-01  2.50227720e-01  1.02430210e-02 -1.70563772e-01
    -2.60472447e-01 -2.01724797e-01]
   [-2.83155441e-01  3.75053823e-01 -1.84666976e-01 -4.29058582e-01
    -3.70337963e-01  8.07157904e-02]]

  [[-7.09985495e-02  3.36804986e-01 -5.82843414e-03  7.21417665e-02
    -3.18963170e-01 -1.62384450e-01]
   [-1.90098640e-02  1.10017933e-01 -8.84371102e-02 -1.62488893e-01
    -2.57219106e-01 -5.28037883e-02]
   [-4.52346742e-01  2.52222866e-01 -3.57764214e-01 -1.27051145e-01
    -2.23528698e-01  1.28735632e-01]]

  [[-1.51856825e-01  4.87594932e-01 -2.94861849e-02  2.19541579e-01
    -2.12586775e-01 -1.11623399e-01]
   [-1.43095672e-01  1.32211626e-01  1.35749802e-01  2.84014225e-01
    -5.93595356e-02 -1.04460776e-01]
   [-4.34956491e-01  3.71951789e-01 -7.38082826e-02 -1.00885697e-01
    -2.37159863e-01  6.01892322e-02]]]]
le_net5/conv2d_1/bias:0
(6,)
[ 0.2633123   0.07427809  0.33648062  0.28151238 -0.01529625 -0.0137078 ]
le_net5/conv2d_2/kernel:0
(5, 5, 6, 16)
[[[[ 1.39699876e-01 -6.66566417e-02 -4.29081857e-01  1.89968824e-01
    -5.66853657e-02  3.26634377e-01 -2.14422509e-01 -1.69510320e-01
     1.78503200e-01 -3.53917219e-02  2.22863838e-01  2.26779640e-01
    -2.42940500e-01 -2.99996465e-01 -2.86550879e-01 -1.36943445e-01]
   [ 3.59952837e-01  1.16436735e-01 -5.51849902e-01 -3.25250298e-01
    -2.09565982e-01 -3.05720359e-01  5.76152988e-02 -6.58995062e-02
    -7.22914934e-02 -3.35089564e-01  1.11551926e-01  2.93243229e-01
     1.26386927e-02 -2.64502913e-01 -1.91242531e-01 -5.43352485e-01]
   [ 3.08142245e-01 -2.01728061e-01 -6.11480415e-01  1.43491447e-01
    -2.13501137e-02  2.49240741e-01 -2.15864375e-01 -1.10023171e-01
     4.01612557e-02 -6.70251772e-02  2.44237244e-01  9.69654545e-02
    -4.51482058e-01 -2.36100629e-01 -4.46325868e-01 -2.89286822e-01]
   [ 1.32520035e-01 -2.05620408e-01 -2.42368624e-01  1.96480259e-01
    -5.27666584e-02  2.11569175e-01 -4.09153283e-01  9.77714434e-02
     9.06255022e-02 -1.16119146e-01  3.36855441e-01  2.16293782e-01
    -3.17041159e-01 -2.32037827e-01 -4.99423921e-01 -2.08922148e-01]
   [ 4.55523193e-01 -4.74351309e-02 -3.45120519e-01 -5.74609280e-01
    -1.97469339e-01 -2.83658117e-01  3.56946081e-01 -2.12705374e-01
    -5.84137559e-01 -2.88574368e-01 -7.76901022e-02  1.66957110e-01
     1.20500468e-01  1.74785540e-01  1.62249327e-01 -1.98406786e-01]
   [-9.91319418e-02  1.43853799e-01 -2.37822328e-02 -1.97901621e-01
    -2.90754765e-01 -2.94232458e-01  2.88493305e-01  1.76739022e-01
     6.54390380e-02  1.68369133e-02 -2.86404222e-01 -3.85253906e-01
     4.77835461e-02  9.84641388e-02  3.97126526e-02  2.40453314e-02]]

  [[-1.39589617e-02 -2.86684424e-01 -2.94933528e-01  2.40681082e-01
     1.12429857e-01  2.65211195e-01 -1.28359631e-01 -1.34472191e-01
     1.30547345e-01  1.29992992e-01  1.76217273e-01  2.42515966e-01
    -2.73861587e-01 -5.47704399e-01 -3.05146933e-01 -9.22229886e-02]
   [ 2.66825914e-01  4.89334539e-02 -5.91526747e-01 -5.31771004e-01
    -9.02529061e-02 -3.12802285e-01 -4.29512933e-02 -1.12854838e-01
    -1.68212011e-01 -3.86838108e-01  2.01204747e-01  2.60927320e-01
     9.15320870e-03 -3.91426951e-01 -2.10675612e-01 -5.29550135e-01]
   [ 2.63928890e-01 -2.59909540e-01 -6.01470113e-01  9.68924239e-02
    -1.26929924e-01  2.31870294e-01 -2.38354981e-01 -1.85610354e-01
     3.80576327e-02 -2.21563071e-01  2.74734676e-01 -6.87665716e-02
    -4.34431881e-01 -4.84095424e-01 -3.16002041e-01 -3.29634905e-01]
   [ 3.01638752e-01 -1.95363715e-01 -4.30256367e-01  2.50124961e-01
     6.93380684e-02  1.28076449e-01 -2.84534127e-01 -1.88574657e-01
     2.85230409e-02 -9.52583700e-02  3.13195765e-01  2.49417201e-01
    -3.32749426e-01 -3.39936316e-01 -3.02013606e-01 -1.29302040e-01]
   [ 2.49824196e-01 -1.27052348e-02 -7.99472988e-01 -5.72913647e-01
    -7.85720125e-02 -2.38053039e-01  3.92139852e-01 -4.28313375e-01
    -6.77282095e-01 -2.78607219e-01  5.90182021e-02  1.47758067e-01
     5.56662865e-02 -3.56266573e-02  3.41240585e-01 -1.41773611e-01]
   [ 3.91447358e-02  2.64713049e-01 -3.08213104e-02 -1.49039969e-01
    -2.51829058e-01 -2.80663997e-01  3.84162098e-01  1.77724540e-01
    -7.97093883e-02 -2.14189515e-01 -2.28699923e-01 -4.86790895e-01
     1.82082385e-01  1.38696030e-01  2.18735978e-01 -3.15461494e-02]]

  [[-2.10833862e-01 -2.95799911e-01 -2.93073338e-02  2.77641058e-01
     1.99621677e-01  2.04201207e-01 -1.51231766e-01 -2.85547674e-01
     2.82998770e-01  1.91144228e-01  2.43243992e-01  2.16670379e-01
    -3.92736673e-01 -6.50781572e-01 -1.69372588e-01 -1.70011699e-01]
   [ 2.19450280e-01 -1.86820850e-01 -2.14005202e-01 -4.12894428e-01
     7.08417445e-02 -4.18616951e-01  8.38668644e-02 -4.59104814e-02
    -9.71001387e-02 -2.60765731e-01  2.74798959e-01  2.80875325e-01
    -3.66144888e-02 -5.51735580e-01 -3.06549698e-01 -7.06982732e-01]
   [-4.35544215e-02 -2.22019449e-01 -3.06590587e-01  7.46611506e-02
     5.91051579e-03  5.34502007e-02 -1.03422560e-01 -4.45895374e-01
    -1.12803347e-01 -5.63723445e-02  1.89362049e-01 -2.57982276e-02
    -4.43240076e-01 -7.19009042e-01 -3.09335798e-01 -3.06268156e-01]
   [ 1.38555720e-01 -1.56093910e-01 -1.24679998e-01  2.06773579e-01
     1.62832856e-01  2.23483503e-01 -3.54533732e-01 -2.90692180e-01
     5.32557331e-02  6.73619211e-02  2.58122593e-01  2.67560244e-01
    -3.85400295e-01 -4.70436960e-01 -2.48967066e-01 -9.56982449e-02]
   [ 6.47181496e-02 -4.33446728e-02 -5.92181265e-01 -4.70109403e-01
     2.28338987e-01 -3.39540392e-01  4.40390944e-01 -8.26680481e-01
    -5.77551186e-01 -2.75309920e-01  9.35146287e-02  2.63894051e-01
     5.95361255e-02 -5.20781159e-01  3.61932397e-01 -1.86293945e-01]
   [-4.13294248e-02  2.66997993e-01 -1.29985541e-01 -1.50216326e-01
    -3.37576419e-01 -1.27931640e-01  2.79487163e-01  1.71648592e-01
     3.88842821e-02 -1.11467622e-01 -2.87031442e-01 -5.51388502e-01
     2.19102234e-01  1.43032834e-01  1.60400078e-01  1.43815070e-01]]

  [[-1.95719749e-01 -2.92296141e-01  5.49817383e-02  2.29686022e-01
     2.22104430e-01  1.83444932e-01 -9.68725011e-02 -1.23431562e-02
     1.14082761e-01  2.08996788e-01  2.04060227e-01  1.48956671e-01
    -2.55896568e-01 -4.50212270e-01 -1.87743738e-01 -1.16190881e-01]
   [ 1.70652971e-01 -2.21785381e-01  5.38154095e-02 -3.64251673e-01
     2.40519568e-01 -3.12769264e-01 -8.20870250e-02  4.70277183e-02
     8.94078836e-02 -2.68452048e-01  1.80170208e-01  1.84673950e-01
    -3.86157930e-02 -2.93895632e-01 -2.30716839e-01 -3.70831400e-01]
   [-5.67078963e-02 -4.13840592e-01  5.87110892e-02  1.68508247e-01
     2.86079705e-01  9.37167928e-03 -3.98603380e-02 -1.38092309e-01
     1.81708083e-01  7.68282488e-02  1.78369626e-01  6.75505474e-02
    -4.31223422e-01 -6.01740777e-01 -3.44481081e-01 -2.18823135e-01]
   [-1.68520242e-01 -3.01755130e-01 -8.66603013e-03  2.25724921e-01
     2.88386792e-01  2.05654874e-01 -2.64693648e-01 -9.76800770e-02
     2.11217970e-01 -5.20709623e-03  1.19771309e-01  2.91930616e-01
    -3.45422149e-01 -6.50755286e-01 -3.46907735e-01 -2.52877057e-01]
   [-2.95188390e-02  8.52401834e-03 -1.25600919e-01 -3.96652788e-01
     5.04960239e-01 -2.58141488e-01  3.44693631e-01 -5.87905347e-01
    -4.53761727e-01 -3.27637613e-01 -9.40585434e-02  1.59679487e-01
     6.55847713e-02 -4.56333727e-01  4.09929156e-01 -3.85842845e-02]
   [-1.54873699e-01  2.25352570e-01  2.15811133e-02 -1.78773075e-01
    -2.49422297e-01 -2.54399568e-01  2.74568975e-01  3.18205319e-02
    -2.91553084e-02 -1.91234916e-01 -1.06263936e-01 -4.79812115e-01
     1.82928964e-01  8.34353417e-02  9.03169736e-02 -1.25138704e-02]]

  [[-8.73018280e-02 -3.45672190e-01  2.55424321e-01  1.98362887e-01
     1.14046171e-01  2.26710960e-01 -2.66402662e-01  1.15505317e-02
     1.99351221e-01  3.13230231e-02  1.90329477e-02  1.93701535e-01
    -3.64568591e-01 -3.25491756e-01 -1.77058324e-01 -1.06629580e-01]
   [ 3.01368088e-01 -1.64913237e-01  3.71357739e-01 -1.72800466e-01
     3.02663952e-01 -4.07374173e-01  3.69666843e-03  1.98366404e-01
     2.20216602e-01 -1.05358578e-01  1.39976040e-01  3.26803356e-01
    -1.29704788e-01 -1.37115344e-01 -2.83119589e-01 -3.40976298e-01]
   [-1.86120808e-01 -4.41717595e-01  2.18151301e-01  2.06519678e-01
     2.42705092e-01 -1.63518544e-02 -1.51859418e-01  1.41401276e-01
     2.15082958e-01  1.49784312e-01  1.48373187e-01  5.25843985e-02
    -2.83724248e-01 -3.20078850e-01 -2.32721880e-01 -2.67877996e-01]
   [-1.92790762e-01 -3.45795900e-01  2.76849568e-01  2.09003359e-01
     3.56486410e-01  2.29742810e-01 -1.84207141e-01 -2.71871481e-02
     2.42860392e-01  1.19210474e-01  2.69518733e-01  1.62876666e-01
    -3.85118932e-01 -3.93935651e-01 -2.72202462e-01 -1.91510409e-01]
   [ 7.26555148e-03 -4.03796434e-02  3.64391059e-01 -4.68054235e-01
     4.24198121e-01 -2.31076106e-01  3.75046521e-01 -1.88706324e-01
    -2.91336089e-01 -1.31366730e-01 -5.47813773e-02  2.16937080e-01
     7.67078623e-02 -2.62693197e-01  3.78379524e-01 -1.52478144e-02]
   [-1.32388487e-01  2.09849074e-01 -6.00903705e-02 -1.40039206e-01
    -2.61830181e-01 -2.55864501e-01  3.40077221e-01  9.60222781e-02
     1.02614462e-02 -1.95467994e-02 -1.25716791e-01 -4.24707413e-01
     1.49160668e-01  2.05052733e-01  1.82948291e-01  1.92715600e-01]]]


 [[[ 1.81867972e-01 -2.16727316e-01 -3.11488241e-01  2.19292194e-01
    -5.78917898e-02  2.59994239e-01 -2.29344994e-01 -7.45726079e-02
     9.54982266e-02  1.37127042e-02  6.38607070e-02  8.94103050e-02
    -2.52761632e-01  2.38469578e-02 -1.56407326e-01 -8.23452398e-02]
   [ 4.43758488e-01  1.71041846e-01 -4.91208553e-01 -4.45707321e-01
    -2.70459205e-01 -3.88943315e-01  8.52712244e-02  1.20669685e-01
    -6.37080446e-02 -2.11520135e-01  2.80494033e-03  1.40011802e-01
    -1.11031197e-01  1.37489155e-01 -1.57828346e-01 -3.13958198e-01]
   [ 3.71114463e-01 -8.39780718e-02 -3.73969316e-01  4.28605489e-02
    -2.44020358e-01  1.14427367e-02 -1.10798657e-01  4.11025658e-02
     7.95637518e-02  5.39913885e-02  1.58140764e-01 -3.99255678e-02
    -4.46723104e-01  6.30517229e-02 -3.32813114e-01 -1.27963901e-01]
   [ 2.88717180e-01 -8.91350359e-02  9.29330960e-02  2.65966775e-03
    -7.74957091e-02  1.83665335e-01 -4.18757290e-01  2.29976803e-01
     1.42713264e-01  4.08876389e-02  2.45194495e-01  2.15600833e-01
    -4.22240734e-01  1.70938328e-01 -2.60776222e-01 -2.84792986e-02]
   [ 6.37011051e-01 -2.45268434e-01 -2.44095460e-01 -6.69833362e-01
    -2.21991614e-01 -2.73618162e-01 -7.51195773e-02 -2.06104577e-01
    -5.30072272e-01 -2.92854846e-01 -3.61749008e-02  2.93443233e-01
     6.67087287e-02  2.24894866e-01  3.31051320e-01 -2.43879054e-02]
   [ 9.60486606e-02  1.72697946e-01 -1.16024844e-01 -9.44938511e-02
    -2.71305919e-01 -1.94746494e-01  3.23333651e-01  1.13229163e-01
    -6.51071742e-02  1.90570820e-02 -1.97014570e-01 -2.83791542e-01
     3.04938070e-02 -7.48832151e-03  1.74842536e-01 -5.87591343e-02]]

  [[-1.07832387e-01 -3.36745590e-01 -2.90135950e-01  1.26056269e-01
     6.97265789e-02  2.87283689e-01 -2.12713540e-01 -1.56854853e-01
     8.23749527e-02  2.21554115e-01  1.93689570e-01  1.39086500e-01
    -2.97803432e-01 -1.53106883e-01 -1.54774845e-01  8.20705388e-03]
   [ 1.69236168e-01  5.03041968e-02 -5.34040630e-01 -4.73813802e-01
    -3.53006423e-01 -3.49322200e-01  9.98531654e-02 -2.63698816e-01
    -1.12987183e-01 -2.80414194e-01  1.15326598e-01  1.92675024e-01
    -1.37463942e-01 -3.91706705e-01 -7.12682232e-02 -3.78420323e-01]
   [ 1.61468640e-01 -1.57934055e-01 -5.69355071e-01 -1.44366734e-02
    -1.68387100e-01  1.18795462e-01 -1.39269635e-01 -2.43541628e-01
    -1.53769046e-01 -7.78549463e-02  1.94658831e-01 -7.98494890e-02
    -4.23308611e-01 -1.77842081e-01 -1.98304713e-01 -9.37515423e-02]
   [ 3.63275260e-01 -2.14185745e-01 -1.32861033e-01  1.60660118e-01
     2.84603350e-02  5.96746728e-02 -2.83807427e-01 -8.66625011e-02
    -1.23068495e-02 -1.00435885e-02  2.93588489e-01  1.23260342e-01
    -3.50446284e-01  6.29975880e-03 -2.38004982e-01 -7.20615909e-02]
   [ 4.62953925e-01 -4.24486190e-01 -5.57419538e-01 -6.06443107e-01
     6.16826536e-03 -2.62029380e-01 -8.52513611e-02 -6.02554917e-01
    -5.09266436e-01 -4.39024389e-01  6.28092140e-02  3.09896529e-01
     1.15939081e-01  9.37034283e-03  3.22340459e-01 -7.82578066e-02]
   [-2.59012654e-02  1.97538599e-01 -4.78676669e-02 -1.48752376e-01
    -1.94272295e-01 -1.99467614e-01  3.78952831e-01  1.89431347e-02
    -5.06413542e-02  9.69487336e-03 -2.62685210e-01 -3.69626582e-01
     1.15527056e-01  1.77013010e-01  2.08840147e-01 -2.75380556e-02]]

  [[-3.35696340e-01 -4.10533905e-01 -8.53401423e-02  9.97274071e-02
    -2.68406887e-02  1.18997425e-01 -1.47795200e-01 -1.03950858e-01
     2.36872569e-01  1.70234025e-01  2.02297270e-01  1.31851628e-01
    -1.50178537e-01 -4.54109818e-01 -1.52741522e-01  9.76624805e-03]
   [ 4.06674966e-02 -1.54717267e-01 -1.91174701e-01 -5.53818583e-01
    -1.03335213e-02 -5.23724854e-01  1.22953951e-01 -2.29907304e-01
    -1.29125237e-01 -2.23556638e-01  1.45911604e-01  1.45651922e-01
    -2.37487018e-01 -5.49236894e-01 -1.47581905e-01 -3.63243639e-01]
   [-1.27035484e-01 -4.20339823e-01 -2.08350047e-01 -2.41249204e-02
     1.33320108e-01  1.45713478e-01 -1.83657154e-01 -5.37270784e-01
    -1.38238296e-01  9.66009125e-02  1.65253431e-01  3.76568697e-02
    -3.64013791e-01 -4.67969179e-01 -2.35114723e-01  1.96424057e-03]
   [-6.95606321e-02 -2.91480273e-01 -1.59667984e-01  1.45286560e-01
     2.21630163e-03  1.88415945e-01 -2.71636903e-01 -2.62162954e-01
     9.34721231e-02  1.46692649e-01  1.61958963e-01  9.31259468e-02
    -3.26221257e-01 -3.02534908e-01 -2.59852916e-01  1.07485190e-01]
   [-1.10388197e-01 -3.99068832e-01 -5.92806101e-01 -4.66207474e-01
     1.65198907e-01 -3.38484883e-01  4.88141142e-02 -8.47372174e-01
    -6.42618001e-01 -4.21547145e-01 -4.51986082e-02  3.92214060e-01
     9.32842642e-02 -4.82615411e-01  2.41414189e-01 -1.94047228e-01]
   [ 4.21211384e-02  1.50162473e-01 -4.68449444e-02 -6.85927970e-03
    -2.34157607e-01 -1.50786385e-01  3.44223529e-01  1.17600016e-01
    -2.14731670e-03 -1.55524269e-01 -2.41781324e-01 -3.59227598e-01
     5.08072600e-03  1.22455731e-01  2.27298573e-01  1.51629038e-02]]

  [[-3.11320901e-01 -4.21892464e-01  2.66427696e-01  2.14091390e-01
     1.55394405e-01  2.16397494e-01 -2.61994809e-01 -3.04244142e-02
     2.02728406e-01  8.54603723e-02  1.53720692e-01  1.18188232e-01
    -2.54493088e-01 -3.68984789e-01 -7.99122155e-02  4.56720777e-02]
   [-1.09482147e-01 -2.68984109e-01  2.21309125e-01 -5.14216900e-01
     2.68564850e-01 -5.16824484e-01  1.43018067e-01  9.39317420e-02
    -4.76536863e-02 -6.79770410e-02  1.41444296e-01  1.53714284e-01
    -1.97506860e-01 -3.51369262e-01 -2.32966393e-01 -3.40429753e-01]
   [-3.26072782e-01 -3.75580966e-01  1.93106696e-01  4.62545827e-02
     3.34746987e-01 -5.83955944e-02 -1.43761918e-01 -2.65282542e-01
     2.36641653e-02  1.11580081e-01  2.29084656e-01  5.09600788e-02
    -2.64119059e-01 -4.03813094e-01 -9.90763977e-02 -1.13612965e-01]
   [-2.04579607e-01 -3.73873442e-01  1.87680542e-01  1.37659283e-02
     2.54885823e-01  3.87243330e-02 -1.91386446e-01 -2.51906700e-02
     1.31339908e-01  1.88243896e-01  2.89267361e-01  2.29456961e-01
    -3.68830770e-01 -2.96727002e-01 -2.84141690e-01 -8.51309672e-02]
   [-3.95144254e-01 -3.97131294e-01 -1.40219927e-01 -4.31771278e-01
     1.98438451e-01 -2.52933741e-01 -8.33285525e-02 -6.43993676e-01
    -5.08986473e-01 -4.58820760e-01  7.24072382e-02  2.97366887e-01
     1.31941110e-01 -4.84916180e-01  1.97037444e-01 -8.63055289e-02]
   [-6.89079911e-02  2.12675661e-01 -1.23342931e-01 -1.20209575e-01
    -1.27890036e-01 -5.04474808e-03  3.39497209e-01  1.07435346e-01
    -1.31671056e-01 -1.72490627e-01 -3.13054919e-01 -4.41512614e-01
     4.92913686e-02  2.72703096e-02  2.29564056e-01  2.48062592e-02]]

  [[-2.27862760e-01 -2.93647945e-01  2.86869347e-01  1.31090656e-01
     1.00543037e-01  1.30914494e-01 -2.68086642e-01  1.86888650e-01
     1.46068573e-01  1.58566996e-01  1.38667434e-01  6.75250068e-02
    -1.67268336e-01 -2.21528500e-01 -9.65696946e-02  5.52020371e-02]
   [ 6.26883819e-04 -1.99266344e-01  5.08150697e-01 -2.29439422e-01
     6.09632656e-02 -4.81271386e-01  8.92885253e-02  4.05035049e-01
     1.64335370e-01 -9.92697701e-02  8.02190229e-02  2.32640520e-01
    -2.36208931e-01 -1.22016162e-01 -2.43161902e-01 -8.66530165e-02]
   [-3.73312593e-01 -2.60802299e-01  5.37321031e-01  8.40467960e-02
     3.17676097e-01  1.47611098e-02 -9.94085073e-02  1.81057155e-01
     5.40085584e-02  2.30001867e-01  4.46237288e-02  1.16558373e-03
    -3.93891841e-01 -1.93984345e-01 -1.77520961e-01 -1.39957545e-02]
   [-1.93353012e-01 -3.94428521e-01  4.00932133e-01  1.53738439e-01
     2.86676794e-01  3.23640518e-02 -2.89905071e-01 -7.22370204e-03
     1.31294549e-01  1.59787163e-01  1.61254689e-01  1.61012053e-01
    -2.03725651e-01 -1.16794296e-01 -3.02367806e-01 -4.21273783e-02]
   [-1.25874832e-01 -1.83967307e-01  1.70127735e-01 -5.14486074e-01
     1.91212296e-01 -1.95601419e-01  3.52425463e-02 -3.39352399e-01
    -4.61536109e-01 -2.96573728e-01 -2.39630789e-03  2.68540382e-01
     1.57385841e-01 -1.73637643e-01  2.44845897e-01 -3.85651588e-02]
   [ 7.62949586e-02  2.24024460e-01 -6.26760125e-02 -1.02899581e-01
    -2.34000981e-01 -1.41703919e-01  2.26664051e-01 -1.13919992e-02
    -1.11119881e-01 -1.02197357e-01 -2.54608899e-01 -3.68949294e-01
    -9.19839181e-03  5.24165854e-02  1.86193943e-01  1.24851324e-01]]]


 [[[ 2.46427268e-01 -3.74443680e-01 -2.36566439e-01  2.84909308e-01
    -1.11982025e-01  1.86076134e-01 -1.35694772e-01 -8.07160661e-02
     9.09158513e-02  8.35888982e-02  2.80349515e-02 -8.97685811e-02
    -3.42882685e-02  1.36677757e-01 -1.81784704e-01  7.44099542e-02]
   [ 3.08777899e-01 -1.16988175e-01 -2.42190927e-01 -3.65513712e-01
    -2.52358705e-01 -4.34733808e-01 -1.36101425e-01  8.75105634e-02
    -2.46322025e-02 -2.12843135e-01  5.14198840e-03 -5.41157536e-02
     2.40890402e-03  2.28437260e-01 -6.82209507e-02 -2.35505536e-01]
   [ 3.15319628e-01 -1.98891699e-01 -2.64763147e-01 -4.56790291e-02
    -1.81495324e-01  7.50756040e-02 -2.28502020e-01  1.26319245e-01
    -4.38635014e-02 -6.48903772e-02  2.65424281e-01 -1.40647128e-01
    -2.29185954e-01  3.14205259e-01 -2.79033214e-01 -5.37205376e-02]
   [ 3.64748806e-01 -3.49854976e-01  1.79685175e-01 -2.25303322e-02
    -6.85020313e-02  7.39991367e-02 -2.58783102e-01  1.66282788e-01
    -1.37547748e-02  2.86007412e-02  2.56784409e-01  1.12746708e-01
    -2.41088465e-01  2.42127597e-01 -3.63094121e-01 -7.40952045e-02]
   [ 4.89397973e-01 -3.36092860e-01 -6.71826452e-02 -4.87557709e-01
     6.15432113e-02 -1.00389145e-01 -1.44264638e-01 -2.88873106e-01
    -4.37090576e-01 -2.69121706e-01 -7.53735602e-02  2.36506224e-01
     3.04783374e-01  2.38917455e-01 -6.10467140e-03 -1.21922299e-01]
   [ 4.66482192e-02  2.78361082e-01  7.38436505e-02 -1.20460935e-01
    -1.51191801e-01  2.13774014e-03  1.95975706e-01  9.74809378e-02
    -6.85038269e-02 -3.84854078e-02 -1.02204815e-01 -2.86268294e-01
    -1.25687301e-01  6.95411395e-03  1.25456542e-01 -1.99239664e-02]]

  [[-5.04049584e-02 -4.48334336e-01 -1.69674397e-01  3.03450346e-01
     7.95840379e-03  2.67982632e-01 -2.10111737e-01 -2.29558513e-01
     2.06741408e-01  2.51558185e-01  7.70390555e-02 -6.71266466e-02
    -8.24353769e-02  5.22068283e-03 -1.16258889e-01 -1.12346597e-02]
   [ 2.84451190e-02 -2.51272053e-01 -5.39607406e-01 -2.77669936e-01
    -9.35626626e-02 -4.79147226e-01 -3.37246545e-02 -3.15615922e-01
    -1.13482647e-01 -1.73160702e-01  3.00187934e-02 -7.58522302e-02
     1.21007999e-02 -9.43598747e-02 -6.23634532e-02 -1.50757909e-01]
   [ 7.26101026e-02 -4.08349365e-01 -5.57293296e-01  5.09700328e-02
     9.84580219e-02  1.72024831e-01 -9.35997739e-02 -2.75131583e-01
    -3.98157313e-02 -2.67802849e-02  9.67135429e-02 -7.05299079e-02
    -1.71550781e-01  1.19589284e-01 -2.04094663e-01 -4.36406098e-02]
   [ 2.03496948e-01 -3.63876909e-01 -1.09017611e-01  1.34375677e-01
     5.79675138e-02  1.25267014e-01 -3.58484477e-01  2.36363187e-02
     8.52971524e-02  1.65878311e-01  1.44827828e-01  3.13855149e-02
    -1.08302489e-01  2.28987172e-01 -2.47850597e-01 -3.15709971e-02]
   [ 2.78681248e-01 -4.91238624e-01 -5.58795750e-01 -4.48431492e-01
     1.45138264e-01 -3.09622586e-01 -1.61308452e-01 -6.08937919e-01
    -5.44642985e-01 -3.63927335e-01 -3.18017304e-02  3.69486988e-01
     3.24144185e-01  1.69092357e-01  1.89609200e-01 -4.23474371e-01]
   [ 1.34357780e-01  2.63356090e-01 -1.21254928e-01 -1.51672751e-01
    -1.68465644e-01  6.76204562e-02  2.19653055e-01 -1.35220429e-02
     2.83671152e-02 -1.12936890e-03 -2.38861606e-01 -2.12320507e-01
    -1.29604235e-01  4.34516855e-02  1.11753717e-01 -2.39291620e-02]]

  [[-4.28351283e-01 -4.21856403e-01  2.12857053e-02  2.93448985e-01
    -9.52746645e-02  2.75005132e-01 -2.89008647e-01 -1.33583635e-01
     1.82661697e-01  1.68652892e-01  3.37443613e-02  7.46769831e-02
    -7.09405988e-02 -1.76264152e-01 -1.15722656e-01  1.12572275e-01]
   [-4.56113994e-01 -2.44757921e-01 -2.49306023e-01 -3.53181869e-01
     3.39957117e-03 -4.33424175e-01 -9.87592116e-02 -2.81202793e-01
    -1.22739591e-01 -1.41873568e-01  3.49259377e-02 -5.79854399e-02
    -2.12762654e-02 -6.49749398e-01 -1.43173695e-01 -2.98318356e-01]
   [-3.12833935e-01 -5.15555859e-01 -2.25096658e-01  8.26927368e-03
     2.00642660e-01  9.91449282e-02 -1.77234173e-01 -5.41355610e-01
    -9.66901109e-02  9.40981060e-02  7.97725469e-02 -8.86789486e-02
    -1.89405456e-01 -4.82230276e-01 -1.63174003e-01  1.39549961e-02]
   [-1.78797826e-01 -3.25278819e-01 -8.74340236e-02 -3.36608067e-02
     1.66489184e-01  1.35498449e-01 -1.96351305e-01 -1.01747520e-01
     9.35444701e-03  9.56858769e-02  2.89306998e-01  1.02133691e-01
    -1.68204173e-01 -1.13191433e-01 -2.05052361e-01  1.18146546e-01]
   [-1.27412915e-01 -5.59951901e-01 -4.30891335e-01 -5.47722757e-01
     1.57475933e-01 -1.76010936e-01 -1.25752866e-01 -7.50920415e-01
    -4.24984485e-01 -5.91563463e-01  7.93146268e-02  3.50563198e-01
     1.72527477e-01 -3.24555308e-01  9.77526680e-02 -4.11553532e-01]
   [ 1.24177739e-01  1.67734295e-01 -3.43849696e-02  3.01196636e-03
    -2.57314354e-01  8.14784467e-02  3.32855374e-01  1.58873588e-01
    -6.79016560e-02 -1.37159258e-01 -3.66141170e-01 -3.07345748e-01
    -4.94257808e-02  1.39009878e-01  3.42002250e-02  4.15073186e-02]]

  [[-5.03383756e-01 -3.65731686e-01  1.64789557e-01  8.34071487e-02
    -7.71772712e-02  1.04634382e-01 -2.10951433e-01 -4.18690778e-02
     1.06140867e-01  3.07798833e-01  8.47341120e-02 -9.66726169e-02
    -1.78237334e-02 -2.69170821e-01 -1.67032152e-01  1.44523859e-01]
   [-5.23530006e-01 -2.73672223e-01  3.34124148e-01 -3.94494385e-01
     2.01417908e-01 -4.29955184e-01 -1.10351108e-02 -6.53597936e-02
    -1.64777249e-01 -2.04336017e-01  1.31779313e-01 -1.21471630e-02
    -7.63001963e-02 -4.19789433e-01  4.07394255e-03 -7.80125484e-02]
   [-5.36130071e-01 -3.89731497e-01  2.95991778e-01  1.56662524e-01
     1.74884409e-01  2.02459376e-02 -8.53162110e-02 -2.11654782e-01
    -1.21990759e-02  7.84299895e-03  1.90657124e-01 -5.83200231e-02
    -2.71734625e-01 -3.37001741e-01 -9.48264226e-02  5.15776314e-02]
   [-4.53247100e-01 -3.79780203e-01  2.07367525e-01  1.16402060e-02
     2.06989452e-01  4.21313271e-02 -2.46829316e-01 -1.54765397e-01
     1.91097744e-02  1.81378365e-01  2.39949718e-01  5.72359003e-02
    -6.21528924e-02 -2.32807741e-01 -2.48861387e-01  1.55345142e-01]
   [-4.28632438e-01 -5.53979278e-01 -1.78075299e-01 -3.96877021e-01
    -9.02717859e-02 -9.05247033e-02 -5.36147319e-02 -5.69074214e-01
    -5.77921987e-01 -3.88578713e-01  1.36537999e-02  3.82745713e-01
     1.78007409e-01 -5.20055592e-01  1.99292541e-01 -3.70080799e-01]
   [ 1.33673146e-01  1.32545799e-01 -4.05605659e-02 -3.88551839e-02
    -1.55392006e-01  9.68039259e-02  2.96112329e-01  7.32011572e-02
    -2.09661834e-02 -2.40373760e-02 -2.40797266e-01 -2.97638446e-01
    -1.05914667e-01  1.46729752e-01  1.94768012e-01  2.09093973e-01]]

  [[-3.04298729e-01 -2.86852032e-01  3.18039924e-01  6.75238892e-02
     3.02586984e-02  1.60891950e-01 -1.16371050e-01  1.33452788e-01
     1.69699356e-01  2.77086228e-01  9.05047208e-02 -5.99841103e-02
    -7.48609826e-02 -1.89212412e-02 -1.76036343e-01  3.08107082e-02]
   [-3.46833348e-01 -2.41985649e-01  5.68953037e-01 -2.87167728e-01
     2.46938303e-01 -5.27401686e-01 -1.08653359e-01  2.95045525e-01
    -2.91799637e-03 -4.98316996e-02 -4.06622328e-03 -6.63156509e-02
     6.28794031e-03 -1.97917670e-02 -7.83839524e-02  1.04059726e-01]
   [-4.09196228e-01 -4.14213091e-01  5.22357762e-01  6.94809556e-02
     1.50815278e-01  7.54799396e-02 -8.30236748e-02  2.13383406e-01
     1.13878869e-01  7.49470964e-02  1.78230017e-01 -9.80518982e-02
    -2.27687225e-01 -1.09971821e-01 -7.01722428e-02  1.29338920e-01]
   [-3.56174439e-01 -3.62884790e-01  3.25921446e-01  5.10980189e-02
     2.11934522e-01  8.70636851e-02 -2.63024777e-01  4.29454558e-02
     1.27200767e-01  1.53754935e-01  1.11112691e-01  9.21699703e-02
    -1.69470951e-01 -4.28627692e-02 -2.52065808e-01 -9.54931881e-03]
   [-1.86115563e-01 -3.53122801e-01  8.24698955e-02 -4.22580510e-01
    -8.43238533e-02 -1.53777435e-01 -9.16096196e-02 -4.02757972e-01
    -5.32721996e-01 -3.61858368e-01 -2.37751380e-03  1.96247175e-01
     2.08411470e-01 -1.44410864e-01  1.00930892e-01 -2.28206784e-01]
   [ 6.55666664e-02  1.97479248e-01  2.78268214e-02 -3.86953726e-03
    -1.80281147e-01 -7.19659552e-02  1.60866484e-01  1.48408517e-01
     3.99645232e-02 -7.37961531e-02 -2.46767342e-01 -2.96961784e-01
    -6.75535202e-02  1.58848807e-01  6.40511066e-02  1.99378401e-01]]]


 [[[ 1.03580490e-01 -3.16968024e-01 -7.52870217e-02  1.51671901e-01
     6.00343384e-02  2.35314623e-01 -9.60304365e-02  2.72640027e-02
     7.34616667e-02  1.66558802e-01  1.18779317e-01 -1.31712466e-01
     9.52099785e-02  8.79960433e-02 -2.67238766e-01  1.86642066e-01]
   [ 3.39775473e-01 -7.56850243e-02 -2.90036142e-01 -2.19036430e-01
    -1.60787944e-02 -3.65898222e-01 -1.41707331e-01  1.47457406e-01
     2.25581061e-02 -2.11936101e-01  4.33027856e-02 -9.13358629e-02
     2.37154871e-01  1.97568849e-01 -1.47760972e-01 -1.70081362e-01]
   [ 3.47514033e-01 -3.58589709e-01 -1.79048941e-01  1.30961448e-01
     1.01324461e-01  1.45586103e-01 -1.65246412e-01  5.94710261e-02
     5.48793711e-02  1.97960094e-01  1.58153668e-01 -1.99912980e-01
    -1.07207624e-02  4.45464998e-01 -1.82006091e-01 -1.99060645e-02]
   [ 4.03734744e-01 -3.76141846e-01  4.92862761e-02  4.55396362e-02
     9.20272022e-02  4.73056622e-02 -1.57163098e-01  2.56051213e-01
     3.60135287e-02  1.59768477e-01  1.02603242e-01 -1.57730982e-01
     9.87666771e-02  2.16147780e-01 -1.64689615e-01  1.34313330e-01]
   [ 2.00610191e-01 -3.99737895e-01 -2.16039687e-01 -3.39849621e-01
     2.29138270e-01 -2.51482189e-01 -4.66096215e-02 -4.36696500e-01
    -3.19719762e-01 -2.26771727e-01 -5.77706471e-02 -2.66703181e-02
     2.86743820e-01  6.98864460e-02 -5.31107597e-02 -2.71486789e-01]
   [ 1.40182480e-01  2.87877053e-01  9.29786935e-02 -1.09540313e-01
    -1.24425754e-01 -1.17342293e-01  1.58338740e-01  5.18941507e-02
     5.68881854e-02  3.47954556e-02 -1.77283078e-01 -5.85000031e-02
    -4.08309512e-02  1.48705810e-01  2.14629009e-01  7.09811002e-02]]

  [[-1.42225489e-01 -4.31592941e-01 -1.11025319e-01  1.95697159e-01
    -1.52973890e-01  2.68559396e-01 -6.04005828e-02 -5.62342368e-02
     1.71965882e-01  3.21784407e-01  1.02848504e-02 -2.33930379e-01
     1.38725206e-01  1.02372281e-01 -2.22460717e-01  2.46483311e-01]
   [-4.07729372e-02 -3.54228497e-01 -6.12523615e-01 -2.43178695e-01
     7.99131300e-03 -3.41608346e-01 -1.25740115e-02 -2.28496745e-01
    -5.28347567e-02 -2.81127095e-01  6.99179620e-02 -7.15044066e-02
     1.81623057e-01 -1.64161075e-03 -1.71775863e-01 -3.22807014e-01]
   [ 1.74580857e-01 -5.36109984e-01 -5.13937950e-01  5.79134282e-03
     4.34517637e-02  9.11728591e-02 -1.70961380e-01 -3.66467416e-01
    -5.27127273e-02  1.67867705e-01  2.42493421e-01 -1.06926739e-01
     8.03150330e-03  2.29033172e-01 -1.88423753e-01 -3.56670506e-02]
   [ 3.12298983e-01 -3.74159962e-01 -1.72320083e-02  6.03311062e-02
     1.17872670e-01  1.23491481e-01 -1.76415890e-01  8.18440020e-02
    -1.60457268e-02  2.45667055e-01  2.77372599e-01 -1.77258760e-01
     1.12348005e-01  3.65740925e-01 -2.59335518e-01  2.30310991e-01]
   [-2.16253903e-02 -5.27033567e-01 -3.89656991e-01 -4.04475182e-01
     1.01537988e-01 -2.55549133e-01 -1.19873472e-01 -6.35152757e-01
    -3.81458879e-01 -4.08209145e-01  6.41311109e-02  1.59667164e-01
     3.36143315e-01 -1.29934683e-01 -1.68941900e-01 -5.57065666e-01]
   [ 2.12253630e-01  2.96093315e-01  9.98146161e-02 -9.04357210e-02
    -3.17246139e-01 -8.15972313e-02  2.11261004e-01  6.81252480e-02
    -5.34754135e-02 -1.33617446e-01 -2.70255268e-01 -1.10971987e-01
    -1.17947645e-01  5.45709059e-02  1.05942965e-01  2.24228546e-01]]

  [[-2.43249193e-01 -5.24704456e-01 -1.04589038e-01  1.63858593e-01
    -1.41014740e-01  1.31840751e-01 -1.92492791e-02 -1.65740222e-01
     7.79022500e-02  3.24628770e-01 -5.80084063e-02 -9.69152302e-02
     6.12699464e-02 -6.59434795e-02 -1.86993822e-01  1.85659945e-01]
   [-5.23989260e-01 -3.37473571e-01 -2.34112471e-01 -3.03116202e-01
     8.46741050e-02 -3.50112110e-01 -2.15085801e-02 -3.37999523e-01
    -1.78204164e-01 -2.51030952e-01  6.45652711e-02 -1.42624810e-01
     1.97287902e-01 -4.47501600e-01 -1.43518716e-01 -3.12156230e-01]
   [-3.89908373e-01 -5.25818467e-01 -1.30492941e-01  1.61421224e-01
     1.53414220e-01  1.61385804e-01 -1.62482321e-01 -4.56195056e-01
    -5.88155948e-02  1.46324962e-01  1.65688619e-01 -1.48267701e-01
    -1.36257932e-01 -2.85017759e-01 -7.35886618e-02  9.41960439e-02]
   [-8.10480714e-02 -3.30157578e-01 -1.26163855e-01  1.04270995e-01
     1.51896015e-01  1.39229313e-01 -2.64068604e-01 -9.18355435e-02
     9.65167433e-02  2.77302206e-01  1.98886111e-01 -5.51259406e-02
     1.08540706e-01  3.27629782e-02 -1.47219688e-01  2.32972592e-01]
   [-2.79105902e-01 -4.65586811e-01 -3.41254473e-01 -4.07297164e-01
    -2.34516673e-02 -1.80654183e-01  3.98643874e-02 -7.83822656e-01
    -4.50779885e-01 -3.95664155e-01 -1.02454208e-01  2.82883406e-01
     2.06857622e-01 -1.81909904e-01 -9.42164958e-02 -6.14879012e-01]
   [ 2.69428641e-01  2.54559845e-01  1.14917330e-01 -9.10845250e-02
    -2.75263101e-01  1.01811856e-01  1.06973164e-01  8.22052956e-02
    -1.02603182e-01 -1.00991756e-01 -2.78128237e-01 -2.21489236e-01
    -7.28557184e-02  2.12892681e-01  5.75081147e-02  6.86151832e-02]]

  [[-3.85625571e-01 -3.31816494e-01  1.80686921e-01  2.39712760e-01
    -1.39824152e-01  2.04028249e-01  2.34813290e-03  1.63672771e-02
     1.03302389e-01  3.61431181e-01 -4.52578701e-02 -3.75470892e-02
     4.97756340e-02 -4.04340401e-02 -7.25709051e-02  3.58290263e-02]
   [-7.87056744e-01 -1.79257885e-01  1.07180111e-01 -3.67030025e-01
     1.40684918e-01 -3.01714748e-01 -2.54973620e-02 -1.14706673e-01
    -1.31372094e-01 -1.72365651e-01  1.83286235e-01 -6.01080768e-02
     1.77679300e-01 -5.09029984e-01 -2.42346138e-01 -2.04087436e-01]
   [-5.21367073e-01 -3.65552574e-01  1.93712831e-01  1.54005975e-01
     1.30145997e-01  8.19520876e-02 -5.01145273e-02 -3.15769494e-01
     2.11120620e-02  4.22301814e-02  8.00640136e-02 -6.60168082e-02
    -1.06570102e-01 -2.07741871e-01 -1.43981114e-01  8.84277597e-02]
   [-5.12342393e-01 -3.12703818e-01  2.80382603e-01  3.94502617e-02
     8.29242617e-02  1.31202281e-01 -2.31382430e-01 -1.14851251e-01
     6.33948073e-02  1.35446802e-01  1.10677682e-01 -4.91253175e-02
    -5.13083907e-03 -9.96392295e-02 -1.66763306e-01  1.65979952e-01]
   [-3.77642572e-01 -1.55157432e-01 -2.50115484e-01 -3.94906133e-01
    -1.52988896e-01 -2.11722866e-01 -1.11531995e-01 -5.60377181e-01
    -4.66866523e-01 -3.84885103e-01  5.67627177e-02  2.38685146e-01
     3.23778033e-01 -3.18051875e-01 -1.26622707e-01 -4.66604382e-01]
   [ 1.20358117e-01  2.50793070e-01 -1.93357635e-02  7.60117322e-02
    -3.08688521e-01  7.92733878e-02  1.21827915e-01  2.69160867e-02
    -2.23726295e-02 -9.54498723e-02 -3.64401489e-01 -5.35903201e-02
    -1.34635672e-01  3.83061096e-02  7.58333281e-02  1.63072094e-01]]

  [[-3.50833327e-01 -2.14013174e-01  2.34863490e-01  2.92276382e-01
    -1.47822462e-02  2.08447456e-01 -3.00940825e-03  5.19053936e-02
     4.35812026e-02  3.48271370e-01  8.08607638e-02 -6.43489584e-02
     4.88386676e-02  1.93271711e-02 -1.17104031e-01  2.05214992e-01]
   [-2.63109177e-01 -2.98010558e-01  5.02598047e-01 -2.98406720e-01
     1.32966131e-01 -3.54229867e-01  9.28468886e-04  1.88834652e-01
    -4.44149300e-02 -1.21095665e-01  1.55375585e-01 -1.37038931e-01
     1.02598093e-01 -1.41808614e-02 -1.12225398e-01  5.02028838e-02]
   [-3.64708573e-01 -4.25097615e-01  6.38182402e-01  1.18414700e-01
     1.49137869e-01  1.47624046e-01 -1.15833201e-01  1.52019963e-01
    -4.59781811e-02  2.66315937e-01  4.56638522e-02 -1.52573317e-01
    -5.94614223e-02  4.46564518e-02 -6.30496815e-02  2.35403657e-01]
   [-2.58804083e-01 -2.56784678e-01  4.41570431e-01  7.47267827e-02
     1.38486564e-01  1.49756372e-01 -9.81609076e-02  1.28162995e-01
     1.87108070e-02  2.87848651e-01  2.43272573e-01  1.70058087e-02
     1.49353802e-01 -1.07614286e-01 -1.81945294e-01  2.44383708e-01]
   [-1.78182557e-01 -1.22009680e-01  5.53747416e-02 -1.35019436e-01
    -1.62031367e-01 -1.32625207e-01  1.83974169e-02 -4.21133131e-01
    -3.52861881e-01 -3.76632512e-01  7.84737431e-03  1.25762999e-01
     3.61807108e-01 -1.36189729e-01  1.78811699e-02 -2.10335299e-01]
   [ 2.99280047e-01  2.76698053e-01  2.47477554e-02 -8.88348520e-02
    -2.50459671e-01  1.03651769e-02  1.25244007e-01  9.27305967e-02
    -9.68806725e-03 -3.90814133e-02 -2.37497613e-01 -8.59408528e-02
    -1.55522050e-02  1.01880021e-01  1.72463015e-01  1.55246556e-01]]]


 [[[ 1.84654593e-01 -2.76833892e-01 -8.16297531e-02  2.60911316e-01
    -1.69853643e-02  3.87325913e-01 -2.32760441e-02 -6.81841373e-02
     2.25794718e-01  4.61101741e-01 -1.93584561e-02 -1.55796140e-01
     9.70302373e-02  2.03241378e-01 -1.08434275e-01  2.90965676e-01]
   [ 3.18188488e-01 -1.06035315e-01 -2.27365300e-01 -6.34297654e-02
     2.80225158e-01 -1.39249578e-01  4.85310070e-02  1.97876081e-01
     5.12985922e-02  4.42883149e-02  1.73737764e-01 -4.37390029e-01
     7.80844539e-02  1.71393812e-01 -3.50843847e-01 -1.18720300e-01]
   [ 5.10380745e-01 -3.54178756e-01 -5.02948798e-02  1.12513267e-01
    -2.62898114e-03  2.00890511e-01 -3.61478850e-02 -5.07653952e-02
    -2.49607675e-03  3.31135541e-01  2.30280817e-01 -3.34234774e-01
     1.27240971e-01  4.63249385e-01 -1.83493987e-01  1.96546644e-01]
   [ 3.91512305e-01 -3.59847605e-01  1.95615366e-01  6.12827241e-02
     2.53900187e-03  1.66475430e-01 -8.19347724e-02  9.67256576e-02
     3.87134179e-02  3.49613935e-01  6.13066331e-02 -2.02570543e-01
     2.43150070e-02  3.19220066e-01 -2.46484756e-01  3.56130242e-01]
   [ 2.04680994e-01 -3.82340968e-01 -2.06048414e-01 -3.75771075e-02
    -2.86658883e-01 -3.77018392e-01  2.21777916e-01 -4.25401270e-01
    -3.42100680e-01 -2.28498995e-01 -2.01417983e-01 -1.87721819e-01
     3.64076257e-01 -8.45184028e-02  1.15220740e-01 -3.00803453e-01]
   [ 2.09517792e-01  1.55982211e-01  1.76191524e-01 -8.33240896e-02
    -2.66851932e-01 -1.05164461e-01  2.23203570e-01  8.96987468e-02
    -8.19399133e-02  3.80141810e-02 -1.61441952e-01 -3.55483592e-02
    -9.41669196e-02  1.78050295e-01  2.05637395e-01  5.08362334e-03]]

  [[-8.73015523e-02 -3.90659630e-01 -1.07003540e-01  2.96345353e-01
    -1.28622994e-01  3.26309592e-01  8.79251137e-02 -1.71080574e-01
     1.10630862e-01  3.50860596e-01 -2.62243338e-02 -1.52801931e-01
     2.21771672e-01  3.78339700e-02 -1.25514209e-01  2.77128398e-01]
   [-1.69377141e-02 -3.18109840e-01 -4.43678319e-01 -1.37846127e-01
     1.28181383e-01 -2.02728003e-01 -5.69586493e-02 -2.30722502e-01
     3.32514346e-02 -1.51420087e-01  1.39551029e-01 -3.23984802e-01
     2.34056935e-01  7.07193241e-02 -3.28452080e-01 -7.81377628e-02]
   [ 2.90399998e-01 -4.55730468e-01 -2.00709656e-01  1.94853753e-01
     9.95949432e-02  2.17822418e-01 -1.43265471e-01 -1.53158143e-01
     4.07505743e-02  1.68887943e-01  1.15482204e-01 -2.90258527e-01
     1.38444856e-01  3.20686042e-01 -1.03802867e-01  1.75639525e-01]
   [ 3.82192284e-01 -3.72592062e-01 -8.83368030e-02  6.11312538e-02
    -8.23103413e-02  1.33170113e-01 -6.70696497e-02  1.55791417e-02
    -3.23124602e-02  3.38501871e-01  2.03994781e-01 -2.09784716e-01
     7.55461901e-02  3.12617719e-01 -1.14219069e-01  3.73934865e-01]
   [-2.22801432e-01 -2.73930639e-01 -4.90677536e-01 -1.98770404e-01
    -3.21818799e-01 -4.76437658e-01  2.61141241e-01 -6.02830112e-01
    -4.72905964e-01 -3.25580657e-01 -1.03945479e-01 -1.26496762e-01
     3.62588316e-01 -2.30150402e-01  2.08596904e-02 -5.73230088e-01]
   [ 3.03701788e-01  3.27142775e-01  5.03331609e-02 -3.56445126e-02
    -3.58468860e-01  1.43345827e-02  2.39678055e-01  1.84055895e-01
    -1.28066838e-01 -5.03210234e-04 -2.59227037e-01 -6.72641844e-02
    -4.98629510e-02  6.52245879e-02  1.49053007e-01  1.19196124e-01]]

  [[-3.17655504e-01 -2.99210846e-01  9.86841992e-02  3.10785174e-01
    -1.87208056e-01  2.34575406e-01 -7.88207129e-02 -1.52137458e-01
     1.25868052e-01  4.41243649e-01 -5.07750846e-02 -2.41964355e-01
     2.14462727e-01  1.92795973e-02 -1.34658396e-01  2.71513790e-01]
   [-5.57031751e-01 -3.29913527e-01 -1.01131119e-01 -2.14641809e-01
     1.26431093e-01 -2.29070291e-01  7.34395608e-02 -2.61111796e-01
     7.85502121e-02 -2.20123623e-02  5.17625688e-03 -4.31034267e-01
     1.45799845e-01 -3.77406567e-01 -3.85040581e-01 -1.89328462e-01]
   [-1.22743465e-01 -4.00172710e-01 -1.31805867e-01  1.13336302e-01
     4.54297066e-02  2.13725716e-01 -9.47495773e-02 -3.28873217e-01
    -6.33702427e-02  2.45499715e-01  8.03401619e-02 -1.35300979e-01
     1.79678082e-01 -6.27949238e-02 -1.12305336e-01  3.41928571e-01]
   [-1.61295041e-01 -2.23895296e-01 -4.27444801e-02  2.05934510e-01
    -7.67106265e-02  1.06467769e-01  2.07456499e-02 -2.30841953e-02
    -2.44881399e-02  3.19204152e-01 -6.14326587e-03 -1.90356687e-01
     1.41795859e-01  7.73752183e-02 -1.61919087e-01  4.21755910e-01]
   [-3.79745960e-01 -2.58481234e-01 -5.11697888e-01 -1.63014308e-01
    -2.71068037e-01 -6.38999104e-01  8.90228078e-02 -5.06359875e-01
    -6.64456546e-01 -5.07176995e-01 -1.28148824e-01 -1.02721825e-01
     3.42497438e-01 -4.42512661e-01 -6.88618273e-02 -6.43713772e-01]
   [ 3.30480129e-01  2.19723389e-01  9.96052697e-02 -7.22215548e-02
    -2.44012430e-01  1.25063444e-02  1.40155941e-01  1.82545677e-01
    -3.36494707e-02 -1.75864518e-01 -3.16296637e-01 -6.55839369e-02
    -8.08149129e-02  2.10526705e-01  1.06384739e-01  2.29022622e-01]]

  [[-3.75773937e-01 -1.92594439e-01  2.09221452e-01  3.42071652e-01
    -6.93547428e-02  3.12438905e-01 -6.98403716e-02 -1.12200491e-01
     1.84756801e-01  5.24742603e-01  1.17886243e-02 -2.38514274e-01
     3.08964640e-01  1.94065645e-02 -1.55629262e-01  2.67493218e-01]
   [-6.43151760e-01 -1.75514281e-01  1.46082312e-01 -1.42484561e-01
     7.03195632e-02 -2.29139015e-01 -3.19450647e-02 -3.55778784e-02
     6.76246658e-02 -1.14593454e-01  7.68538043e-02 -2.32475191e-01
     2.17567027e-01 -3.07255447e-01 -2.43997306e-01 -9.28808227e-02]
   [-4.21777159e-01 -2.78154939e-01  3.14803064e-01  1.98307633e-01
     9.36063286e-03  2.45266899e-01 -1.04007594e-01 -2.33547777e-01
    -1.33388937e-01  1.77400187e-01  1.53322026e-01 -2.28676721e-01
     2.02123001e-01 -8.23299438e-02 -5.82207553e-02  3.52697879e-01]
   [-3.54050457e-01 -9.59603265e-02  2.26988614e-01  1.24738693e-01
    -1.02501199e-01  6.55894950e-02  1.17266867e-02 -1.34143978e-01
     6.07346185e-02  4.04003918e-01  1.25705823e-01 -1.98908731e-01
     2.58565158e-01 -3.68499942e-02 -9.98663977e-02  2.39836633e-01]
   [-4.96951759e-01 -2.44812608e-01 -2.36536637e-01 -4.24903519e-02
    -4.57113355e-01 -4.54210609e-01  1.85354486e-01 -4.56134319e-01
    -5.60616791e-01 -3.60334903e-01 -1.31145537e-01 -9.01543498e-02
     4.75959122e-01 -4.12208170e-01 -3.68946195e-02 -5.47465205e-01]
   [ 2.07041651e-01  1.33166716e-01  3.51015329e-02  2.49009412e-02
    -2.46534988e-01 -6.20644465e-02  1.48115709e-01  8.35368261e-02
    -1.27071631e-03 -1.93361923e-01 -2.47354522e-01 -1.66737959e-01
    -4.83347811e-02  1.39979228e-01  1.21209726e-01  2.20460296e-01]]

  [[-2.76293665e-01 -2.42522042e-02  4.33925837e-01  3.83741707e-01
    -1.25375777e-01  3.24117362e-01  4.48117815e-02  1.28475279e-01
     2.86785930e-01  4.69747543e-01 -1.38011575e-01 -1.31097168e-01
     2.16672480e-01  5.41829169e-02 -4.87535596e-02  4.81735528e-01]
   [-2.84057468e-01 -1.43350646e-01  5.47680497e-01 -1.52002141e-01
    -6.85657337e-02 -2.15436518e-01  1.21281095e-01  2.19134688e-01
    -5.05354255e-03  1.36324257e-01  1.33993283e-01 -4.17642683e-01
     1.47870198e-01 -4.67425808e-02 -1.69265807e-01  7.96649903e-02]
   [-1.12105504e-01 -7.00824037e-02  5.20193636e-01  2.85638958e-01
    -1.24823965e-01  9.32626873e-02  2.52970904e-02  1.08970352e-01
    -4.60757576e-02  2.65046895e-01  4.42960896e-02 -3.24312747e-01
     1.69994324e-01  7.34829903e-02  1.67575553e-02  3.68672341e-01]
   [-2.03720227e-01 -1.25409976e-01  4.38465267e-01  1.26753107e-01
    -1.39787763e-01  5.64529076e-02 -1.59647297e-02  1.31572217e-01
    -2.19513178e-02  3.15670550e-01  1.27942592e-01 -2.18456358e-01
     2.32402682e-01  1.89500451e-02 -6.82267770e-02  4.28513885e-01]
   [-2.15564296e-01 -5.74321188e-02 -2.50759888e-02  7.20049515e-02
    -4.16352421e-01 -4.53379601e-01  2.88289517e-01 -4.03803051e-01
    -4.61571813e-01 -1.55310631e-01 -2.53693163e-01 -2.70420194e-01
     5.66576362e-01 -2.92112261e-01  1.22246794e-01 -1.19355254e-01]
   [ 3.50630999e-01  9.61554423e-02  2.01437145e-01  9.28236768e-02
    -2.34588265e-01  7.87515119e-02  2.49231607e-01  7.71766827e-02
    -1.10170478e-02 -5.08988462e-02 -3.39577109e-01 -5.55985868e-02
    -1.42227083e-01  1.87178209e-01  1.19076021e-01  2.77716458e-01]]]]
le_net5/conv2d_2/bias:0
(16,)
[-0.0127397   0.11866342  0.0847798   0.10803621 -0.20756553  0.07327012
  0.08410875  0.17064188  0.18419506  0.12031519 -0.22292924 -0.23759443
 -0.00231431  0.06452954  0.08716173  0.03669218]
le_net5/dense_2/kernel:0
(400, 120)
[[ 1.11647047e-01 -2.19500840e-01  1.86865702e-01 -3.00998718e-01
   4.09205779e-02  1.66149318e-01  9.70532466e-03 -2.28874102e-01
   7.58989081e-02 -2.01849267e-01 -6.40345067e-02 -1.94205955e-01
  -1.49991930e-01  2.18268216e-01 -1.19847827e-01  4.19842191e-02
  -7.34732077e-02 -1.91881120e-01 -4.22027916e-01 -6.06814923e-04
  -1.67662099e-01 -5.98785989e-02 -2.27922782e-01 -7.24332482e-02
   2.05522493e-01 -2.29694135e-02 -5.61033301e-02 -2.58162558e-01
  -1.15068339e-01  1.34940967e-02 -3.65862474e-02 -1.14457540e-01
   2.94077154e-02 -8.50013345e-02 -1.62355021e-01 -1.85136065e-01
  -7.32171303e-03 -6.94366321e-02  2.44725972e-01  1.18950382e-01
  -2.37892240e-01 -1.92095339e-01  3.41326222e-02  8.59412774e-02
   9.53446925e-02 -4.79972549e-02 -5.58906011e-02 -7.93159679e-02
  -7.10283294e-02  2.24706512e-02 -2.13658616e-01 -1.15952566e-01
   1.09434359e-01 -2.25194812e-01 -9.99290030e-04 -1.52068108e-01
  -1.73703715e-01 -5.02608344e-02  7.17612877e-02 -9.18819308e-02
  -8.96289498e-02 -1.54189333e-01 -1.50056826e-02 -1.15969345e-01
  -1.02405511e-01 -8.52602720e-02 -1.40186995e-01  2.02069744e-01
  -9.75793693e-03 -2.61770096e-02 -2.30528042e-01 -9.70853046e-02
  -3.11850041e-01 -2.42772792e-02  8.32139105e-02  2.68297046e-02
  -8.59968737e-02  3.17056179e-01  1.60990246e-02  1.27124935e-01
   3.11803818e-02  7.09305406e-02 -2.53322185e-04 -1.19165540e-01
   8.36922303e-02 -3.61368299e-01 -3.33002627e-01 -2.16499850e-01
   1.35379583e-01 -1.64260358e-01  3.12039465e-01  4.44157049e-02
   3.56991142e-02 -2.62897849e-01 -3.67659658e-01 -7.86099955e-02
   2.75724202e-01  3.43160294e-02 -9.40674841e-02 -3.20901394e-01
  -9.76962522e-02 -1.79398283e-01 -4.70864065e-02  7.34560862e-02
   4.31562997e-02 -1.18352346e-01 -4.53765504e-02 -3.77665088e-02
  -1.77353069e-01 -3.20439428e-01 -1.97086290e-01 -9.12323594e-02
   1.89862370e-01 -1.86115682e-01 -2.76507884e-01  2.00385720e-01
   1.00846879e-01 -5.50728617e-03 -1.34995522e-03  8.77435803e-02]
 [ 2.01406673e-01 -7.58263767e-02 -2.34301254e-01  2.34237984e-01
  -2.81125084e-02 -9.54348743e-02 -2.74354517e-02 -7.27004185e-02
   9.52538177e-02 -4.59395617e-01  2.21630871e-01 -5.68285249e-02
  -4.59415168e-02 -3.40253785e-02 -1.31111026e-01  3.75436246e-02
  -1.47653520e-01 -4.03323591e-01 -7.60417104e-01 -3.98049839e-02
  -1.84974715e-01 -2.15252280e-01  1.74302272e-02  8.81699696e-02
  -1.68637067e-01  2.85577416e-01 -6.72937110e-02 -1.03011593e-01
  -2.35725746e-01  2.23417088e-01 -3.59233506e-02 -1.49336278e-01
   7.37472922e-02  5.90986274e-02 -1.35062307e-01  9.18245241e-02
  -7.63422996e-03  8.52914825e-02 -2.35656753e-01 -8.15766975e-02
  -2.00375333e-01 -1.85494244e-01  1.02039158e-01 -1.29636392e-01
   3.68961513e-01 -1.02187216e-01 -3.94148499e-01  4.60453592e-02
   9.59085375e-02 -7.57123157e-02  7.94424713e-02  2.94459499e-02
   1.85699925e-01 -2.87567526e-02  2.41254061e-01 -6.61620945e-02
   7.24982321e-02  5.56345060e-02  1.58977062e-01 -1.74382180e-01
   1.29525721e-01 -1.59906656e-01 -9.46428701e-02 -2.13974997e-01
   1.29323855e-01 -5.68454154e-02 -3.03983808e-01  1.01954438e-01
  -4.53080758e-02 -1.96628403e-02  1.79655418e-01  1.51667625e-01
  -1.68056950e-01  3.11647039e-02 -4.30710940e-03  4.49060470e-01
   6.01383075e-02 -1.41413629e-01 -3.47818658e-02  4.06878535e-03
  -3.57263863e-01 -8.14137682e-02  9.28132161e-02  1.85978413e-02
  -1.20235540e-01 -2.26052105e-01 -4.88403767e-01 -3.44396126e-03
  -3.06760401e-01 -1.82165891e-01  4.57071848e-02  6.77017421e-02
   5.86957969e-02  6.20222464e-02 -1.56979680e-01 -3.65652055e-01
   2.38618478e-01  1.84631184e-01  6.29312471e-02 -3.95157248e-01
  -1.21159241e-01 -1.34514840e-02 -1.05082812e-02  1.63525090e-01
  -4.47474457e-02  2.60425419e-01  3.96225750e-02  1.48054793e-01
  -1.71453118e-01 -1.76981553e-01 -6.54147714e-02 -1.00739099e-01
   2.44865388e-01 -2.35285252e-01 -1.02718927e-01 -2.85424858e-01
   8.33470672e-02  2.69853324e-02 -1.82182625e-01  1.84503362e-01]
 [ 1.59075692e-01 -2.37841085e-01  4.13143425e-04 -1.42969370e-01
  -3.36289763e-01  3.82283516e-02  8.53436664e-02 -1.83180515e-02
   1.60888284e-01 -5.98573089e-01  7.16981068e-02 -2.24874258e-01
   5.72024360e-02  3.01620625e-02 -1.02810867e-01  4.02520448e-02
   3.34913611e-01 -7.33476341e-01 -4.72764879e-01 -1.55900270e-01
  -2.21086875e-01 -1.85182095e-01 -2.45014697e-01  2.06714734e-01
   5.47087230e-02  2.27779180e-01 -4.98504311e-01  5.62160835e-03
  -2.17459440e-01  1.52539149e-01  1.13012634e-01 -1.95345551e-01
  -4.96812835e-02 -1.81613609e-01 -2.82810718e-01  4.09746543e-02
   6.73055574e-02  1.14386909e-01 -1.34000881e-02 -4.23168354e-02
  -5.23976147e-01 -2.29659453e-01  3.94468665e-01  1.49137333e-01
   4.46398735e-01 -4.48074974e-02 -4.46314812e-01  4.69016731e-02
  -3.31073105e-01 -3.41337144e-01 -1.52047828e-01 -1.11747645e-01
   9.46155339e-02 -2.05273658e-01  2.54696846e-01  4.81158867e-02
  -1.77261367e-01  2.04055030e-02 -1.79895848e-01 -4.22265947e-01
   1.12360135e-01 -8.72906297e-02  9.64278057e-02 -2.82266051e-01
  -1.93726812e-02 -6.29635230e-02 -5.26579857e-01  2.05244273e-01
   3.82982157e-02  2.64295936e-02 -4.36214097e-02  1.41788885e-01
  -5.37302792e-01  1.05904527e-01  1.10258557e-01  1.93840265e-01
   1.10828042e-01 -1.72039196e-01 -1.83962341e-02  3.14282179e-02
  -1.24661155e-01  1.21689685e-01  1.65994853e-01 -1.20442159e-01
  -1.78286478e-01 -2.84002125e-01 -6.09037161e-01 -8.83095115e-02
  -2.17158198e-01  1.66859463e-01  1.24912653e-02  5.00207424e-01
  -8.54141731e-03  4.10313666e-01 -2.67791271e-01  3.54439765e-02
   3.04516256e-01  5.08864038e-02  1.16443969e-02 -4.05626863e-01
  -2.21015155e-01 -3.87505479e-02 -1.77762240e-01  2.14036569e-01
   4.55750944e-03  1.54109970e-01 -7.44710267e-02 -2.38114238e-01
  -4.43846524e-01 -4.17348117e-01 -4.18123037e-01 -2.24692039e-02
  -1.82425454e-01 -5.16363204e-01 -6.25866130e-02 -1.18264019e-01
   3.46842617e-01 -9.64402184e-02  1.95345223e-01  3.44553851e-02]
 [-1.20042220e-01  1.72139123e-01  8.33702013e-02  2.34350428e-01
   3.47862020e-02  2.49704272e-01  1.76935047e-01  2.89030284e-01
  -1.32375896e-01 -2.37415925e-01  1.42971769e-01  2.08256133e-02
  -5.34300809e-04 -1.60191376e-02  1.98349863e-01  2.93750074e-02
   5.51193990e-02  1.57913417e-01  2.11987942e-01 -8.29013214e-02
  -1.98761031e-01  2.00635016e-01 -3.34471017e-02 -8.89708996e-02
  -1.52982771e-01 -4.38358113e-02 -3.45323175e-01  1.97293416e-01
  -1.98163152e-01  2.33216155e-02 -2.44187132e-01  1.15358412e-01
  -8.57977793e-02 -1.65162280e-01  4.59296517e-02  2.20339105e-01
  -1.34603634e-01  2.81431642e-03 -2.94736087e-01 -1.51526993e-02
  -2.20575362e-01  3.22743505e-01  5.84611446e-02 -2.51460373e-01
  -1.09689623e-01  3.47330987e-01 -2.78215885e-01  2.80495118e-02
  -1.97167784e-01 -2.38986447e-01 -7.73336366e-02  2.36510560e-02
  -1.82465002e-01 -6.09199665e-02 -3.07796746e-01  4.14636470e-02
  -5.17515391e-02  1.62478253e-01 -3.69780719e-01  6.41417801e-02
   1.76665559e-01  8.42548311e-02 -1.03366502e-01  1.50876671e-01
  -3.88544463e-02  1.64940640e-01  2.37799168e-01  1.49629951e-01
   2.30274014e-02  3.91386151e-01  3.28294337e-01 -2.96916701e-02
   1.09190010e-01  3.73535454e-01  1.72036409e-01 -1.76801786e-01
   4.66985315e-01 -6.03289679e-02 -7.77566582e-02 -8.08092728e-02
   1.73006207e-01  1.35259807e-01 -3.73116791e-01 -4.31807011e-01
  -1.50447026e-01  6.88143969e-02  1.42332777e-01 -1.34516031e-01
   1.52093098e-01 -5.64604402e-02 -8.00068229e-02 -8.70914310e-02
  -7.32283443e-02 -1.04349725e-01 -4.50274527e-01 -2.57564455e-01
  -1.35012731e-01 -5.00272691e-01 -1.53423240e-02  2.83230901e-01
   1.43237650e-01  3.66544127e-01 -8.17288384e-02 -1.60370395e-02
  -1.81913868e-01 -1.93945900e-01 -6.33552149e-02  6.48787171e-02
   1.24794975e-01 -7.48429913e-04 -3.91793460e-01  1.27237320e-01
  -1.13080218e-02 -2.00830698e-01  3.02747011e-01 -3.85376573e-01
   5.07882953e-01 -3.92803028e-02 -1.86999217e-01 -3.64420973e-02]
 [-2.55666394e-02  8.73475373e-02  1.56923339e-01  2.25912973e-01
   8.25379975e-03  3.16354603e-01 -5.57734728e-01  2.34707847e-01
   2.64348894e-01 -1.63633391e-01 -3.47006544e-02 -2.39440892e-02
  -9.01229382e-02  7.89389610e-02 -1.66303828e-01  2.93771982e-01
  -1.75740141e-02  7.61334300e-02 -6.88401610e-02  1.46505475e-01
  -1.07434809e-01  2.10334390e-01 -9.12883133e-02 -9.15692523e-02
   4.85657789e-02  5.35341538e-02 -1.67091995e-01 -2.17247114e-01
   1.16932422e-01 -1.70069411e-02 -2.74048507e-01 -3.33050847e-01
   5.50814807e-01  6.10532425e-02  7.74226636e-02  5.04050069e-02
  -4.66851264e-01 -4.27834578e-02  5.68948612e-02  1.09353289e-02
  -4.24842574e-02  2.65935630e-01 -2.39081662e-02  5.49809784e-02
  -9.21352357e-02  1.14713602e-01 -2.37189263e-01  2.99881518e-01
  -4.01214920e-02 -1.44239590e-01  1.24408171e-01 -4.50682547e-03
  -8.45191404e-02  1.59758329e-01 -1.06825136e-01 -2.69382030e-01
   1.20517379e-03 -3.74253362e-01 -1.61591992e-01  4.57464308e-02
  -4.22931284e-01  1.36790322e-02 -3.49597126e-01 -2.07990855e-01
   5.57096414e-02  2.85949320e-01  3.79411578e-02 -1.24456445e-02
   8.08743834e-02 -8.26538429e-02  1.50447428e-01 -3.44992250e-01
  -5.65265045e-02 -3.41705084e-01 -3.06243896e-01  5.66296726e-02
   2.10521251e-01  2.03617632e-01 -5.83739802e-02  3.53088379e-02
  -3.14039998e-02  2.25903794e-01 -9.75126922e-02 -8.77567977e-02
  -1.21959209e-01  9.39695612e-02 -1.00352593e-01  2.17668954e-02
   2.79592335e-01 -1.39078140e-01  1.78004876e-01  8.76264870e-02
   1.70968205e-01  5.23407608e-02 -1.72905669e-01 -3.01619291e-01
   1.33913979e-01 -2.79177606e-01 -3.02451979e-02 -1.68651521e-01
  -4.55591679e-02  1.68229118e-01 -9.19505372e-04  2.32106581e-01
   3.50740403e-01  6.51243627e-02  3.51962954e-01 -4.44334187e-02
  -1.09960169e-01 -2.52380911e-02 -3.90286148e-02  9.43189673e-03
   1.04554906e-01 -1.55062014e-02 -9.69042480e-02  1.28838226e-01
   2.68526256e-01  1.78418830e-02  1.17459297e-01 -3.19479972e-01]
 [-2.02390090e-01  9.13507640e-02  1.25656515e-01  1.49462432e-01
   5.49882725e-02  3.98762256e-01  4.93765995e-02  3.59927267e-01
  -1.77854687e-01 -1.05116822e-01  7.42798150e-02  2.62444764e-01
   7.66561879e-03  1.73724978e-03  1.01073615e-01  2.37162486e-02
   1.19788066e-01  6.20721579e-02  3.94861430e-01 -4.94112298e-02
  -2.45078996e-01  1.45109311e-01  1.89337283e-01 -4.10177633e-02
  -1.80076912e-01 -8.38984773e-02 -3.33829284e-01  1.13123260e-01
  -3.16856895e-03 -1.14362827e-02 -3.47752005e-01  3.71237881e-02
  -4.79461402e-02 -8.87913033e-02 -7.42115974e-02  3.65260035e-01
  -2.01634243e-01  8.60624984e-02 -2.91425914e-01  3.02594267e-02
   2.23637633e-02  1.73689201e-01 -1.24914348e-01 -2.81004786e-01
  -1.63266465e-01  3.40288758e-01 -3.29301983e-01  1.12086117e-01
  -1.06792338e-01 -3.10382903e-01  8.06141496e-02 -6.84450939e-02
  -8.26568231e-02  2.07543328e-01 -2.78463602e-01  4.14673090e-02
   1.04848124e-01  1.58597454e-02 -3.98152620e-01  3.35329831e-01
  -3.38425115e-02  2.81066418e-01 -2.95095861e-01  1.29733950e-01
   1.30958796e-01  1.40280142e-01  2.39497304e-01  1.59236491e-01
   3.78514640e-02  3.84904444e-01  3.51708800e-01  5.86167835e-02
   2.66521037e-01  2.92846948e-01  1.96818471e-01 -1.18421867e-01
   4.30363029e-01  2.33296484e-01 -2.20872294e-02 -8.08803737e-03
   4.56360579e-02  2.58253276e-01 -5.94572902e-01 -2.06254229e-01
  -4.74709794e-02 -5.80164045e-02  3.68706971e-01 -7.64668733e-02
   2.52075016e-01 -1.89142644e-01 -9.15802568e-02 -2.05691159e-01
  -1.08300513e-02 -1.04475610e-01 -3.18951041e-01 -3.27687442e-01
   2.89984304e-03 -4.91386831e-01 -5.41374832e-02  3.71932596e-01
   1.54543743e-01  3.07953477e-01 -5.45950346e-02  7.31284842e-02
   6.21379353e-02 -1.98737517e-01 -5.00631928e-02  1.37888605e-03
   2.54853219e-01  8.45951885e-02 -3.55867118e-01  8.81135166e-02
   5.54817356e-02 -2.89148569e-01  3.44030857e-01 -2.84586519e-01
   3.68413538e-01 -6.25598729e-02 -1.78337470e-01 -2.87039597e-02]
 [ 2.46218026e-01 -2.78011203e-01 -2.54440963e-01 -1.40732124e-01
  -2.85487175e-01 -4.09630477e-01  1.69525757e-01 -1.91124484e-01
   7.79656917e-02  3.08805574e-02  2.56209485e-02 -1.81121066e-01
   1.38812393e-01 -1.56090274e-01  1.12032771e-01  1.52100343e-02
  -1.92399751e-02 -3.38202208e-01 -4.64758128e-01 -9.98049825e-02
   2.72076011e-01 -4.94961917e-01 -1.04218371e-01  2.43794426e-01
  -9.12532657e-02  1.23517655e-01  6.23402148e-02  2.03516148e-02
   1.23330215e-02  1.02642730e-01  1.69404715e-01  3.27435881e-02
  -1.83772862e-01  2.61085052e-02 -1.15341125e-02 -2.07521349e-01
   1.20053805e-01  2.57686645e-01 -2.13869482e-01 -3.51395100e-01
  -2.81006992e-01 -4.62461948e-01 -2.29897916e-01  2.97192007e-01
   1.39066234e-01 -9.06452164e-02  2.62583435e-01 -6.05020449e-02
   8.71628821e-02 -1.19897360e-02  6.88158199e-02  4.21382999e-03
   6.92226365e-02  9.38107371e-02  5.00650525e-01  2.34330177e-01
  -3.63497436e-02 -8.67217630e-02  1.27253011e-01 -3.26576561e-01
  -1.23022310e-02 -3.59150648e-01  8.28844905e-02 -2.57197823e-02
   2.55667061e-01 -1.35344099e-02 -3.99413615e-01 -3.77857834e-02
  -9.91979539e-02 -1.73614308e-01 -4.08733100e-01  1.37321815e-01
  -3.27490628e-01 -5.50188348e-02  1.40479980e-02  3.12253177e-01
  -4.23765808e-01 -3.96880716e-01 -3.44676971e-02 -2.50493884e-01
  -7.56335407e-02 -1.42167583e-01  4.51600075e-01 -6.57604262e-02
  -1.86836243e-01 -2.68139720e-01 -5.07881045e-01  4.29858342e-02
  -4.14295346e-01 -9.55442339e-02 -2.73790300e-01  1.77328110e-01
  -7.83409402e-02  3.98399025e-01  5.74784055e-02  1.70546949e-01
   2.85571843e-01  2.06092939e-01 -4.42810729e-02 -3.20954263e-01
   1.08122513e-01 -2.28482008e-01 -2.26105914e-01  4.40962277e-02
  -1.19550936e-01  3.62168163e-01 -2.15731218e-01 -9.12359357e-03
  -1.63161039e-01 -4.59052354e-01 -2.07437966e-02  1.73355624e-01
  -9.20963511e-02 -1.85609609e-01 -1.30191535e-01 -2.97740936e-01
  -1.10649772e-01 -1.17034867e-01 -9.57913101e-02  2.57945389e-01]
 [ 2.95898438e-01 -2.83240765e-01  5.82372807e-02  1.40152760e-02
   2.28373650e-02 -6.10959269e-02  8.38110670e-02  3.33130136e-02
   1.52779490e-01 -5.40814102e-01  9.67143029e-02  8.24859068e-02
  -3.17128338e-02  1.63076613e-02  6.96800798e-02  2.70543545e-02
   1.53314441e-01 -6.64680004e-01 -5.63677609e-01 -1.94095567e-01
  -1.58833429e-01 -1.93827927e-01 -1.49484053e-01  1.73436347e-02
   6.23518638e-02  1.51101900e-02 -1.73903108e-01 -2.92353667e-02
  -1.04833536e-01  7.44403601e-02 -3.10981832e-02 -1.36340991e-01
  -2.19837055e-01  1.03689916e-02  2.31538247e-02 -9.26011428e-02
  -3.95448580e-02 -3.07459515e-02 -1.17646888e-01 -5.81142493e-02
  -1.75153896e-01 -1.36360824e-01  3.31100762e-01  1.58057511e-01
   1.39965713e-01  3.10183852e-03 -2.41169959e-01 -2.46976733e-01
  -1.16672538e-01 -7.50202984e-02 -5.62880337e-02 -1.59288421e-01
   3.64885386e-03 -2.06682280e-01  1.33697584e-01  4.87260632e-02
  -4.89871297e-03  1.37368396e-01  5.30647039e-02 -6.45880960e-03
   1.47619948e-01 -7.40363225e-02  1.02915742e-01 -2.25733340e-01
   4.41126376e-02 -1.98904246e-01 -6.50156856e-01  1.69496089e-01
   1.30521536e-01 -1.62797682e-02 -6.29431084e-02  1.22421771e-01
  -1.71788812e-01  1.24995358e-01  2.10232660e-01  1.16944350e-01
  -9.43329465e-03 -1.08613037e-01 -1.32107269e-02  1.90554470e-01
  -4.74967659e-02 -5.88854589e-02 -1.76332388e-02 -6.96891733e-03
  -5.73802320e-03 -2.14714244e-01 -5.56871355e-01 -9.10667256e-02
  -1.71133995e-01 -7.41255581e-02  1.84180737e-01  1.53371200e-01
   2.10651080e-03  3.43670696e-02 -3.01431984e-01 -1.22873336e-01
   3.73398066e-01  5.14833368e-02  1.73850581e-02 -5.00595629e-01
  -3.16612571e-02 -3.98763344e-02  9.93436426e-02 -1.42632024e-02
  -2.18920149e-02 -1.02997860e-02 -1.27955705e-01 -9.84466746e-02
  -3.68152499e-01 -2.49907002e-01 -1.23168059e-01 -5.07619716e-02
  -4.33625653e-02 -3.21665734e-01 -4.68620546e-02  2.40420047e-02
   7.35660046e-02  8.53012428e-02  6.55594245e-02  4.35081832e-02]
 [ 3.82054336e-02 -8.35616961e-02  5.25910668e-02 -2.11960338e-02
  -2.61934251e-02 -4.22317721e-02  2.05707163e-01 -2.25982554e-02
  -7.29569271e-02 -1.56513870e-01 -2.00290531e-02  1.17701709e-01
  -5.25264964e-02  6.71871305e-02  1.49736628e-01 -1.75057694e-01
  -5.34213185e-02 -1.36333033e-01  1.29286826e-01 -1.49508625e-01
  -1.11526616e-01  5.42089716e-02 -2.08025817e-02 -1.08724989e-01
  -6.10321909e-02 -1.71441942e-01 -9.87881143e-03  1.22407891e-01
  -1.11276194e-01 -1.58263312e-03 -1.49114914e-02 -8.20308086e-03
  -2.72113860e-01 -1.86172783e-01 -4.94068898e-02 -1.52658792e-02
  -6.47999793e-02  3.70788164e-02 -1.10081799e-01  6.84722438e-02
  -2.12731555e-01  4.52195592e-02  1.35856822e-01 -1.53535053e-01
  -5.16983122e-02  1.28444806e-01 -1.69759020e-01 -6.04235455e-02
  -8.07432011e-02 -1.92758888e-01 -3.35689336e-02 -1.24635257e-01
   1.51643157e-02 -1.67608503e-02  2.30167266e-02  9.42928120e-02
  -1.30904704e-01  2.22733140e-01 -1.70904934e-01 -2.10920170e-01
   2.71679103e-01 -2.36477219e-02 -1.28859147e-01  3.94806191e-02
  -9.78275314e-02 -5.48406541e-02  4.07402925e-02  9.35255215e-02
   9.49439183e-02  2.56098092e-01  7.08281808e-03  1.64925590e-01
   1.24392677e-02  2.26675585e-01  1.37076244e-01  5.80692142e-02
   9.22344178e-02 -5.60655557e-02 -1.13877028e-01 -1.24778800e-01
   8.59100372e-02  7.78042078e-02 -3.11790854e-01 -1.03799395e-01
  -2.50862956e-01 -1.17155612e-01  9.02156606e-02 -1.15615278e-01
  -2.50489991e-02 -6.76286360e-03  2.06253398e-02 -1.67636529e-01
  -1.97306871e-01  7.11665079e-02 -2.49539092e-01 -1.67059466e-01
  -7.64887556e-02 -1.82066277e-01 -1.08862199e-01  1.15447812e-01
   1.72329038e-01  4.58046459e-02  3.44332419e-02 -5.37286252e-02
  -8.13059211e-02 -1.01372615e-01 -1.54396817e-01 -5.43958396e-02
   5.28504737e-02  7.59644583e-02 -1.41242802e-01  5.53124882e-02
  -1.21237099e-01 -1.86996922e-01  1.31409198e-01 -1.90600157e-01
   1.96292594e-01  1.77684668e-02 -1.67673647e-01  1.60318408e-02]
 [-4.40385118e-02  6.59834146e-02 -6.13291450e-02 -3.57153527e-02
  -1.71096370e-01  1.92424878e-02  1.85234323e-01  9.78220776e-02
  -1.10171288e-02 -1.85829084e-02  3.54319960e-02 -1.00284100e-01
   1.24262489e-01 -1.95153102e-01  3.52857374e-02 -4.49419208e-02
   5.37881628e-02 -1.43903913e-02  4.36435193e-02 -2.79168606e-01
  -1.40054271e-01 -1.27139837e-01  1.23811774e-01  1.81794539e-01
  -2.53760546e-01  8.86914060e-02 -1.58268124e-01  1.25787660e-01
  -5.04582524e-02 -4.70831767e-02  1.01199299e-01 -9.17457417e-02
  -4.57779206e-02 -1.87441796e-01 -1.28181398e-01  4.50453795e-02
   8.09675604e-02  2.69375712e-01 -2.17613250e-01 -1.02297291e-01
  -3.38102490e-01 -1.63823456e-01 -4.05982807e-02  2.27112267e-02
  -3.79431136e-02  7.64360949e-02 -1.12838633e-02  1.67491958e-02
  -1.09708689e-01 -1.50246903e-01 -3.17477360e-02 -4.10846919e-02
   6.44641370e-02  1.38189942e-01  1.14697732e-01  1.54649034e-01
  -1.13925748e-01  6.36904538e-02 -2.00784892e-01 -1.91526145e-01
   1.81549802e-01 -7.73356855e-02 -7.07021430e-02 -1.11621469e-01
   6.62500262e-02 -1.40720224e-02  4.32939976e-02  1.51709951e-02
  -1.07810043e-01  3.01489439e-02 -4.50001620e-02  5.16057648e-02
  -1.21900272e-02  2.09600374e-01  1.56410784e-01  1.37894943e-01
   1.34620117e-02 -9.40004438e-02 -1.14435274e-02 -1.39404580e-01
  -1.01022087e-01 -3.75765786e-02 -2.97458377e-02 -1.63213849e-01
  -3.12977999e-01 -1.21609718e-01  1.23844996e-01 -1.01497419e-01
  -9.49450657e-02 -1.80465140e-05 -9.02896151e-02 -1.15108967e-01
  -4.20919992e-02  1.68433815e-01 -1.28892198e-01 -2.93830693e-01
  -5.10354638e-02 -7.15999231e-02  1.76360488e-01  1.82201311e-01
   2.67347526e-02  1.92314103e-01 -7.87485838e-02  2.20712289e-01
  -1.74037099e-01  1.27558023e-01 -1.03058197e-01 -6.01413734e-02
  -1.41905500e-02 -3.14348303e-02 -3.06871295e-01  1.97716966e-01
   7.40944035e-03 -2.23533988e-01  1.21246457e-01 -4.55738425e-01
   2.84368008e-01 -5.80370165e-02 -1.61843941e-01  5.29235601e-02]
 [-6.85029179e-02  1.68531179e-01  2.97068924e-01 -8.51081163e-02
   4.05746363e-02  2.11118400e-01 -5.49585164e-01  1.24524787e-01
   1.30556658e-01  8.19117054e-02 -1.67859178e-02 -5.09492029e-03
  -2.45086104e-02  2.74050254e-02 -3.15358758e-01  1.47542313e-01
   5.69296479e-02  1.46143526e-01  1.40198261e-01  3.25113267e-01
  -1.36086298e-02  1.90116733e-01 -2.37498824e-02 -7.57519752e-02
   1.65916234e-01 -4.97969799e-03  8.18641856e-02 -1.95403680e-01
   5.63752763e-02  4.95442413e-02 -2.86642730e-01 -2.35111982e-01
   4.15445656e-01  1.92341767e-02 -1.83793101e-02  1.33888060e-02
  -3.47109050e-01 -1.41055480e-01  6.24256879e-02  1.06830053e-01
  -1.65463220e-02  1.44389987e-01  1.22942470e-01 -7.79020712e-02
   5.61473630e-02  7.20343664e-02 -3.14709507e-02  2.16942400e-01
  -6.48359507e-02 -4.17075828e-02 -2.77537238e-02  7.85253271e-02
   1.40971392e-01  1.02223933e-01 -3.13250214e-01 -4.58757788e-01
  -8.28384161e-02 -3.92164707e-01 -9.45710763e-02  1.76968519e-02
  -4.50277060e-01  6.22155704e-02 -2.91303307e-01 -9.44949016e-02
  -1.67331934e-01  2.73143381e-01 -2.37677409e-03 -1.03152869e-02
   8.76701623e-03 -1.65834635e-01  1.05533935e-01 -5.46419084e-01
   2.99268886e-02 -3.58174860e-01 -6.01693451e-01 -1.20291710e-01
   1.03887565e-01  2.44656429e-01  1.02836944e-01  1.08834788e-01
   5.51823154e-02  2.61132181e-01 -1.35899886e-01  2.83784829e-02
   1.05571285e-01  1.21835791e-01  3.92020643e-02  4.64256033e-02
   2.74565965e-01 -2.88199216e-01  1.37676522e-01  9.71928239e-02
   3.64205033e-01 -2.77006254e-02  2.81484108e-02 -1.93958387e-01
  -1.49756327e-01 -9.15590748e-02  8.42551980e-03  7.07616517e-03
  -3.43179666e-02 -2.80104876e-02  8.54707509e-02  1.23551965e-01
   1.28526926e-01 -6.00553080e-02  5.14349222e-01 -4.11000438e-02
   4.41567749e-02  1.63854107e-01 -1.40801612e-02 -1.81883976e-01
   2.53975600e-01  4.81966957e-02  2.86743864e-02  2.20380619e-01
   1.44791514e-01 -4.59545432e-03  8.63236040e-02 -5.91170192e-01]
 [-4.31469083e-02  8.76793563e-02  2.47063056e-01  1.19507000e-01
   5.42077459e-02  3.74428838e-01 -5.33122838e-01  1.70699820e-01
   2.39353061e-01 -2.64948487e-01  6.01558425e-02  1.71038747e-01
  -1.87239543e-01 -1.11118078e-01 -8.35105777e-02  2.52975672e-01
   2.43771169e-02 -1.24064036e-01 -2.17275187e-01  2.71272004e-01
  -2.23551795e-01  2.33346224e-01  2.28053495e-01 -5.60748093e-02
   1.48290768e-01  2.86381263e-02 -3.88353854e-01 -2.71687172e-02
   7.43422881e-02 -2.88035899e-01 -2.63119698e-01 -2.17911929e-01
   5.27105153e-01  1.17795542e-01  1.09093122e-01  2.16613524e-02
  -4.76940751e-01 -1.24561518e-01  7.37007558e-02  8.85211155e-02
   5.46204895e-02  3.62949222e-01 -1.01612166e-01  1.23783574e-02
   1.00497240e-02  2.44672373e-01 -3.00197661e-01  1.92101121e-01
   9.73082483e-02 -1.43494710e-01  1.25794962e-01 -3.25701326e-01
  -1.93626419e-01  8.33545476e-02 -3.65491092e-01 -2.93383777e-01
   2.28653342e-01 -3.17404717e-01 -2.07534075e-01  2.06215829e-01
  -4.84253585e-01 -6.81231543e-02 -3.32778573e-01  1.49642201e-02
   4.57624942e-02  3.85999292e-01 -1.39901489e-01 -6.03854358e-02
  -1.39702542e-03  1.10040396e-01  2.72530317e-01 -3.82788509e-01
  -9.85970423e-02 -2.63528973e-01 -2.53958523e-01 -4.58299695e-03
   1.57200620e-01  2.65673161e-01  7.82308504e-02  8.13207775e-02
   2.07172886e-01  2.09024087e-01 -2.61696786e-01 -1.03480615e-01
  -7.97588453e-02  5.93611673e-02 -5.48026934e-02  1.57537654e-01
   2.72201151e-01 -5.82869351e-02  3.26244175e-01 -4.77629974e-02
   4.06170577e-01  6.16980977e-02 -4.44165379e-01 -1.62319034e-01
   1.06774472e-01 -4.09503251e-01 -1.71078332e-02 -7.12459907e-02
  -2.30855234e-02  3.55215520e-02  7.50631019e-02  1.12593010e-01
   3.76760632e-01 -4.08777706e-02  3.94242674e-01  1.62017763e-01
   8.90816450e-02 -1.86079323e-01 -2.69473314e-01  2.08742857e-01
   7.17265382e-02 -1.01170903e-02  8.77137855e-03  1.29454255e-01
   4.12186742e-01  1.41360508e-02 -4.30687964e-02 -4.70085710e-01]
 [ 2.53581166e-01 -1.90702155e-01 -8.91368389e-02 -9.73102823e-02
  -4.31308061e-01 -2.62529016e-01 -1.67470961e-03 -2.54461020e-02
   2.03994557e-01 -1.34389207e-01  1.40434906e-01 -3.38066459e-01
   2.16027096e-01 -1.29066452e-01 -3.97956818e-02  1.89120680e-01
   7.27317259e-02 -3.71088117e-01 -5.99445820e-01  2.91217640e-02
   2.24388972e-01 -3.07020724e-01 -1.18120603e-01  1.80735573e-01
  -8.13864768e-02  1.66894004e-01 -2.36780033e-01  1.31557316e-01
  -1.60743862e-01 -2.19287485e-01  9.14620310e-02 -8.68598595e-02
   2.92210691e-02 -3.36821452e-02  4.99317497e-02 -1.78852499e-01
   1.85244516e-01  2.03726470e-01  2.67909002e-02 -4.08625335e-01
  -3.02908540e-01 -3.64594072e-01 -1.83192417e-01  2.92427838e-01
   2.80898392e-01 -1.74812019e-01 -4.22508828e-03  2.03697398e-01
   9.30983722e-02  4.48858999e-02  1.68352071e-02  3.34688872e-01
  -2.65925415e-02 -6.01149611e-02  5.07207572e-01  1.18801117e-01
  -4.62028794e-02 -1.18524335e-01  6.71670735e-02 -2.49112785e-01
  -1.40063092e-01 -2.24359840e-01 -1.85179412e-02 -4.32280675e-02
   1.61413491e-01 -6.49198443e-02 -2.99166292e-01  4.55797985e-02
  -1.39119253e-01 -2.16241941e-01 -1.62346601e-01 -1.48690781e-02
  -3.24859560e-01 -2.16579705e-01 -1.37081727e-01  2.81441420e-01
  -5.59299052e-01 -1.32041007e-01 -4.70900275e-02 -1.89049572e-01
  -9.94627774e-02 -6.90068081e-02  3.60738188e-01  1.70441251e-02
  -2.31048182e-01 -1.17687754e-01 -5.18451989e-01 -2.44282623e-04
  -2.23961368e-01  1.63624018e-01 -1.15963787e-01  2.55064011e-01
  -2.10843310e-02  2.93825418e-01  6.21189326e-02  1.80251151e-02
   6.99621364e-02  2.64325708e-01 -4.85173129e-02 -7.34166205e-02
  -1.04983404e-01 -4.16895263e-02 -2.33265698e-01  1.36102661e-01
  -1.53343663e-01  4.11281019e-01 -5.48145957e-02  1.34271130e-01
  -9.28751677e-02 -4.16877091e-01 -5.34384996e-02  6.85809255e-02
  -5.44795282e-02 -2.23170653e-01 -3.21479738e-02 -3.13248247e-01
   3.36284470e-03 -1.79572910e-01 -5.81796579e-02  5.95113263e-02]
 [ 3.09980869e-01 -1.66887045e-01 -2.32916191e-01  7.66460150e-02
  -9.46821421e-02 -2.61732131e-01  6.34055212e-02 -8.97206441e-02
   1.71890900e-01 -4.26760763e-01  1.32844910e-01 -6.85980469e-02
   1.87495723e-01  1.57096878e-01  1.53952047e-01  9.71078575e-02
   2.76207775e-01 -3.61283153e-01 -4.35628504e-01 -1.35066435e-01
  -1.33045055e-02 -4.34380174e-01 -1.26156777e-01  6.20100200e-02
  -1.74618289e-02  5.30051477e-02 -1.49604082e-01 -1.25470251e-01
  -4.88053262e-02  8.52592066e-02  1.02837943e-01  2.56360881e-02
  -3.91919725e-02  4.38694432e-02  1.20384336e-01 -1.54108107e-01
   2.74052639e-02  2.17495561e-01 -1.07002221e-01 -2.26763338e-01
  -2.19451323e-01 -4.17547733e-01  1.94339047e-03  7.43853301e-02
   2.27313504e-01 -1.17412910e-01 -1.23533323e-01 -1.67820051e-01
   5.24413474e-02 -1.82522628e-02  9.88157839e-02 -1.46144822e-01
   2.09587395e-01 -1.78738032e-02  5.11637986e-01  1.27633169e-01
   4.14729156e-02  5.30380011e-02 -1.19560696e-02 -1.30386099e-01
   1.66208148e-01 -3.80147666e-01  1.57745570e-01 -3.08995582e-02
   2.14303479e-01 -1.07562125e-01 -4.05072570e-01  5.83119504e-02
   1.23282097e-01 -1.58224463e-01 -1.53173834e-01  1.62112743e-01
  -1.94494218e-01 -6.18598089e-02 -5.30885532e-03  2.22985715e-01
  -9.11255777e-02 -1.15970537e-01 -1.72472134e-01 -2.67451525e-01
  -3.48654278e-02 -2.15465784e-01  4.06359375e-01  2.47376133e-02
   1.66501433e-01 -2.39598364e-01 -4.75003541e-01  1.76653303e-02
  -5.19199252e-01 -6.10803738e-02  1.84982121e-01 -1.85763329e-01
  -2.08434284e-01  5.26972488e-02 -2.08173040e-02 -1.57139167e-01
   6.07164919e-01  1.41845629e-01 -4.15186584e-02 -4.51315552e-01
   2.21170746e-02 -5.96905686e-02 -1.66486531e-01  1.52538553e-01
  -1.40529787e-02  2.85210848e-01 -1.00401200e-01  1.56763807e-01
  -5.38363039e-01 -2.67313600e-01  8.93526599e-02  4.35655005e-02
  -3.24670523e-02 -2.32092980e-02 -9.19853803e-03 -1.41223133e-01
  -2.05333903e-01 -8.23496208e-02 -1.74881652e-01  1.20516859e-01]
 [ 3.13021660e-01  7.39521012e-02 -2.85654813e-01 -6.84978068e-03
  -4.71437216e-01 -3.04695994e-01  1.92076907e-01 -1.46409944e-01
   1.27758324e-01 -1.78432032e-01  2.05223233e-01 -3.79353881e-01
   1.62898913e-01 -1.97671190e-01  1.28658772e-01  1.40146501e-02
   2.62093637e-02 -3.93969864e-01 -7.02925503e-01 -4.06300426e-02
   2.09129021e-01 -3.90477687e-01 -4.18018214e-02  1.39860794e-01
  -2.15676427e-01  3.08763713e-01 -3.66771296e-02  5.61813042e-02
   3.78798209e-02 -7.22323284e-02  3.97386290e-02 -8.50785151e-02
  -1.36254042e-01  8.58653411e-02 -7.93243051e-02 -1.70262828e-01
   1.35647088e-01  3.19983453e-01 -2.42551580e-01 -5.63330173e-01
  -2.78616607e-01 -4.24198151e-01 -3.75995815e-01  1.79795355e-01
   1.44566864e-01 -1.79301739e-01  1.80680230e-01 -1.26673639e-01
   2.44342200e-02 -1.06612280e-01  1.58785239e-01 -9.81162265e-02
   7.55215585e-02  7.12420642e-02  5.97952366e-01  2.82993138e-01
   7.66459107e-02 -4.95658629e-02  7.88727850e-02 -3.49993050e-01
   1.29187800e-04 -4.34964120e-01  5.27727865e-02 -7.32655004e-02
   3.39521736e-01  2.21743472e-02 -4.24083024e-01 -1.23861581e-01
  -2.44110435e-01 -9.94634703e-02 -2.34435201e-01  4.02425751e-02
  -3.30405742e-01 -1.67219847e-01  1.29941508e-01  3.42973918e-01
  -4.40157503e-01 -3.60809863e-01 -1.94600165e-01 -3.63045335e-01
  -1.76282302e-01 -1.28106356e-01  4.79525805e-01 -1.37308603e-02
  -1.79088593e-01 -3.49731117e-01 -5.47827303e-01  7.96691328e-02
  -5.71677089e-01 -7.01181442e-02 -8.37222114e-03  1.77103296e-01
  -2.09357008e-01  2.90848434e-01  1.45163178e-01 -8.92312154e-02
   4.09399003e-01  2.41781145e-01  2.37692118e-01 -2.74396211e-01
   9.97605547e-02 -7.84732848e-02 -1.16204485e-01  1.41282141e-01
  -1.23522602e-01  4.24311906e-01 -1.51565611e-01  2.16926187e-01
  -3.62621546e-01 -4.10944015e-01 -3.33315842e-02  1.71628103e-01
  -5.80787882e-02 -1.27323106e-01 -1.22081768e-03 -3.63749683e-01
  -1.17435060e-01  2.41552498e-02 -2.46973291e-01  1.46568269e-01]
 [ 2.64272809e-01  6.31972849e-02 -2.20524311e-01 -5.68197966e-02
  -2.87286848e-01 -1.07203081e-01  8.94995406e-02  4.19612303e-02
  -2.05538757e-02 -2.56734341e-01  1.92823023e-01 -1.19058497e-01
   2.56554961e-01 -6.47461489e-02  1.83934882e-01  1.43884078e-01
   1.81759730e-01 -1.74925029e-01 -8.17100480e-02 -1.11544445e-01
  -1.24568880e-01 -3.66754919e-01  3.86289172e-02  7.95563087e-02
  -1.11813568e-01  1.18474856e-01 -1.47047400e-01  6.37978688e-02
  -6.12151846e-02 -7.81313032e-02  1.70668051e-01  8.42926726e-02
  -1.08044274e-01 -1.18106358e-01 -6.28473759e-02  2.05987580e-02
   6.14329800e-02  2.80915082e-01 -3.74420404e-01 -3.33344579e-01
  -2.66370237e-01 -2.62552291e-01 -1.62778467e-01 -1.10242799e-01
   7.97031075e-02  3.92388962e-02 -1.39015645e-01  2.22734027e-02
  -1.63116947e-01 -5.29952422e-02  6.55864272e-03  1.52102008e-01
   8.26400369e-02  3.15437689e-02  3.40487301e-01  1.04246102e-02
   2.54502185e-02  1.82134435e-01 -2.65564099e-02 -1.59893230e-01
   1.51035324e-01 -2.34494925e-01  2.94345655e-02 -5.69517165e-02
   2.36902148e-01 -1.34540237e-02 -1.62418112e-01 -9.48557705e-02
   3.03963777e-02 -6.18560426e-02 -4.90280166e-02  1.26715347e-01
  -8.90069827e-02  2.06235260e-01  8.52043256e-02  1.00174323e-01
  -5.46895377e-02 -6.41768575e-02 -1.30889446e-01 -2.55803138e-01
   1.88334752e-02 -6.00035628e-03  2.71855891e-01 -6.72729220e-03
  -3.82701345e-02 -3.27176303e-01 -1.41925260e-01 -1.15248505e-02
  -3.45069259e-01  3.94939184e-02 -2.18302175e-01 -9.56659168e-02
  -7.53593296e-02  1.99597210e-01 -2.41450202e-02 -1.51755854e-01
   2.88743764e-01  4.33917530e-02  3.18108797e-02 -6.25844076e-02
   1.71522677e-01 -7.17640519e-02 -2.48043373e-01  5.81600256e-02
  -1.74557656e-01  3.16832006e-01 -1.78086892e-01 -6.88379928e-02
  -2.08089530e-01 -2.98332632e-01 -2.15750635e-01  1.58928022e-01
  -6.91943318e-02 -2.31387526e-01  1.79305170e-02 -4.01161879e-01
   1.06247492e-01 -1.03939816e-01 -1.52334198e-01  7.99448341e-02]
 [ 4.76079464e-01 -2.45969921e-01  3.93206533e-03 -2.82502383e-01
   3.26494463e-02  1.73390582e-01 -1.42652402e-03  1.81459319e-02
   1.75723821e-01 -2.13692442e-01 -1.29034877e-01  5.06903939e-02
  -1.51954874e-01  1.37110814e-01 -3.11532587e-01  8.16183016e-02
  -1.08232088e-01 -3.14630359e-01 -3.59082252e-01  1.88149028e-02
  -2.51473606e-01  1.68539467e-03 -1.82171807e-01 -1.09099895e-01
   1.70887895e-02  3.55005339e-02 -2.25356147e-01 -1.80276453e-01
  -4.80976626e-02  6.31901100e-02  4.00457606e-02 -1.06321484e-01
   1.98364764e-01 -7.12095648e-02 -2.35086873e-01  9.55390483e-02
  -1.73480496e-01 -7.89628774e-02  1.36293739e-01  1.19483825e-02
   3.91842090e-02  1.19155329e-02  9.36799776e-03 -1.63760945e-01
   4.12674434e-03 -4.96181622e-02 -3.21630925e-01  8.12733099e-02
   3.50286104e-02  7.40815327e-02 -1.53122172e-01 -2.63422616e-02
   1.88613817e-01 -1.02186300e-01  9.43936557e-02 -1.41431913e-01
  -7.85825178e-02 -5.43164741e-03  2.61225283e-01  2.97288328e-01
  -3.58526334e-02 -1.39681056e-01 -4.45265137e-02 -2.97914837e-02
  -1.08852908e-01  1.70515105e-01 -2.08878353e-01  2.71590296e-02
   6.17119558e-02 -8.40474367e-02  1.85206741e-01 -1.17666693e-02
  -2.84992039e-01 -5.98043092e-02 -6.73048273e-02  5.47393300e-02
   1.71428472e-01  2.85459161e-01 -8.27851743e-02  1.98257282e-01
  -2.77610514e-02  1.25982448e-01 -2.01521561e-01 -1.67174771e-01
   2.48252839e-01 -5.80386102e-01 -3.94190848e-01 -7.36395195e-02
   3.27646583e-01 -8.29208419e-02  3.34250510e-01 -1.93824396e-01
   9.22909603e-02 -1.94774434e-01  1.52434662e-01  5.27147688e-02
   2.26344436e-01  3.76720838e-02 -9.23156887e-02 -6.47799894e-02
  -1.83461785e-01  3.84789370e-02 -5.42928338e-01  9.14751366e-02
   2.44217873e-01 -1.09647490e-01  1.52498946e-01 -1.52889639e-01
   4.89735454e-02 -4.63824451e-01 -8.49320590e-02 -6.91491067e-02
   1.13572210e-01 -2.53905207e-01 -1.74982682e-01  3.87400419e-01
  -1.09717481e-01 -2.29475215e-01  6.14656229e-03  1.56351104e-02]
 [ 1.67826876e-01 -8.84677544e-02 -1.83935329e-01  7.88285304e-03
   6.00636378e-03 -1.06420740e-02  1.12888068e-01  1.04451858e-01
   1.51604856e-03 -4.18239921e-01  1.86424423e-02 -6.51014149e-02
   1.51434004e-01 -3.61820422e-02 -9.62306112e-02  3.80618609e-02
  -1.21320290e-02 -1.63321748e-01 -4.64077324e-01 -1.32481217e-01
  -3.72775719e-02 -1.05545036e-01 -7.38807814e-03  1.20526321e-01
  -7.39980936e-02  3.48376296e-02 -1.80296451e-01  2.94410735e-02
  -5.93200140e-02  1.73592493e-01  5.58599196e-02 -6.72586113e-02
  -1.56838894e-01  1.00568861e-01  7.12275878e-02  1.37418672e-01
  -7.01150298e-02  7.33764768e-02 -1.01293311e-01  5.07195480e-02
   1.10080943e-01 -1.77458882e-01  3.88666335e-03 -1.93870291e-01
   1.08208224e-01  3.74670029e-02 -2.62903869e-01 -8.63274038e-02
   1.30077004e-01  1.28730029e-01  4.08940157e-03  6.74822628e-02
  -1.51462452e-02 -9.98688191e-02  1.35130972e-01  6.25685453e-02
   2.50784028e-02 -1.90445781e-02  2.44684517e-01  4.16018702e-02
   5.12013063e-02 -1.75611034e-01  2.68366188e-03 -1.21808618e-01
   1.84301753e-02 -4.32969145e-02 -1.85518354e-01  2.13915229e-01
  -2.87427474e-02  2.30541751e-02  8.21229294e-02  1.29406780e-01
   1.92885213e-02  2.90663559e-02  6.35938942e-02  1.47657305e-01
   9.36650485e-02  1.69860527e-01  3.97486947e-02  8.03554431e-02
  -1.20947704e-01 -5.34647293e-02 -1.72753960e-01 -7.93853551e-02
   9.68387499e-02 -2.56725159e-02 -2.74996281e-01 -2.28463225e-02
   2.24266760e-02 -5.07424101e-02  2.56257020e-02 -2.02981070e-01
  -1.25399366e-01 -3.04361254e-01 -5.00872917e-02 -1.32397011e-01
   8.48286375e-02  1.17429741e-01  4.33813073e-02 -1.08498044e-01
   1.37135666e-02  1.23933703e-01 -4.82465401e-02  2.20918134e-02
   1.58426818e-02  6.99275360e-02 -9.57176164e-02 -3.34869698e-02
  -6.76554218e-02 -1.37121707e-01  2.45055720e-01 -2.07460951e-02
   2.13213652e-01 -1.41092703e-01 -1.88859794e-02 -2.97912699e-03
  -9.12175477e-02  8.58724862e-02 -1.24420151e-01  9.10835266e-02]
 [ 2.33838975e-01 -1.73552930e-01 -2.17932865e-01 -7.23594278e-02
   1.48109287e-01 -1.50006622e-01  1.17383175e-01 -6.93313703e-02
   2.85996348e-02 -4.28444564e-01 -1.22827560e-01  2.26498261e-01
  -1.94791272e-01  2.22915784e-01  4.77309525e-02 -4.44508456e-02
   2.38877058e-01 -4.57199782e-01 -1.19802408e-01 -1.05619699e-01
  -2.81921208e-01 -1.79437980e-01 -1.65623233e-01 -7.69183040e-02
   1.44265100e-01 -1.33714333e-01 -3.58217180e-01 -2.22564280e-01
   5.04277721e-02  8.42155814e-02  4.57317792e-02 -1.08557947e-01
  -1.25641108e-01 -1.55557349e-01  7.09461942e-02 -1.16381675e-01
  -8.75804648e-02 -4.61284965e-02 -1.16575651e-01  2.09922522e-01
  -2.38145459e-02 -1.87820449e-01  1.78823680e-01  1.24735624e-01
  -2.89565865e-02  6.38502371e-03 -4.08144981e-01 -3.13654870e-01
  -1.37223423e-01  1.01185910e-01 -5.12600690e-02 -2.52353996e-01
   2.46600777e-01 -7.91899338e-02  2.46858954e-01  1.15518510e-01
  -8.16852748e-02 -1.57621503e-03  8.78106281e-02 -2.07208261e-01
   1.59944370e-01 -1.52713522e-01 -3.89006734e-02 -2.57576555e-01
  -1.12606280e-01 -2.28605703e-01 -3.37359577e-01 -7.30769336e-02
   2.95124143e-01  2.07729614e-03 -4.83341664e-02  1.95816487e-01
   2.63661351e-02 -7.37180933e-02  9.67213139e-03  3.43277119e-02
   1.78113535e-01  1.83506221e-01 -3.66028816e-01  2.36920081e-02
  -1.82862505e-01 -2.96527729e-03  1.02641881e-02  2.75113191e-02
   2.48319954e-01 -3.83846253e-01 -2.71213949e-01  1.48479417e-01
  -1.29732415e-01 -3.81710678e-02  4.40838754e-01 -2.57168174e-01
  -1.37233898e-01 -9.56970230e-02 -2.42000684e-01 -2.67478861e-02
   3.08549464e-01  3.04951251e-01 -1.80904344e-01 -4.12430108e-01
  -7.29959682e-02 -8.80090147e-03 -1.62272871e-01  1.15366966e-01
   2.77457029e-01  1.18259899e-02 -7.14275986e-02 -1.34169728e-01
  -3.34819019e-01 -1.19566023e-01  1.77394956e-01 -1.09675437e-01
  -8.72032940e-02 -2.62435526e-01 -5.87862097e-02  3.05820275e-02
  -2.02234894e-01 -2.83165108e-02  1.54243648e-01  2.34879740e-02]
 [-1.83950976e-01  1.33729149e-02  1.98237047e-01  1.08102247e-01
   1.74860343e-01  6.75594360e-02  2.66522855e-01  1.91349745e-01
  -1.20703526e-01 -1.48310691e-01 -1.81952655e-01  1.52541190e-01
   2.06768233e-02 -1.54034242e-01  2.93040872e-01  6.91890251e-03
  -2.46456768e-02  3.63388844e-02  2.28455931e-01 -2.46156469e-01
   3.60974222e-02  1.14337951e-01 -1.53868169e-01 -1.50973767e-01
   2.90466659e-02 -4.91815023e-02 -1.80702671e-01  2.11584270e-01
  -8.28802958e-02 -1.90122575e-01  5.44239022e-03  1.48838639e-01
  -1.33550376e-01 -1.75830662e-01  1.21724166e-01 -3.83715630e-02
   9.15666968e-02 -9.23059508e-02 -7.17651546e-02 -2.22207718e-02
  -1.30782783e-01  1.54086635e-01 -7.83415735e-02 -8.52564350e-02
  -7.46825784e-02  6.14376627e-02  2.60148644e-02 -7.57488608e-02
  -2.82805283e-02 -3.92442763e-01  1.39287591e-01 -1.85612902e-01
  -1.76777899e-01 -2.30263192e-02 -2.34192889e-02  2.78561801e-01
  -6.09423630e-02  1.44727573e-01 -4.25504804e-01  8.57571587e-02
   1.17930934e-01  1.60850748e-01 -1.09070903e-02  2.63528943e-01
  -6.43665642e-02 -2.54305881e-02  1.18384406e-01  4.88580540e-02
  -1.91103369e-02  5.22865020e-02  3.12081929e-02  1.92703307e-01
   1.72342315e-01  1.53036803e-01  2.02097133e-01 -2.56532162e-01
   1.19031698e-01  4.41058464e-02 -1.42232150e-01  1.21259920e-01
   2.00658038e-01 -2.92006880e-03 -2.93163329e-01 -2.61632919e-01
  -9.62367356e-02 -1.35941952e-02  2.89321959e-01 -1.45796433e-01
  -6.27127290e-02 -6.53920248e-02 -1.46611080e-01 -1.37905359e-01
  -2.08747759e-01 -5.27034700e-02 -2.90084243e-01 -1.38121936e-02
  -1.50589958e-01 -2.24036947e-01 -8.59292895e-02  1.43063515e-01
   1.77793562e-01 -2.83134673e-02 -1.98057443e-02 -1.40544817e-01
  -1.27688915e-01 -2.09408611e-01 -2.64339715e-01 -3.68980393e-02
   4.17598560e-02  1.70234635e-01 -1.94721177e-01  5.21721616e-02
   3.24220280e-03 -2.05905274e-01  1.84017032e-01 -1.18846878e-01
   1.65336132e-01 -1.06673909e-03 -4.03598659e-02  4.90759015e-02]
 [ 3.53651606e-02  3.94009165e-02  7.92787150e-02  1.73156589e-01
  -5.31692989e-02  1.66292980e-01 -4.49941248e-01  7.05605000e-02
   1.79597721e-01  7.73578370e-03  9.31216404e-02 -4.65278998e-02
  -4.41138446e-02 -6.68371767e-02 -8.51482600e-02  9.86089483e-02
  -1.40902400e-02 -3.81275602e-02 -2.52710432e-02  1.66824326e-01
  -6.68204948e-02  4.30063754e-02 -4.22054343e-02  1.03792906e-01
   1.17554650e-01  2.30034124e-02 -1.60099238e-01 -3.46197262e-02
  -8.14066306e-02  9.19825062e-02 -2.72529483e-01 -3.24339777e-01
   4.35844928e-01  9.34347808e-02  5.42142726e-02  6.26204684e-02
  -4.79387969e-01 -1.35147154e-01  5.34888990e-02  8.21020827e-02
  -1.06498726e-01  2.94972837e-01  9.92504209e-02  3.18138823e-02
   1.39015228e-01  8.63815323e-02 -1.28728405e-01  9.42038745e-02
  -6.72665685e-02 -1.52734235e-01 -5.00903651e-02 -8.83505195e-02
   6.51193857e-02  1.30894899e-01 -1.64867774e-01 -9.58082229e-02
  -4.44934815e-02 -3.14851552e-01 -1.26919121e-01 -7.60373939e-03
  -1.99566573e-01 -8.99027884e-02 -2.52416998e-01 -1.68788373e-01
   1.21021252e-02  3.45498696e-02 -4.22093458e-02  1.11824974e-01
  -1.39747029e-02 -8.24859366e-02  1.51250334e-02 -1.71422094e-01
  -9.32114497e-02 -3.44383717e-01 -3.33912671e-01  6.18269928e-02
   2.74967290e-02  5.77535480e-02 -2.01104097e-02  9.05340686e-02
   3.60937752e-02  2.81705290e-01  7.06556626e-03 -4.46640328e-02
  -1.07977919e-01  1.75426930e-01 -5.57194687e-02  5.53452969e-02
   5.54095879e-02 -2.15960383e-01  1.00900330e-01  1.06643364e-01
   2.22184494e-01  1.24547005e-01 -2.61038542e-01 -3.25702131e-01
  -2.74517704e-02 -9.95901376e-02 -2.19975989e-02 -3.09313629e-02
   8.12558979e-02  1.27125949e-01  2.14175507e-01  1.46639854e-01
   2.46472672e-01  1.36904925e-01  4.14887190e-01 -4.49678442e-03
  -1.12605721e-01  8.19120836e-03 -2.36190576e-02 -5.30323479e-03
   2.10868478e-01  2.51805298e-02 -5.94812259e-02  2.26878040e-02
   2.37349540e-01 -2.95683555e-02  1.23556696e-01 -2.68411487e-01]
 [-1.92434102e-01  4.69287708e-02  1.58761546e-01  2.33399440e-02
   1.02438524e-01  1.70048729e-01  4.18801419e-02  8.96322355e-02
  -9.42335799e-02 -8.95954445e-02 -4.33681458e-02  1.35538489e-01
   7.67455669e-03 -2.53607452e-01  2.06770331e-01 -4.91171218e-02
  -1.39166251e-01  2.14338019e-01  1.62945732e-01 -2.20542133e-01
  -9.02141258e-03 -7.33456388e-02  8.55665803e-02 -1.26789436e-01
  -7.14230090e-02 -7.81038329e-02 -1.99422255e-01  1.59759760e-01
  -1.68187946e-01 -4.65818234e-02 -1.47807926e-01 -7.17635974e-02
  -1.53523251e-01 -1.96118448e-02  9.71456990e-02  2.08587542e-01
  -1.16377860e-01  5.94012737e-02  2.70214044e-02 -7.06631169e-02
  -8.16878676e-02  1.12911798e-01 -8.35970119e-02 -1.33479103e-01
  -2.02105373e-01  1.83211312e-01 -1.12020619e-01  2.65485467e-03
  -1.33720756e-01 -3.51332098e-01  6.55290298e-03 -5.42656854e-02
  -1.50873631e-01 -1.24325156e-02 -6.72036335e-02  1.39709577e-01
   1.11950543e-02  4.47461978e-02 -3.25985402e-01  1.46041244e-01
   2.00837895e-01  1.38810277e-01 -1.77345842e-01  2.67866284e-01
   6.76750243e-02 -1.19347628e-02  5.37949726e-02  1.01691499e-01
   1.67425547e-04  9.00607854e-02  1.22473791e-01  2.00321078e-01
   1.63579777e-01  1.80975318e-01  2.88991511e-01 -8.64321813e-02
   2.16322988e-01 -4.16380055e-02  1.24232829e-01 -8.48381966e-02
   1.89022616e-01  1.13392659e-01 -2.76437789e-01 -2.19483331e-01
  -9.40649956e-03 -3.99327558e-03  3.10719609e-01 -3.56090590e-02
   1.49210781e-01 -1.66938696e-02  5.04119322e-03 -3.26356515e-02
  -1.80507630e-01 -5.75392991e-02 -1.98953286e-01 -1.85788974e-01
   7.31610321e-03 -3.37992162e-01  5.81062026e-02  2.80726224e-01
   2.83550799e-01  2.45597109e-01  1.53547153e-01  4.69454564e-02
  -1.95199892e-01 -1.06897593e-01 -4.75916406e-03  1.16738692e-01
   4.38794456e-02  1.18470766e-01 -3.05682033e-01  1.67289659e-01
   9.12699178e-02 -1.26177818e-01  2.40899280e-01 -4.59625758e-02
   3.60204369e-01  1.00392289e-01 -1.15533590e-01  1.07314736e-01]
 [ 2.51498669e-01 -2.21380159e-01 -2.48320580e-01 -2.08708882e-01
  -2.26324983e-02 -2.37420350e-01 -5.85475517e-03 -5.52875623e-02
   3.90280150e-02 -1.17029347e-01 -7.11465776e-02 -2.09719926e-01
   1.12066604e-01 -8.45217258e-02 -5.97759746e-02  5.44611253e-02
   1.56716928e-02 -1.43199831e-01 -1.54397279e-01 -4.80379947e-02
  -2.52762567e-02 -2.53436744e-01  5.03585264e-02  1.39586329e-01
   1.53572410e-02  1.57539815e-01  3.99214253e-02  1.75290089e-02
  -2.82162689e-02  6.18899688e-02  5.05990162e-02  1.13788582e-01
  -1.91761330e-02 -4.55157347e-02 -1.41987234e-01  6.78908750e-02
   1.00612521e-01  1.22073181e-01  2.94895433e-02 -2.08397821e-01
  -1.86070934e-01 -2.46762365e-01 -1.47822320e-01 -7.67537728e-02
   3.57153383e-03 -1.39903888e-01  9.75240767e-02  4.34813648e-03
   2.23492291e-02  1.14657402e-01 -8.33502635e-02  1.28913373e-01
  -4.27359603e-02  1.46715298e-01  2.57216513e-01  1.30704060e-01
  -7.24211931e-02 -6.23253211e-02  1.78604111e-01  2.62437668e-02
  -4.94814403e-02 -1.45309940e-01  1.41866416e-01  1.23832384e-02
  -6.70685619e-03  8.58452395e-02 -2.14663111e-02 -3.72658409e-02
  -6.40216023e-02 -9.45532545e-02 -9.22397599e-02  4.27048877e-02
  -1.61605671e-01  2.72183903e-02 -9.19574499e-02  1.52902976e-01
  -2.35164106e-01 -7.02605098e-02 -1.11006584e-03 -2.31915191e-01
   5.69263026e-02 -1.42174721e-01  7.33757988e-02  2.19219760e-03
  -1.67971924e-02 -2.65287757e-01 -6.37747943e-02  2.87745818e-02
  -1.66436255e-01  1.85409479e-03 -1.05177037e-01  9.55540165e-02
  -1.28439084e-01  1.07972240e-02  2.40478903e-01  2.70753037e-02
   1.37206882e-01  2.33420506e-02  5.78479050e-03  1.69947091e-03
  -2.87964046e-02  2.34784409e-02 -4.15493488e-01 -1.01658322e-01
  -1.18715335e-02  8.51456150e-02 -5.29656634e-02 -3.46289133e-03
  -7.78839737e-02 -1.10669523e-01  9.31989402e-02  2.58359499e-02
  -4.96876687e-02 -1.08259402e-01 -3.75816785e-02  1.36183333e-02
  -5.21555953e-02 -2.49298550e-02 -2.17002019e-01  1.65285826e-01]
 [ 1.56726643e-01 -2.13339895e-01 -1.51314273e-01  6.31358325e-02
   2.46910185e-01 -1.41580915e-02  2.18729720e-01 -3.05276625e-02
   4.57227346e-04 -1.86567619e-01 -1.33427784e-01  1.79734439e-01
  -7.80531392e-02  1.55501410e-01 -3.48632745e-02 -1.76459149e-01
   2.32840523e-01 -2.74409056e-01 -3.49101573e-01 -9.99434069e-02
   9.59827080e-02 -1.20995976e-01 -6.16796724e-02 -3.33662555e-02
   2.30518118e-01 -1.28517831e-02  4.43206541e-02 -7.83046708e-02
  -4.01231237e-02 -2.65795682e-02  1.32106403e-02 -7.73532614e-02
  -1.11367732e-01 -8.47820658e-03  1.48844928e-01 -2.59205312e-01
   4.93160449e-03 -5.92663139e-02 -1.84473582e-02  1.45990208e-01
   1.99208066e-01 -1.74430758e-01  2.41839856e-01  1.08130127e-01
  -1.00391224e-01 -9.26950499e-02 -2.92482436e-01 -3.13208967e-01
   9.18882638e-02  2.58813836e-02  1.23417743e-01 -1.82656333e-01
   1.03209633e-02 -2.49105006e-01  2.20917165e-01  1.05527043e-01
  -9.15222988e-02  2.27312967e-02  6.24686144e-02  3.18628624e-02
   2.96349466e-01  8.04381520e-02  5.72837377e-03  2.80567119e-03
  -1.01716846e-01 -2.84223914e-01 -4.00637835e-01  1.48651674e-01
   3.15551274e-03 -4.44735102e-02 -7.45531023e-02  8.45114067e-02
   1.99877739e-01  3.41217853e-02  6.59953281e-02 -1.28252581e-01
  -2.60827281e-02  1.84436157e-01 -5.09770922e-02  1.43532068e-01
   1.16409883e-01 -7.76501372e-02 -1.72056943e-01 -3.34581956e-02
   3.54792476e-01 -1.58927917e-01 -2.55943924e-01  2.93823685e-02
   5.38767837e-02  5.97894052e-03  1.95809782e-01 -9.56291556e-02
  -1.53851405e-01 -1.20636873e-01  2.80109923e-02  6.88392073e-02
   2.22867787e-01  2.72480696e-02 -5.86776324e-02 -3.45674932e-01
   6.40849248e-02 -1.48715422e-01 -1.20403804e-01 -2.56121844e-01
   5.81579935e-03 -1.40756056e-01 -1.22704312e-01 -9.69750658e-02
  -2.49643385e-01 -8.77986774e-02  1.17218360e-01 -4.83742431e-02
   7.06632733e-02 -1.13907158e-01  1.43923014e-01  2.72403210e-01
  -2.05123648e-01  1.70258135e-01  8.30820501e-02  6.34294283e-03]
 [-9.08830576e-03 -2.50515848e-01 -5.19364811e-02 -1.18426241e-01
   1.30500689e-01 -1.97454661e-01  2.25868985e-01 -2.91659623e-01
  -8.98196101e-02  1.19048148e-01 -3.54488045e-01  1.11678034e-01
  -1.09433278e-01 -4.55413274e-02  2.99864292e-01 -1.85722664e-01
  -1.35861009e-01  2.68398896e-02  2.27908939e-01 -1.41467586e-01
   9.33899730e-02 -5.81792779e-02 -1.09552383e-01 -1.88254774e-01
   1.67748034e-02 -2.39217088e-01  5.27795032e-02  1.36901334e-01
  -9.88700911e-02 -1.67515664e-03  4.07771543e-02 -9.18188691e-02
  -1.07974015e-01 -1.93901971e-01  6.64566457e-02 -2.56823570e-01
   1.40428722e-01 -2.02693529e-02  1.19089909e-01  4.56026644e-02
   5.49121685e-02  4.89208139e-02  2.12690845e-01  2.60354560e-02
  -3.77760082e-02 -1.32653534e-01  4.01574485e-02 -2.56230205e-01
  -1.57548591e-01 -5.82388639e-02 -1.22859016e-01  2.57564755e-03
   2.21567936e-02 -1.83153018e-01 -7.88899418e-03  5.87534308e-02
  -1.71777740e-01  1.83742449e-01  3.89850996e-02 -1.09785989e-01
   2.21466526e-01  9.51602980e-02 -6.50267676e-02  9.37982127e-02
  -1.02796957e-01 -3.16916794e-01  1.47291636e-02  4.36689258e-02
  -4.62799445e-02 -6.56602830e-02 -2.29004040e-01  2.46246904e-01
   1.44756228e-01  7.18689039e-02  2.48602748e-01 -1.53586566e-01
  -9.83314961e-03  1.46213353e-01 -1.56639114e-01  1.09626995e-02
   3.53393285e-03 -2.14696959e-01 -1.07426375e-01 -3.46939545e-03
  -4.13147248e-02 -5.91074675e-02  7.18521774e-02 -8.01415369e-02
  -7.76072890e-02 -1.48336738e-01 -5.27165979e-02 -3.24746990e-03
  -1.64859042e-01  2.00463831e-02 -8.20223335e-03  2.77351420e-02
  -1.71815053e-01 -1.35771289e-01 -3.18947613e-01  5.62712252e-02
   2.30495840e-01 -2.45742016e-02  9.53870192e-02 -1.03361100e-01
  -1.85851872e-01 -1.83968097e-01 -2.36559063e-01 -9.71036851e-02
   1.54068545e-01 -1.76558346e-02 -9.76136699e-02  3.91877294e-02
   1.20970353e-01 -8.56824517e-02  7.58025274e-02 -7.20245484e-03
  -5.58315255e-02  5.53039759e-02 -4.86379303e-02  7.26201758e-02]
 [-1.60708562e-01 -7.56232813e-02 -3.90545353e-02 -8.81546289e-02
   2.76209228e-02 -2.30878204e-01  1.37411729e-01 -1.66219115e-01
  -5.77022433e-02  2.28367776e-01  1.66381821e-02 -4.31257347e-03
   1.05992027e-01 -1.67919427e-01  1.68444008e-01  2.22526211e-02
  -1.50481641e-01  2.02032998e-01  2.01308489e-01 -1.77811176e-01
   7.29929507e-02 -1.66005984e-01 -1.48934230e-01  6.24844804e-02
  -9.03574377e-02 -1.08935656e-02  1.31405309e-01 -4.43773754e-02
  -2.05655932e-01  8.24699029e-02  9.85784642e-03 -7.41053596e-02
  -7.66463876e-02 -1.74321592e-01  3.69154923e-02 -2.06374183e-01
   1.45942107e-01  7.43193552e-02 -6.80438429e-03 -8.11622217e-02
  -1.77767560e-01 -9.97127146e-02  1.88715998e-02  6.54089600e-02
   5.15156090e-02 -1.46786511e-01  2.23844185e-01 -1.36579588e-01
  -2.36638486e-01  9.64059867e-03  2.03307136e-03  3.20395119e-02
   1.09274536e-01 -1.49215022e-02  2.36286744e-01  7.99438208e-02
  -2.21339211e-01  4.88984920e-02  3.66333537e-02 -1.50838852e-01
   2.43160725e-02  3.75083908e-02 -1.08292207e-01 -1.45304780e-02
