dense_10/kernel:0
(784, 128)
[[ 3.43166217e-02  1.71566904e-02  4.30045277e-03 -5.79304248e-03
   3.90491933e-02  4.54819575e-02  1.98899657e-02 -7.61621892e-02
  -4.07464057e-03 -2.20413506e-02 -4.35098261e-03  3.33066806e-02
  -1.81801468e-02 -3.91477570e-02  1.06574893e-02  3.37184221e-03
  -7.12829456e-02 -7.90634006e-02  5.90080544e-02  5.15403822e-02
  -5.96203841e-02  7.89673105e-02 -6.24526143e-02 -6.58836141e-02
  -1.94361322e-02 -8.71697068e-03  3.08193490e-02  6.31522760e-02
   7.01957121e-02  1.87998638e-02  7.69093409e-02 -7.62825757e-02
   1.66637525e-02 -3.10151726e-02  9.78036225e-03  7.20119551e-02
  -7.36167133e-02 -1.41573176e-02  4.67996076e-02  2.19209269e-02
   1.09514892e-02 -6.79027885e-02 -6.28911108e-02  3.89472768e-02
   1.57775208e-02 -6.08829409e-03  3.00224572e-02 -2.80476697e-02
  -7.36811683e-02  4.38338891e-02 -3.93563621e-02 -2.23555565e-02
   7.15963542e-04  4.88482416e-04  1.50345638e-02  4.51755598e-02
  -3.81254591e-02  4.11681235e-02 -4.03476208e-02  5.12678996e-02
  -3.30353081e-02  6.75879344e-02 -7.28244036e-02 -6.93239719e-02
  -1.63861364e-03  8.06955770e-02  7.99985006e-02 -1.82466507e-02
  -4.30915914e-02  1.49304792e-02 -5.45850396e-03 -2.31466480e-02
  -2.33712643e-02  3.60541046e-03  7.55947456e-02  4.43411693e-02
   7.08763525e-02  6.01625517e-02  3.73521745e-02 -6.64564520e-02
  -4.49634418e-02  1.96499005e-02 -7.76009634e-02 -8.04166570e-02
  -1.94167159e-02 -5.71191907e-02 -7.49529675e-02 -7.60229528e-02
   5.71921095e-02  6.23426810e-02  1.09239519e-02 -5.06630577e-02
   7.90244117e-02 -7.12490827e-03  6.32141307e-02 -5.33598587e-02
  -4.04510610e-02  5.03111556e-02  7.71492943e-02 -2.55689248e-02
   6.80904463e-02  1.39218569e-02 -1.52283534e-02 -7.32515305e-02
   6.19411543e-02 -4.47686091e-02  3.84774357e-02  5.79040274e-02
   2.05780789e-02 -4.52928320e-02  6.23372272e-02 -8.10455978e-02
  -3.54551114e-02 -1.02272704e-02  1.15718693e-03  2.60580108e-02
   7.43751228e-03 -3.88283655e-02  3.73624861e-02  2.02380121e-02
   7.72553682e-03  5.88607788e-03 -5.37267290e-02 -8.06588680e-02
   4.02202979e-02  2.36778930e-02 -5.53183667e-02 -4.53288220e-02]
 [ 2.08670497e-02 -2.06154771e-02  4.18386087e-02 -4.79567796e-02
   5.31663746e-03 -4.77534570e-02 -5.30191585e-02 -8.08082744e-02
   3.22739780e-02  1.88163668e-03  4.26281318e-02 -7.29927793e-02
  -8.07286799e-02  6.91117719e-02 -7.33261332e-02  7.34071657e-02
  -1.79090351e-03  9.15076584e-03  6.71193674e-02  7.48913512e-02
  -2.03341655e-02 -1.59405395e-02  1.11068338e-02  6.18636981e-02
   3.75715122e-02  4.63041291e-02  4.21715304e-02  8.13409686e-04
  -4.02329452e-02 -6.28309846e-02  3.66483629e-02  4.75343093e-02
   6.90012798e-02  2.48552486e-02  4.07173336e-02 -5.23886718e-02
  -5.18022403e-02  1.51311979e-02  7.15396181e-02  3.16435695e-02
  -9.43515450e-03  5.65569326e-02  5.69323972e-02  4.21186239e-02
  -6.02985024e-02  4.78700325e-02 -3.44936885e-02  7.65062198e-02
  -5.27485386e-02  2.56236941e-02  7.81875625e-02 -3.51624042e-02
  -1.54769272e-02  4.96562496e-02 -5.40537015e-02  6.09735176e-02
   6.51824102e-02  7.61488900e-02 -4.08118367e-02 -7.62140006e-02
  -7.91206956e-04  5.17697707e-02  2.14985609e-02  5.75515404e-02
   7.02575520e-02 -5.77078648e-02 -4.41861153e-03 -1.42699853e-02
  -5.64801916e-02 -5.48516363e-02 -5.01404591e-02 -4.10659425e-02
  -6.96669593e-02  4.65400293e-02 -4.21553664e-02 -4.29161154e-02
   6.97646812e-02  4.69095483e-02 -5.67713305e-02 -7.26318508e-02
   8.08093771e-02 -5.46427816e-02 -4.76794504e-02 -2.09632777e-02
  -6.64562806e-02 -1.33663267e-02  7.98953548e-02  4.23602536e-02
   2.35740468e-02 -6.53846115e-02  4.58797738e-02  1.60385668e-02
   1.74487755e-02 -3.85745317e-02  1.35634169e-02 -2.43696049e-02
  -3.33486646e-02  1.93395540e-02 -2.84054130e-03  7.72475228e-02
   4.92758229e-02 -2.58047581e-02  3.12927142e-02  2.24487334e-02
  -4.86587994e-02  2.82716304e-02  7.88592473e-02 -3.72551382e-04
   5.25029376e-02 -1.75266266e-02  3.99764255e-02  6.60385191e-03
   3.49417925e-02  6.42202795e-04 -2.72042118e-02 -4.14063558e-02
   5.74147031e-02 -3.77245769e-02  6.43767789e-02  8.07785168e-02
   1.62853599e-02 -4.59136665e-02  4.18227687e-02  6.98035434e-02
  -2.39746273e-03 -4.51502688e-02 -7.66910389e-02 -7.95928463e-02]
 [ 6.74729869e-02 -5.42782545e-02 -2.55319886e-02 -6.49410859e-02
   6.79151192e-02  2.31210068e-02 -8.04269835e-02 -9.38913226e-03
  -2.76187286e-02 -7.50240162e-02 -5.02047613e-02  7.83123448e-02
   7.68262148e-03 -1.39627159e-02 -6.66306913e-03 -3.68141085e-02
   4.25686240e-02 -2.22450607e-02  7.29235932e-02  1.01841837e-02
   7.71511272e-02  2.28181854e-02 -7.22393617e-02 -2.11651698e-02
  -2.00327486e-03  4.11683172e-02 -7.10158274e-02 -6.10322542e-02
  -7.65001774e-03  1.17446333e-02  8.51690024e-03  3.46858725e-02
  -1.61422417e-02 -4.94069569e-02  2.26234645e-03  1.39176995e-02
   3.46735343e-02 -1.26325712e-02  2.94015855e-02 -2.87590101e-02
   1.35167912e-02  3.96897346e-02 -7.25789592e-02  4.31188419e-02
  -3.54614332e-02  9.36053693e-04 -5.80638424e-02 -4.29440774e-02
   2.13515311e-02  5.32886386e-03  5.17854169e-02  8.07030424e-02
   5.28320745e-02 -1.42923370e-02 -4.53291498e-02 -6.74191564e-02
   6.91262856e-02  6.23414144e-02  4.99546528e-04  7.38430396e-02
   3.45162749e-02  5.08467481e-02  6.30328283e-02 -6.72217682e-02
   1.70198083e-02  3.17834020e-02  7.20696822e-02 -7.06561953e-02
   7.86997303e-02 -4.83512990e-02 -1.81874037e-02 -2.81527154e-02
   2.29433477e-02  1.95816904e-02 -4.44027670e-02 -6.61946684e-02
  -8.24964046e-03 -2.02645063e-02  8.30541551e-03 -4.12485152e-02
  -7.42441639e-02  4.63158712e-02  1.93713084e-02  8.08063671e-02
  -6.45798892e-02  8.04345384e-02  3.11000869e-02 -1.41963065e-02
   6.74911365e-02  7.75447711e-02  6.26186356e-02  3.42067033e-02
  -3.24135050e-02 -7.45939910e-02 -1.55485719e-02 -5.61012179e-02
  -6.44629449e-02  4.58558276e-02 -6.31456822e-02 -4.02056612e-02
  -4.17861976e-02  7.58202150e-02  3.31963748e-02 -7.68219382e-02
   5.68023548e-02 -6.52199835e-02  2.09180638e-02 -3.13394517e-03
   1.51194781e-02 -1.83147267e-02 -4.01798449e-02  3.41127440e-02
  -3.29192579e-02 -6.37312233e-02 -1.32643506e-02  2.23104805e-02
   5.76373562e-02 -4.49396744e-02 -6.53162673e-02 -1.52552500e-02
  -4.65630889e-02  6.71705082e-02  6.80280477e-03  6.81646988e-02
  -6.31839707e-02 -2.77341567e-02  4.81279269e-02 -6.34496957e-02]
 [ 7.05664232e-02 -2.82057226e-02 -5.04442453e-02  7.43162706e-02
  -4.73069921e-02 -3.70041654e-02  6.45459518e-02  2.48442069e-02
   6.01034984e-02 -7.70930424e-02 -1.54525936e-02  5.87065145e-02
   3.51987630e-02  6.22476414e-02  2.23658979e-03 -5.80841526e-02
   3.80280688e-02 -4.15470600e-02  7.87664875e-02 -5.12314886e-02
  -6.81035966e-02  5.94001785e-02 -1.22440830e-02 -2.56419927e-03
   1.17840469e-02 -1.76310018e-02 -5.29666767e-02 -6.51375428e-02
   8.06027427e-02  3.69490683e-02  1.47900060e-02  2.58070379e-02
  -7.55619928e-02 -1.23201758e-02 -4.28931415e-03 -3.08104940e-02
  -3.72950733e-02 -4.13010381e-02 -7.97551870e-03  3.38167697e-02
  -5.21301962e-02 -2.07854249e-02  2.68159732e-02 -1.05431601e-02
  -1.89594254e-02 -7.24563748e-03  6.12094998e-04  2.32419670e-02
   8.88906419e-03  3.61305177e-02 -7.77425542e-02  3.29321772e-02
   3.54939401e-02 -5.46105057e-02  7.42512569e-02 -9.70672071e-03
  -2.51801871e-02 -6.71912506e-02 -3.99665423e-02  7.11916760e-02
  -1.14083812e-02  6.70081005e-02  2.62875110e-03  2.41866261e-02
  -9.66131687e-03  1.59050152e-02  6.45261183e-02  8.00018534e-02
  -4.72480096e-02 -7.97096118e-02  5.19993529e-02 -2.14940161e-02
   7.41148070e-02  6.50204495e-02  3.13016474e-02 -7.11602420e-02
   2.43457034e-02  1.96452960e-02 -7.01526031e-02  6.30032793e-02
  -2.08863504e-02 -5.97367808e-02  7.06613809e-03 -4.92148139e-02
  -2.25707740e-02 -3.20076197e-03 -4.14325967e-02 -6.94817379e-02
  -6.13091961e-02  6.98283240e-02  3.48557755e-02  2.70927474e-02
  -4.09409404e-02 -2.17372142e-02  7.66015425e-02 -5.23035675e-02
  -1.47214904e-02 -7.45599195e-02  6.55296817e-02  6.75019398e-02
   3.46150696e-02 -5.64849526e-02 -7.98495635e-02 -6.88901767e-02
   1.96113959e-02  3.19357514e-02  5.38780540e-03 -3.88031304e-02
  -3.06730978e-02 -7.98016787e-04  2.26001889e-02  3.45652550e-03
   2.75059044e-02 -1.75433382e-02 -1.04439408e-02 -7.44615495e-03
  -6.89177737e-02  2.38002092e-02  3.90676036e-02  3.26699689e-02
  -8.93303752e-03 -4.68129776e-02  6.10165969e-02  4.04347256e-02
   2.43312567e-02  7.16163442e-02 -3.55507173e-02 -2.82208845e-02]
 [ 9.81051475e-03 -4.23107296e-02 -2.63320915e-02  4.84581292e-03
   7.46376440e-02 -2.16126405e-02  3.90777364e-02  7.44022429e-04
  -7.94341564e-02 -8.83901119e-03  3.62705886e-02  7.24753812e-02
   6.58530742e-03 -1.96578279e-02  7.20525011e-02 -7.29435831e-02
  -3.84442508e-04 -5.59324361e-02 -7.81624690e-02  7.68891647e-02
   7.31122270e-02 -4.95057963e-02 -7.77862221e-02  1.04180425e-02
  -4.85524759e-02 -7.35973939e-02  5.12641445e-02 -6.30018786e-02
  -7.48879910e-02  2.26636156e-02 -3.64664048e-02  8.41438770e-03
   1.60533190e-03  7.67030641e-02 -6.00533858e-02 -5.14665991e-03
   8.48844647e-03 -7.49620795e-02 -5.71057200e-04  2.05858499e-02
   1.29699111e-02 -2.85074376e-02 -1.49263218e-02  4.92735431e-02
  -4.23593819e-03  5.92603758e-02 -2.23423690e-02  5.97140715e-02
  -6.22453466e-02  2.93803290e-02  4.30871025e-02 -5.87462187e-02
   1.06669962e-04  2.77891010e-03  7.21963271e-02  3.12352628e-02
   8.02524611e-02  2.81216949e-02  4.14820462e-02  4.00162190e-02
  -6.13181330e-02  5.53926006e-02 -1.20847151e-02  4.68817279e-02
   3.09301242e-02  2.77062953e-02  1.52107105e-02 -1.77720115e-02
  -3.04066129e-02  7.47829452e-02 -2.78865062e-02 -2.85201818e-02
  -6.86580241e-02 -4.81075421e-02 -3.45168523e-02 -5.66117465e-03
  -2.46331096e-03  7.99384192e-02 -7.11930990e-02 -5.64743504e-02
  -7.40123540e-02 -5.94680011e-03 -2.68484429e-02 -6.92484230e-02
   1.78671405e-02 -2.81485766e-02 -3.73803936e-02  3.56910527e-02
   7.49168620e-02 -2.47066878e-02  5.75934723e-02  5.45574203e-02
   3.85809541e-02 -2.51745209e-02 -4.82254848e-02  5.22477403e-02
   7.01750293e-02 -2.81301476e-02 -8.54440033e-04  1.12266168e-02
  -1.76270157e-02 -1.00074187e-02  1.03585050e-02 -2.13204548e-02
   2.04203725e-02 -3.19618396e-02  1.08830929e-02 -5.71915507e-02
  -1.76265687e-02  1.20870396e-02  2.75128707e-02 -7.65808448e-02
   3.29763070e-02 -1.12297535e-02  7.11386427e-02 -4.44874503e-02
   1.79387107e-02  2.20282376e-03 -3.16282324e-02  3.60544249e-02
   3.83695439e-02 -4.71173413e-02 -7.04913884e-02  2.76275426e-02
  -6.07983992e-02 -6.23920076e-02 -2.47978903e-02  2.49168947e-02]
 [-4.31396812e-03 -7.82400370e-03  8.02755132e-02 -2.16501951e-02
   5.58167323e-02  3.82256880e-02  7.48339221e-02  6.06606677e-02
   8.92756134e-03  3.39371487e-02 -5.14163040e-02  6.86006472e-02
   4.23222780e-02  7.74048641e-02 -7.03360438e-02 -5.81190549e-02
  -1.16159171e-02 -5.90750575e-03  4.02487442e-02 -1.06718242e-02
   2.22065300e-03 -4.97296192e-02  2.09582895e-02 -1.75494701e-03
  -5.73238432e-02  1.37672275e-02  7.60804340e-02  5.28090224e-02
  -4.36950624e-02  5.71114942e-02  3.32549140e-02  4.25878689e-02
   6.20306656e-02  1.60821751e-02 -3.47049981e-02  1.72363073e-02
  -7.86762834e-02  6.61391392e-02  7.67250732e-02 -5.85012883e-03
  -4.40592617e-02  4.50033322e-02 -7.72706270e-02  4.23008278e-02
   5.36203161e-02  7.88720623e-02  7.92117491e-02  2.57782042e-02
   6.11185059e-02 -5.15988395e-02 -3.56515869e-02 -5.81883043e-02
   3.31539884e-02 -6.91093579e-02 -3.61895002e-02 -7.62546510e-02
   5.17205372e-02 -1.28721148e-02 -3.21646966e-02  1.13739371e-02
  -6.15036637e-02  6.20316193e-02 -2.23160684e-02  4.43169847e-02
   5.09303287e-02  5.78131601e-02  5.57497516e-02  3.87411341e-02
  -3.08160074e-02  2.13706568e-02  1.76025555e-02  1.02578849e-02
  -2.25688219e-02 -5.27916104e-03 -4.74448763e-02 -3.23515646e-02
  -7.26068839e-02  6.88241348e-02 -6.73107803e-04 -3.58853675e-02
   2.44142935e-02 -3.87672558e-02 -5.19968793e-02  3.78855467e-02
   3.23280469e-02  4.71895114e-02 -8.54940712e-03  7.65437558e-02
  -1.33007765e-04  2.61237025e-02 -2.08778791e-02 -1.27649233e-02
  -4.23529260e-02 -3.34791988e-02 -7.38043338e-02 -5.31907678e-02
  -5.71553484e-02 -3.98530662e-02  4.24182937e-02  2.94916630e-02
  -5.63589633e-02  9.42703336e-03 -7.74795339e-02  5.13110384e-02
   5.64320460e-02  7.62604177e-04  6.45555779e-02  2.66784430e-02
  -2.11967863e-02  6.08705357e-02 -4.74531204e-03 -4.45879102e-02
  -1.41715258e-03 -6.42415434e-02 -4.22005393e-02  8.20732862e-03
  -4.76089865e-03 -7.30049610e-02  1.36281997e-02  8.39345902e-03
  -3.91254984e-02  1.82048604e-02  6.52779713e-02 -1.04608387e-03
   8.03391710e-02  4.09051776e-03 -2.76619866e-02 -6.45862073e-02]
 [ 7.09899291e-02 -5.02489284e-02 -5.31285256e-03  6.52178377e-03
   4.22375351e-02  2.74701342e-02 -6.04103357e-02  3.58965844e-02
  -7.34967738e-02 -5.28810620e-02 -1.04979873e-02 -7.48593137e-02
   2.50877887e-02  4.03418243e-02  1.62545368e-02  6.94645122e-02
   2.78722942e-02  2.59052590e-02  4.31904867e-02 -4.19326872e-02
  -1.50402486e-02  1.86982229e-02  6.03004172e-02  8.04023817e-02
  -2.72639468e-02 -2.64554322e-02 -1.26263797e-02 -7.42240995e-03
   3.07425782e-02  2.66634747e-02  5.63677028e-02 -5.99541441e-02
  -3.91576774e-02 -7.76021183e-02 -6.68384284e-02 -6.55729249e-02
  -7.16074780e-02  1.16402432e-02  2.29756236e-02 -3.93549278e-02
  -2.78721750e-02 -7.54310116e-02 -5.20599782e-02  6.17526844e-02
   2.71111950e-02 -1.03002563e-02 -3.68107259e-02  7.50753284e-03
   3.68757397e-02 -2.72486135e-02  7.97365531e-02 -2.56887078e-02
   2.34562382e-02 -2.91668363e-02 -2.28552036e-02 -5.82463592e-02
   4.51373309e-03  5.48744425e-02 -4.64872234e-02 -6.69986829e-02
   6.27391711e-02  1.52757689e-02 -4.84807305e-02 -7.14945048e-02
   4.97231558e-02  4.03959453e-02  9.83884186e-03 -5.54709136e-03
  -7.13663325e-02  4.50515524e-02 -7.29396567e-02  7.71703944e-02
  -2.00721882e-02  1.30080208e-02 -7.65800178e-02  3.55998948e-02
  -4.29156907e-02  8.10445920e-02  1.32387653e-02 -2.17840150e-02
   3.77289876e-02  2.07524896e-02 -8.03392455e-02  3.72525677e-02
   6.74849972e-02  7.49177113e-02 -5.45637459e-02 -1.61056146e-02
  -6.42867163e-02 -3.83394547e-02  7.62021765e-02  5.51909283e-02
  -2.40782127e-02  6.83717802e-02  1.24360770e-02 -2.76201405e-02
   7.50252530e-02  6.61903396e-02  1.92732066e-02  5.23286685e-02
  -6.81155846e-02 -4.81062457e-02  2.98407972e-02 -7.70908371e-02
   2.85711586e-02 -4.47835773e-02  4.78140786e-02 -4.44690399e-02
  -2.64508091e-02 -2.85591483e-02  6.97083846e-02 -1.47113204e-02
   7.13429376e-02 -4.56536263e-02 -1.06313676e-02 -6.24766126e-02
  -1.05478615e-02  7.78753087e-02  1.17077529e-02 -7.63504282e-02
   3.41162011e-02  4.12401035e-02  3.44805345e-02 -1.44187510e-02
   5.05433753e-02  6.05413690e-02  3.85411084e-04  3.63071188e-02]
 [-4.25843485e-02  3.64812016e-02 -4.81877737e-02 -7.07377046e-02
  -5.62683605e-02  1.81443542e-02 -2.60020085e-02  2.42036059e-02
  -3.36618498e-02 -5.30507788e-02  4.11898419e-02  2.50160024e-02
   7.44847730e-02  7.46020004e-02  1.09068602e-02  7.05498084e-02
   7.82136694e-02  2.87914276e-03  4.47146520e-02 -4.85185198e-02
   4.78806347e-03  4.40892801e-02  5.09876683e-02 -4.55158986e-02
  -3.12686190e-02  3.31689343e-02  3.19631174e-02 -2.26008631e-02
  -5.18035516e-02 -2.17356868e-02  3.23621258e-02 -6.64560497e-02
   2.03986019e-02 -3.48439813e-02 -5.61158583e-02 -6.48199916e-02
   6.13937899e-02 -1.23158246e-02  1.48153976e-02  3.30352113e-02
   2.80504152e-02 -3.27997878e-02 -1.65718794e-02  4.58247960e-03
  -6.76924437e-02 -8.11001137e-02 -3.03859226e-02  2.20556781e-02
   6.54193386e-02  7.67660066e-02 -6.82116300e-03 -6.94169849e-03
   4.79487330e-03 -7.32607096e-02  6.82549998e-02  1.60049647e-03
  -6.56574368e-02  2.31181458e-02 -3.63109447e-02  9.10317898e-03
  -4.38359231e-02  2.10910663e-02  1.30183920e-02 -2.49718949e-02
   6.77946582e-02  6.64436892e-02  7.64932856e-02  1.77967101e-02
  -5.30287921e-02 -8.06040093e-02 -8.66005570e-03 -3.00082825e-02
   7.78406635e-02 -2.41870321e-02  7.87089095e-02 -2.16036662e-02
   1.92852169e-02  6.72633275e-02  5.64490184e-02 -1.82089806e-02
  -7.90271014e-02  7.97197446e-02  2.01287493e-02 -7.83395097e-02
  -4.15225774e-02  6.05648085e-02 -7.38668516e-02 -4.17205654e-02
  -5.97382523e-02 -7.89664984e-02  4.71575037e-02  5.99618182e-02
  -1.53864995e-02  4.71423641e-02 -4.53746915e-02 -6.44733161e-02
  -5.89144230e-02  7.50699267e-02 -7.08267093e-03 -7.43224397e-02
   7.51162246e-02  7.18373880e-02  6.29262254e-02  2.38087550e-02
  -1.77432001e-02 -5.34794889e-02 -3.86050269e-02  4.05479074e-02
  -5.59383333e-02  1.38992071e-03 -1.75630450e-02 -6.29975870e-02
  -1.02108940e-02 -1.02384388e-03  7.42176920e-03 -7.58364797e-02
   2.02382281e-02 -7.49014318e-04  1.74446777e-02 -7.55505636e-02
  -5.02951443e-02  6.85869679e-02 -4.29877639e-02  3.32454965e-02
   9.95261222e-03  2.24659964e-02  1.51098296e-02 -2.09979527e-02]
 [-3.69220749e-02 -7.97966868e-02 -4.56374027e-02  9.69229639e-03
  -8.02746415e-03 -7.06599653e-02  1.59718469e-02  5.74379191e-02
  -3.77641618e-02 -1.21700540e-02  5.54742664e-03 -3.55005153e-02
   6.45625070e-02  6.36443421e-02 -3.60706486e-02  4.30526584e-03
  -5.88518418e-02  4.14643735e-02 -5.39103150e-03 -6.35960698e-02
   3.10905501e-02  1.41490996e-02 -1.87563151e-02  3.63315567e-02
   3.50987986e-02 -4.67018187e-02 -5.67981899e-02  7.47575536e-02
  -6.10527918e-02  4.05641943e-02 -5.39980456e-02 -1.81539655e-02
  -1.53863654e-02 -2.97287889e-02  4.81635705e-02 -2.86721624e-02
   7.03159720e-03  1.67861655e-02 -6.29328191e-02  7.28139058e-02
  -4.45325673e-02  1.62852108e-02  1.32146701e-02  4.92508933e-02
  -5.44439256e-02  4.70072702e-02  5.23714647e-02  7.91038796e-02
   5.52612618e-02  9.69885290e-03 -3.83637622e-02  7.46185258e-02
  -6.46081194e-02  4.11422551e-02  4.56493571e-02  3.52358297e-02
   1.61257088e-02 -3.60866226e-02  2.96365470e-03  1.88878924e-02
   1.33972093e-02 -7.35263824e-02  4.78460118e-02  2.03822777e-02
   4.06213552e-02  3.00545618e-02  2.36251950e-02  4.14845347e-03
   4.54279259e-02 -3.52723636e-02  5.37712798e-02 -3.50676104e-02
   3.74859422e-02  6.66306913e-03  7.38650486e-02  4.78321984e-02
  -3.86615172e-02 -3.31765153e-02  6.77801743e-02 -3.81498039e-03
   1.30477622e-02  6.03191331e-02 -6.33511692e-02  1.85052603e-02
   1.74977556e-02  5.96730784e-02  5.76864257e-02 -2.10973099e-02
  -2.57067122e-02 -4.40534987e-02 -2.84985825e-02 -3.64473574e-02
  -4.28220332e-02  6.35496154e-02  4.60285321e-02 -2.20635124e-02
   4.56451401e-02 -3.15028429e-03  6.34867921e-02 -5.35512120e-02
  -5.66340312e-02 -4.33909297e-02 -1.05280057e-02 -5.39442673e-02
  -5.93922697e-02 -5.98449036e-02  5.22163138e-02 -3.59413140e-02
  -2.41655260e-02  7.34922066e-02 -5.27563915e-02 -4.02429625e-02
   5.65113127e-03  1.42664462e-03  2.44767368e-02 -3.71225923e-03
  -5.09868003e-02  1.55017152e-02  6.72066435e-02  3.52254286e-02
   3.65529433e-02 -1.72868520e-02  5.76021299e-02 -7.43602291e-02
   5.59239462e-02  6.26534447e-02  3.01914364e-02 -6.82843700e-02]
 [-5.30951992e-02 -3.01236548e-02  2.18702033e-02 -6.89305365e-02
   6.16803020e-03  6.14839569e-02 -1.07914060e-02  1.08333752e-02
  -3.30914482e-02  4.91218343e-02  4.99806926e-02  6.63569346e-02
  -5.51645122e-02  8.03622976e-02 -6.60085008e-02 -2.39357091e-02
   3.65741178e-02 -1.67227164e-02 -6.08541295e-02  4.30071577e-02
   2.89974511e-02  1.44440681e-02 -4.77174111e-02  6.27765805e-03
  -3.40275355e-02 -6.02712147e-02 -1.34696513e-02 -7.11735487e-02
   7.71488324e-02  1.01493746e-02  7.03936890e-02  4.30509448e-04
   3.52127105e-03 -1.78950801e-02  5.87960556e-02 -1.52012408e-02
  -4.02714089e-02  2.90294588e-02  3.55575234e-03  1.65764391e-02
   7.98803046e-02  1.12358406e-02 -4.41727377e-02  2.38092393e-02
   1.58069357e-02 -7.79406354e-02  1.47241428e-02  1.00786611e-02
  -1.72489882e-02 -5.20401001e-02  3.47370952e-02 -5.28151020e-02
   5.34082428e-02 -4.80445735e-02  7.19813332e-02 -4.19410802e-02
  -7.96231106e-02  5.89458123e-02  1.88490599e-02 -2.05985382e-02
  -6.96949437e-02  3.80296335e-02  1.91237777e-02 -5.99409342e-02
  -2.90258974e-02  1.78541988e-02 -2.09277123e-03 -7.51196072e-02
   7.82705843e-03 -4.51057330e-02  3.69386077e-02 -5.21640405e-02
  -2.67682970e-03  1.16079673e-02  5.52104339e-02 -3.91282849e-02
   2.10616887e-02 -7.40063041e-02 -3.74085307e-02 -4.19183187e-02
  -3.35577726e-02 -4.68438417e-02  4.38488573e-02 -3.75958011e-02
  -4.77120280e-03 -2.60838084e-02 -5.88431954e-03  1.13076046e-02
   2.80535296e-02 -6.23740405e-02  2.23489478e-02  6.98872581e-02
  -4.29388396e-02 -5.18282875e-02  4.22630981e-02  3.53417844e-02
  -6.53363392e-02 -7.06109181e-02 -2.55894251e-02 -2.23369151e-03
   4.95121256e-02 -5.61608970e-02 -1.72568858e-03  5.17055914e-02
  -1.15270764e-02  1.87187418e-02 -4.35993783e-02  1.48389712e-02
   3.92215699e-02 -2.56197453e-02  7.02526197e-02  1.90612227e-02
  -6.76977634e-03 -6.12915978e-02 -1.29960924e-02 -7.32771903e-02
  -1.31479353e-02  3.47118601e-02 -4.05280888e-02 -3.29840817e-02
   2.07766443e-02  4.78628501e-02 -1.41955689e-02 -4.69191819e-02
   1.18460506e-03 -1.47334412e-02  4.31808829e-03 -5.72740883e-02]
 [-1.25254914e-02  2.69267038e-02 -6.01271056e-02  5.06311655e-04
  -5.25112189e-02 -1.21873617e-02  1.79883316e-02  4.42850515e-02
  -5.96950874e-02 -3.56597491e-02  6.30407855e-02 -6.57208636e-02
   1.02067962e-02  6.55658320e-02 -8.01727623e-02 -3.79308388e-02
   5.84682077e-03 -7.06821829e-02 -2.02464461e-02 -3.10115926e-02
  -6.54506907e-02 -1.18203983e-02  1.68255791e-02  4.18452993e-02
   1.34994835e-02  4.99434769e-03  6.80943951e-02 -9.66623425e-04
  -7.51093552e-02  3.24056372e-02  4.11592722e-02 -4.17500176e-02
   4.37690690e-02  5.18196821e-03  2.96726674e-02  2.20636427e-02
  -6.61560297e-02  5.76064512e-02 -3.15650553e-02 -1.70643106e-02
  -3.20611410e-02 -3.31248045e-02  5.82537055e-03  8.09145942e-02
   7.51389787e-02 -2.83803046e-03  3.48536149e-02  3.69253233e-02
  -4.84073050e-02 -3.56993079e-03 -3.99668515e-03 -8.04316998e-02
  -5.76725341e-02 -4.91371900e-02 -6.33841231e-02  7.71225244e-03
   9.57597792e-03 -1.91633068e-02 -5.09948842e-02 -1.70308724e-02
   3.32700014e-02  3.10042053e-02 -1.12902597e-02 -4.13951986e-02
  -3.53418253e-02 -7.04587847e-02  2.95436233e-02 -3.12516019e-02
  -9.39015299e-03  1.24949813e-02  7.09377006e-02  1.60738602e-02
   1.32095665e-02 -1.19662285e-02 -2.14619562e-02  6.58069625e-02
   5.57194650e-03  1.62790939e-02  5.72935566e-02  2.88247615e-02
   2.63078511e-03 -2.82253698e-02 -7.98859969e-02  5.77406660e-02
  -1.93712525e-02 -6.36149794e-02 -1.23515874e-02  1.93126351e-02
   6.18557557e-02 -3.56800705e-02  4.21804264e-02 -3.01319323e-02
  -7.47655630e-02 -2.99711563e-02  5.09463772e-02  6.46640584e-02
   3.45871523e-02 -6.73216730e-02  1.91313624e-02  6.90634176e-02
  -1.57078803e-02  5.10536954e-02 -7.73229524e-02 -3.42280567e-02
   7.47902617e-02  7.80853257e-02 -1.14578083e-02  3.73308510e-02
  -3.90703082e-02  5.54595143e-03 -2.62165852e-02 -4.67855372e-02
  -6.50619268e-02  7.36422762e-02  5.78550324e-02 -1.37055963e-02
   6.91773668e-02 -3.89297754e-02 -1.57589465e-03  3.58332694e-02
  -2.52681784e-02  5.33283576e-02 -4.15423028e-02 -4.08418141e-02
   6.81049451e-02 -7.29962438e-02 -1.93308555e-02  2.94777974e-02]
 [ 5.26315495e-02 -5.47803566e-02 -4.05485667e-02  7.33565465e-02
  -1.78784505e-02  2.84412280e-02  6.38650283e-02 -4.52988856e-02
  -6.88283369e-02 -6.72771335e-02  7.45859221e-02  4.97259870e-02
  -2.48309560e-02  3.49719450e-02  7.70108774e-02  6.00846857e-03
  -3.01933698e-02  2.70992443e-02  2.59583592e-02 -5.02223372e-02
   2.00518221e-02  7.15777352e-02  2.03100890e-02 -1.81414932e-02
  -2.48514935e-02 -5.20652011e-02 -6.97497651e-02 -7.79500976e-02
  -4.73937653e-02  7.76356086e-02  2.95185223e-02 -5.62283508e-02
  -5.28236292e-02  3.25401872e-03  3.24184000e-02 -3.09106670e-02
   6.99101165e-02 -3.40098999e-02  4.06808406e-02  5.64119443e-02
  -1.63141191e-02 -5.66885024e-02 -4.08842005e-02 -4.90520410e-02
  -5.32471389e-02 -3.66964154e-02  4.29973975e-02 -7.91528001e-02
   2.08545551e-02  4.48430851e-02  2.47718990e-02 -5.66190481e-03
   6.67460784e-02 -4.35753018e-02 -6.70325831e-02 -3.96704935e-02
   3.72610390e-02 -1.07161477e-02  7.43200257e-02  3.06609124e-02
  -6.58123121e-02  3.90874445e-02  6.21359870e-02  7.00909570e-02
   3.62816900e-02  1.46274492e-02 -2.72343792e-02 -4.55159955e-02
   2.04467103e-02 -4.17691469e-03 -4.26305085e-02 -6.97366744e-02
   2.61518955e-02 -5.76727465e-02 -4.82852794e-02  8.60711187e-03
  -2.91305780e-02  5.45120314e-02  1.92459226e-02 -4.36622053e-02
   4.39628139e-02 -4.51350883e-02  6.61595538e-02 -6.08737767e-02
  -1.42561197e-02  5.56115285e-02 -3.70659716e-02  6.74107671e-03
  -5.47043979e-02  1.53562576e-02  5.75979427e-02  7.05258474e-02
  -6.34518862e-02 -7.86229745e-02 -5.60827926e-02 -3.10414732e-02
   3.90847698e-02  8.72635096e-03  1.47772878e-02  2.31703222e-02
   8.00890103e-02 -3.10579874e-02  4.86313775e-02  1.00126565e-02
  -5.75373024e-02 -4.59397547e-02  9.72973555e-03 -1.62730068e-02
   2.59889141e-02  4.39334586e-02  2.05729306e-02  7.50878677e-02
   5.73654249e-02 -7.03217387e-02  1.49963647e-02  2.26236880e-03
  -1.79126188e-02  6.72013313e-03  3.57028693e-02 -3.28028202e-03
   6.86027110e-04 -3.23101990e-02  3.63622531e-02 -6.87723532e-02
   4.23193723e-03  6.14868626e-02  3.31319869e-04 -4.95779105e-02]
 [-5.59264887e-03  4.13501598e-02  2.96916012e-02  2.85577774e-02
  -3.97272594e-03  1.10055380e-01  4.95583750e-04 -4.15816754e-02
   1.37325093e-01 -6.53783828e-02  3.98857845e-03  2.57054693e-03
  -5.54773510e-02 -6.57105148e-02 -4.77049574e-02 -2.96326168e-02
  -5.47737032e-02 -6.53997809e-02 -5.70194162e-02 -1.28981471e-02
  -1.34743184e-01  7.77969211e-02  3.45524400e-02  2.61925124e-02
  -3.17908451e-02  1.47937179e-01  2.74155382e-03 -1.10121816e-03
   5.51514402e-02  2.46892702e-02  5.40467724e-02 -6.11550920e-03
   3.11063919e-02 -8.41595680e-02 -1.98942069e-02 -9.97617543e-02
  -2.89180744e-02  3.68431732e-02 -3.74122038e-02  3.56082618e-02
  -1.17182367e-01 -8.37646648e-02  8.61552507e-02 -7.47761056e-02
  -2.30812766e-02 -6.27728552e-02 -8.11492130e-02 -4.42992300e-02
  -7.15831742e-02  1.82539821e-02 -6.35173023e-02 -5.53475767e-02
   6.44308105e-02  1.35339469e-01  8.73847529e-02 -4.11755592e-02
  -8.37595109e-03 -1.11504637e-01  1.59325879e-02  2.24564690e-02
  -4.59331647e-02  3.66477072e-02  1.59429893e-01 -7.32469782e-02
  -5.16591743e-02 -6.51047453e-02 -2.69189570e-02  8.88107419e-02
   2.34566256e-02 -8.68538953e-03 -8.47400650e-02  6.04584664e-02
   8.84473547e-02  2.52222382e-02 -6.14911951e-02  7.56234378e-02
   6.41683990e-04 -5.32071441e-02  1.11993276e-01  6.68527409e-02
  -7.96124619e-03  4.43721786e-02  7.94849247e-02 -5.18736541e-02
   6.07052967e-02  1.51177421e-01  3.78605202e-02 -2.37185806e-02
   1.47737771e-01 -4.76054996e-02  1.28414668e-02 -3.12099457e-02
   9.07410979e-02 -3.81844640e-02  9.47855785e-02  7.16814101e-02
  -3.11664157e-02  1.33093864e-01 -5.19252159e-02 -8.56040418e-02
  -6.91464245e-02  1.39155164e-01  7.28364810e-02  6.50010481e-02
   1.37634590e-01  1.26927361e-01 -2.78292578e-02  2.95368419e-03
   9.52097252e-02 -9.97803640e-03 -2.18778960e-02 -2.80149598e-02
   3.20044234e-02  1.35196163e-03  8.95405374e-03  6.74564913e-02
  -1.09146714e-01 -7.09273219e-02 -1.45954657e-02 -3.51439007e-02
  -6.13102652e-02 -3.78014296e-02 -1.44015229e-03  1.26042470e-01
  -1.13399908e-01 -4.65328917e-02  7.83019662e-02 -3.28255855e-02]
 [ 1.79497129e-03 -1.52776539e-02  1.58425301e-01  2.92760804e-02
   9.00212228e-02  6.62046671e-02 -2.37499084e-02 -4.85047027e-02
   3.06805689e-02  1.81528841e-04  1.15873717e-01  7.17262849e-02
  -1.14300452e-01 -1.04392655e-02 -8.36968198e-02 -1.31168813e-02
   3.13603804e-02 -6.29197984e-06 -3.80946063e-02 -4.91668247e-02
  -1.45744622e-01  3.76721635e-03  5.63804880e-02 -9.61514264e-02
  -1.28658667e-01  1.18489467e-01 -5.49518317e-02 -4.61566448e-03
  -3.71704251e-02  5.25445566e-02  1.35227144e-02 -5.20116761e-02
   6.20019659e-02 -3.82347777e-02  1.21012077e-01 -7.83746690e-02
   4.72225547e-02  7.17334971e-02 -4.47712727e-02 -6.47667050e-02
  -1.99961234e-02  5.74335158e-02 -4.08975407e-03 -2.00630333e-02
  -1.19305290e-01 -6.07093796e-02 -1.25311255e-01 -7.95171708e-02
  -5.73775172e-03  7.53675774e-02 -4.10227813e-02 -7.27330968e-02
   2.00982243e-02  1.02868684e-01 -4.33394546e-03  7.05933524e-03
   1.48433760e-01 -9.81340930e-02 -4.63988371e-02  9.79955029e-03
  -6.52252696e-04  1.12686567e-01  1.49229810e-01 -3.39773409e-02
   2.60761380e-03  2.33163610e-02 -1.45861626e-01  1.28110126e-01
  -3.71664725e-02 -1.10890552e-01  9.74538643e-03  6.67271018e-02
   8.93064123e-03  3.20467092e-02 -1.00415662e-01  1.26485258e-01
  -7.68108219e-02 -6.42653108e-02  6.30617887e-02  1.39914736e-01
   4.63609248e-02  1.80811584e-02  2.08468810e-02  1.90850925e-02
   3.55269909e-02  4.02318500e-02 -5.55764399e-02 -3.27134989e-02
   1.43188694e-02  6.29044101e-02  1.39087578e-02  2.33888999e-02
   7.03935921e-02 -9.39874873e-02  3.70789208e-02  7.78100491e-02
  -1.55467615e-01 -4.94317850e-03 -1.36464398e-04  2.68320646e-02
  -4.99924272e-02  7.69103244e-02  1.85648873e-02  6.77571371e-02
   5.46455048e-02  7.60831162e-02 -1.79443602e-02 -6.03257772e-03
   1.80048048e-02 -8.14698797e-05 -3.47717889e-02 -3.70431617e-02
   6.93476275e-02  1.25766486e-01  2.17171479e-02  1.31112412e-01
   5.28719462e-02  1.17344456e-02 -1.70533165e-01  1.62829041e-01
  -1.21769257e-01 -2.26145498e-02 -6.87362701e-02  7.41009638e-02
   5.35134040e-02 -4.99011837e-02 -1.11383302e-02  1.49223516e-02]
 [-1.63333751e-02 -3.96980494e-02 -6.30591586e-02  6.81678727e-02
  -7.21023008e-02  7.08693545e-03 -3.23337279e-02  1.01648085e-01
  -4.34359200e-02 -4.59686294e-02 -7.42161348e-02  1.84217349e-01
   2.45120712e-02  2.20362302e-02  7.09924474e-02  1.84856355e-04
  -5.79166412e-02  1.19688809e-02  1.95724778e-02 -2.63649300e-02
  -1.48253217e-02  9.47259516e-02  2.92453170e-03 -2.78785974e-02
  -6.68524429e-02  3.14424895e-02 -1.14737734e-01 -5.62345013e-02
   7.13509694e-02  3.62164602e-02 -2.32388079e-03  5.43412194e-02
  -2.23091501e-03 -5.48156425e-02  6.91629499e-02 -4.47383104e-03
   7.57340044e-02  3.60886306e-02 -1.11797839e-01  1.00603132e-02
  -1.45146474e-02  6.54622540e-02 -3.12909558e-02  7.43046328e-02
  -1.22462593e-01 -6.99201152e-02 -1.35364356e-02  4.85116467e-02
  -8.00153464e-02 -6.46474361e-02  7.51716122e-02  5.21537140e-02
   9.87062901e-02 -4.60294932e-02  6.43696263e-02  1.25680566e-02
   8.55893493e-02 -1.04892761e-01  1.45801380e-02 -3.99424285e-02
   4.23056222e-02 -5.22019416e-02  1.74743146e-01 -3.67761590e-02
  -6.71595559e-02 -2.05701701e-02 -1.02537766e-01  3.21681127e-02
  -7.81416446e-02  1.30855069e-01  7.74080381e-02  2.05835924e-02
   5.09924330e-02 -1.12729214e-01 -1.89193916e-02  4.59664203e-02
   9.44443718e-02  6.69606254e-02  1.65409297e-02 -8.35507065e-02
  -7.32640401e-02 -7.21291453e-03 -8.77411664e-03 -7.76255457e-03
  -1.35674402e-02 -9.18829739e-02  2.63313577e-02  3.95378470e-02
   4.07500416e-02 -6.06463030e-02  9.88851637e-02  3.46784443e-02
   3.03411926e-03  2.31687687e-02  6.71773925e-02  3.61848995e-02
  -2.82973759e-02  1.41044296e-02 -2.78047062e-02 -5.69187589e-02
   2.24464200e-02  6.75412640e-02 -5.59739918e-02  5.20878285e-02
  -1.15864143e-01  3.47731262e-03 -6.85354248e-02  1.37274563e-01
   3.76571789e-02 -1.14420511e-01  9.77218226e-02  1.14586040e-01
  -5.87624237e-02 -3.64133120e-02 -1.65002327e-02  1.29003271e-01
   8.46173987e-02 -1.21493833e-02 -6.54506832e-02  2.94120852e-02
   4.83742952e-02 -7.81042268e-03 -4.28991579e-02  1.39451087e-01
   1.47109702e-01  5.40404860e-03  4.12933342e-02 -8.03984776e-02]
 [-4.87720072e-02 -4.06697020e-02 -2.67508663e-02  6.80100098e-02
   5.46347499e-02  7.87966922e-02 -3.80228460e-02 -2.72310451e-02
   7.08680525e-02  1.35332365e-02  7.01611638e-02  3.77232358e-02
  -9.54986922e-03 -4.60028313e-02 -3.22170854e-02  7.90072232e-03
   1.37786344e-02  3.37555408e-02 -1.90211777e-02 -4.12782580e-02
   3.98285575e-02  2.65074335e-02  4.75042388e-02 -6.87307119e-02
   7.16860071e-02 -5.06519191e-02 -8.32383111e-02 -2.35926285e-02
   9.00598429e-03 -2.85276845e-02 -5.97874895e-02 -3.68146114e-02
   3.17001492e-02 -6.51779696e-02  2.83198003e-02  6.78215027e-02
  -4.83266078e-02  4.74928990e-02 -1.13043317e-03 -3.53929363e-02
  -7.75827095e-02  3.15125883e-02 -3.89712751e-02  2.90804356e-02
  -6.75816685e-02 -7.14440942e-02 -1.42402051e-03  4.47575673e-02
  -7.15482682e-02  2.07811594e-03 -7.52649754e-02  8.09262767e-02
   3.64398509e-02  2.37719715e-02 -7.63321668e-03  4.54813465e-02
  -4.47551757e-02 -3.07148863e-02 -4.51940931e-02 -6.02810010e-02
  -9.03389510e-03 -3.94052342e-02  2.25318763e-02 -8.16755071e-02
   5.86306676e-02 -7.80122504e-02  5.22859022e-02  9.16708559e-02
   3.03832740e-02  2.19335090e-02  6.86969832e-02 -6.12823367e-02
  -2.03500837e-02 -4.28892672e-02  6.42721504e-02  4.61247303e-02
   8.25655162e-02  4.64434251e-02  3.72984894e-02 -5.34499122e-04
  -1.39159337e-02 -7.56474659e-02  1.04672238e-02 -6.47467598e-02
  -7.31866434e-02  1.35425068e-02 -3.11618336e-02 -2.06721798e-02
  -4.86207083e-02 -6.15563802e-02 -3.82154882e-02  5.06957993e-02
  -4.38699313e-02 -4.97320406e-02 -3.90816256e-02  3.54873240e-02
  -8.74527022e-02  4.15299460e-02 -4.36170734e-02  8.23042020e-02
  -2.18593832e-02  8.76313541e-03  6.33209199e-03 -7.76900500e-02
  -1.89100318e-02 -2.97511611e-02 -6.33867159e-02  9.74681899e-02
   5.09709045e-02 -4.80461717e-02 -2.49317270e-02  6.11748472e-02
  -5.30286133e-02  4.07327898e-02 -9.12733823e-02  1.96191911e-02
   1.01199299e-02  4.77219447e-02 -3.01942416e-02  5.92080131e-02
   3.02262045e-02 -6.83934987e-02 -1.29836723e-02 -5.10254651e-02
  -5.21441735e-02  4.45667803e-02  8.55699703e-02 -1.08573325e-02]
 [-8.57850909e-03  6.68242946e-02 -5.63747026e-02 -2.26601958e-02
   1.88660771e-02  1.05748028e-02 -5.25376573e-02 -3.13255899e-02
  -7.18208775e-02 -1.48821771e-02 -2.25258917e-02 -6.15003966e-02
  -3.14218178e-02  6.92549422e-02 -2.35562921e-02 -5.21729514e-02
   7.39422366e-02 -4.06712107e-02 -3.38884182e-02 -5.95661774e-02
   2.65662000e-02  3.71057093e-02  2.45897695e-02 -1.82779059e-02
   4.65756729e-02  1.33861229e-02  5.62930182e-02  6.40766248e-02
  -5.34173734e-02  7.84778520e-02  6.29472509e-02  3.93684879e-02
   6.28432631e-03  6.29431233e-02  6.70949444e-02  5.96956834e-02
   7.58880302e-02  1.45229250e-02 -5.83933890e-02 -1.90975964e-02
  -6.61034882e-02  3.73446941e-02  8.07995573e-02 -5.86101897e-02
   7.52648190e-02 -4.43699881e-02  7.09660426e-02 -5.56475632e-02
   4.70374748e-02  3.06942314e-02 -3.25929634e-02 -6.06404990e-02
   4.75335941e-02  1.16684437e-02  1.42134354e-02  5.86669520e-02
  -1.89794973e-02  6.23755157e-04 -3.39801572e-02 -1.30688399e-02
   1.49717927e-02 -5.36558144e-02 -5.72879165e-02 -5.86930364e-02
  -6.51525483e-02  7.82660767e-02 -7.09691420e-02 -1.25927478e-03
  -3.02593149e-02 -1.01480260e-02  7.23747164e-03 -6.00872859e-02
   6.83331266e-02  1.22718886e-02  6.60920367e-02 -5.48782870e-02
  -2.74636149e-02  6.05503693e-02  6.80956319e-02 -1.43431574e-02
  -3.29721682e-02  3.87320220e-02  5.40848151e-02 -1.27904117e-04
   4.92295846e-02 -6.77539930e-02 -5.20382449e-02  4.93115410e-02
  -6.64875880e-02 -5.16609102e-03  2.80034244e-02  1.03829280e-02
  -4.06980328e-02  1.21791661e-02 -7.50774890e-02 -4.32834849e-02
  -3.40966731e-02  7.91774914e-02  6.17047623e-02 -1.25108734e-02
   3.42082977e-03  5.40724769e-02  1.38804689e-02 -2.98647732e-02
  -1.05625242e-02 -5.55386096e-02  5.13852313e-02  4.12585512e-02
  -7.25407898e-02 -4.49442193e-02 -2.92179473e-02  6.68143257e-02
   4.77948040e-03  3.27494517e-02  6.10234514e-02  1.60970241e-02
   2.26241127e-02  4.67717722e-02  4.74139675e-02 -3.94514948e-03
  -7.96333179e-02 -5.95177747e-02 -4.01804410e-02 -3.47720087e-03
  -6.23411313e-02 -2.82989517e-02  2.65701115e-02 -3.77705246e-02]
 [-7.01429546e-02 -1.38742402e-02 -6.32206947e-02 -7.45272636e-03
   1.69372559e-03 -5.11506349e-02  4.15962934e-03 -1.36839002e-02
  -4.28986140e-02  5.22499904e-02 -1.05346516e-02 -6.83219060e-02
  -8.01055580e-02  1.01117641e-02  1.68949068e-02  6.12904951e-02
  -5.57736084e-02  2.39102617e-02  6.86030015e-02 -1.47261471e-03
  -1.55445188e-03 -4.90412340e-02  7.40745589e-02 -6.18202537e-02
   6.60040975e-03  4.84557822e-02 -2.87684873e-02 -5.38808331e-02
  -6.58687055e-02 -1.68959126e-02  4.01998758e-02 -6.17772229e-02
   5.94952479e-02  2.64894515e-02 -1.27301738e-02  5.21303341e-02
  -7.33309686e-02 -4.89577092e-02  6.42364398e-02  6.73227683e-02
  -5.03573790e-02  4.67898473e-02  5.46993315e-03 -5.38329147e-02
  -7.37128779e-02 -7.04621300e-02 -6.58106878e-02 -5.68858720e-02
   6.81518838e-02 -5.27596176e-02 -1.94315687e-02  3.47931385e-02
  -3.77396382e-02 -8.10849518e-02  6.07322827e-02 -6.56133071e-02
   7.40166083e-02  1.94397867e-02 -3.88349816e-02  4.25276160e-03
   8.29906762e-03  7.59857818e-02  5.20995483e-02 -6.83926269e-02
  -5.87935559e-02 -3.33834961e-02  2.17902437e-02 -3.30017768e-02
   5.16175404e-02  3.90126407e-02  6.19415268e-02 -4.27924655e-02
  -5.38609177e-02 -6.35053515e-02 -2.60713920e-02  7.59375766e-02
   7.27088675e-02 -2.72481479e-02 -4.19060364e-02 -4.69207093e-02
  -7.17864558e-02  5.72040603e-02 -4.57023010e-02 -6.35854900e-03
  -6.88804910e-02 -5.28504141e-02  3.62900421e-02 -8.46038759e-03
  -6.20022267e-02  7.46543780e-02 -1.77879259e-02  3.43463570e-03
   2.63787583e-02  2.49199495e-02  8.67338479e-03  6.84666708e-02
   1.12631470e-02 -2.92231292e-02 -5.65419979e-02 -5.39401248e-02
  -2.00829580e-02 -5.02964407e-02  6.72416016e-02  8.88653100e-04
  -6.72311634e-02  5.57387397e-02  4.01850417e-02  1.67143419e-02
   9.71850008e-03  2.67319530e-02  2.39889696e-02  3.51038128e-02
   1.97628736e-02 -3.70242968e-02  1.49986148e-02 -6.92148134e-02
  -3.16095538e-02 -3.26085314e-02 -6.11705408e-02  3.09738815e-02
  -1.94026381e-02  3.21209431e-04  3.72397080e-02 -4.06602435e-02
  -3.14666815e-02 -1.85563937e-02  4.94224057e-02  4.47641835e-02]
 [ 6.13458678e-02 -4.28495742e-02 -6.42101541e-02  6.15640730e-03
   7.31606558e-02 -4.42973748e-02 -3.87853198e-02  2.63910368e-02
   3.20587456e-02 -7.85790384e-04 -2.06863545e-02  3.41388583e-03
   1.46132186e-02  4.74424139e-02  3.88803855e-02 -1.19310766e-02
  -1.32276490e-02  6.02819100e-02  1.45495683e-03 -7.53494799e-02
   1.40113533e-02 -1.95078403e-02  3.37115303e-02  2.13804469e-02
   4.01747376e-02 -1.33227333e-02  4.96105775e-02 -2.02143192e-03
  -6.48525953e-02 -2.87167579e-02  1.90698281e-02  8.03426132e-02
   6.92326576e-03  4.57488000e-03 -2.76589505e-02  2.18494534e-02
  -1.27995759e-02 -4.83872481e-02  3.72798517e-02  4.59657833e-02
  -4.39565554e-02  1.81136653e-02  7.89320692e-02 -7.75951967e-02
   4.75053415e-02 -3.14314291e-02 -1.41830221e-02  7.32948631e-03
   7.69197270e-02 -2.24082917e-03 -5.65429032e-03 -3.29013318e-02
   7.69984797e-02 -5.65135330e-02 -4.12549935e-02  1.61186457e-02
  -2.75073200e-02  2.14307234e-02  1.33063942e-02 -1.27430335e-02
  -1.83613673e-02  5.09782657e-02  7.27416947e-02 -1.54630393e-02
   4.31862697e-02 -6.01241291e-02  4.93504331e-02 -3.50284576e-03
   2.68121809e-03 -2.42654979e-03 -1.26294196e-02  5.18276170e-02
   7.24099055e-02  1.45447627e-02 -4.88582738e-02  3.05323899e-02
   5.43174222e-02  1.04741231e-02  3.14343646e-02  4.18898910e-02
  -4.86113988e-02 -3.52295488e-02 -2.28015967e-02 -7.91907087e-02
  -5.38091287e-02 -3.26375775e-02  6.82356432e-02 -2.07742080e-02
   6.82640597e-02 -3.90735753e-02  3.34833190e-02 -4.16106246e-02
   4.47872058e-02  3.43631953e-03 -1.20469704e-02 -3.97260487e-02
   1.57848895e-02  7.94445649e-02 -7.81760067e-02  3.13409045e-02
  -3.85852456e-02 -7.17782751e-02  4.99303639e-03  2.49508321e-02
   3.17938477e-02 -4.81719375e-02 -1.03329197e-02  7.05696866e-02
  -3.72496657e-02 -1.80031434e-02  4.53122631e-02 -3.29521149e-02
  -1.92548931e-02  6.81458414e-03 -1.78293139e-02 -1.34287030e-03
  -8.84667039e-04 -7.63613582e-02  1.36318803e-02  2.10540146e-02
  -5.08715659e-02 -5.61306924e-02  1.81511045e-02 -1.63154751e-02
  -6.86518699e-02  1.26339048e-02  3.94643247e-02  5.49568161e-02]
 [ 5.78415468e-02  4.16807830e-03 -1.41585171e-02 -3.05777192e-02
  -7.16600791e-02  6.05334416e-02 -3.61790508e-03 -3.97997089e-02
   8.72712582e-03 -5.00642098e-02 -2.50343569e-02 -1.58296973e-02
   5.33538088e-02 -7.64320567e-02  3.53919491e-02 -5.38748801e-02
   4.10429090e-02  5.80396280e-02 -3.50723863e-02 -4.48478758e-02
  -5.37252948e-02 -6.21433184e-02  6.66000023e-02 -1.60186514e-02
   6.02505878e-02  9.89796221e-03 -4.30284515e-02 -4.09389287e-02
  -2.31290311e-02 -3.19854133e-02 -1.52199417e-02 -6.35949448e-02
   1.34003013e-02  2.32328176e-02  6.58523813e-02 -2.45463364e-02
  -1.31544545e-02 -7.29873851e-02  2.40874961e-02 -4.40364033e-02
   4.54942361e-02 -5.49559481e-02  5.81454560e-02 -2.44386792e-02
   3.89070138e-02  5.32035902e-02  5.72949722e-02  7.54547790e-02
   4.26900089e-02 -6.17426485e-02  1.42888203e-02  5.43419793e-02
   6.64774552e-02 -7.82381371e-02  7.79832155e-03  4.30188999e-02
   3.67600545e-02  5.26950136e-02 -7.22188503e-03 -6.00620359e-03
   2.55016237e-03 -6.16852716e-02 -6.98952898e-02  3.64352539e-02
  -3.68875377e-02  7.51758292e-02 -1.72711909e-04 -3.93464416e-03
   4.19407338e-03  2.07637101e-02  5.71704581e-02 -8.10850486e-02
   1.93163157e-02  6.23907819e-02  4.90763262e-02  5.82642928e-02
   3.32937464e-02 -3.37727554e-02  3.17710117e-02 -6.24033064e-03
  -1.35537311e-02 -7.61298165e-02  6.42493367e-04  2.91601643e-02
  -4.76367511e-02 -3.89831886e-02 -5.81576936e-02  5.33506274e-04
   1.57604814e-02  3.52969617e-02 -6.74823895e-02 -7.71344826e-02
   4.36580479e-02  1.49768963e-02 -4.41755801e-02 -2.45369375e-02
   2.55419314e-02  1.95447728e-02 -6.26657978e-02 -2.97834724e-03
  -3.83254923e-02 -4.40584496e-02 -9.33951139e-03 -3.72198075e-02
  -6.12617992e-02 -6.71833232e-02 -5.39935380e-02 -6.98406547e-02
  -2.50653177e-03  2.25428715e-02  8.41107965e-03 -4.65843193e-02
  -4.87212017e-02  7.73410127e-02  2.02960074e-02  2.38357708e-02
   7.41907880e-02  7.96971992e-02  1.85195953e-02 -9.21359658e-03
   1.89905614e-03  3.35981101e-02 -6.22900352e-02 -2.30138339e-02
   3.04598510e-02  2.58837938e-02 -2.99940333e-02 -2.29112841e-02]
 [-7.99376294e-02  7.69890174e-02 -7.46766850e-02  6.05653301e-02
   2.81105042e-02  4.50781360e-02 -3.98478620e-02  5.09925112e-02
   3.07775065e-02  2.29077414e-02 -5.89784496e-02 -2.24236101e-02
  -9.65570658e-03 -4.19704728e-02  1.05636641e-02  6.51352033e-02
  -3.57373916e-02  5.91735318e-02  6.58947900e-02 -5.54970130e-02
  -3.56849842e-02 -5.77363521e-02  1.04359686e-02 -7.60664120e-02
  -2.92997099e-02 -5.18967658e-02 -7.21678138e-03  6.00675270e-02
   5.75019941e-02 -2.62878463e-02 -2.34313682e-02  7.90771171e-02
  -3.89617831e-02 -4.30165231e-03 -7.72488117e-02 -5.85363582e-02
  -5.61804473e-02  6.81809112e-02  1.56273991e-02 -4.52378541e-02
   4.86141443e-03  1.37139857e-03 -5.28593659e-02 -3.81588154e-02
  -3.46297026e-03 -2.85383798e-02 -5.87439537e-03  3.28598320e-02
  -5.07665202e-02  3.17567736e-02 -6.58125654e-02  2.80427039e-02
  -5.29924706e-02  5.91034442e-03 -8.03414136e-02 -1.35087669e-02
   2.97235474e-02  4.61839065e-02  6.66756108e-02  2.08476186e-02
   7.68689811e-03  7.03228638e-02 -6.64914399e-02  5.68123981e-02
   3.70630696e-02  4.91657332e-02 -6.37617782e-02 -6.39776513e-02
  -4.34764996e-02 -2.52878629e-02 -4.40908968e-02  5.96994534e-02
  -1.12764537e-04 -3.14119458e-03  4.41936404e-03 -2.59378217e-02
  -7.24288821e-03  1.66214630e-02 -4.88969311e-02 -5.63017577e-02
   1.05340555e-02 -1.49251074e-02 -3.22185345e-02 -1.00219995e-02
  -1.75923258e-02 -2.08366513e-02  3.12227905e-02  5.13137355e-02
   7.67133906e-02  2.82589048e-02 -3.51333581e-02 -7.46514648e-03
  -5.48902564e-02 -6.36217296e-02  3.36566493e-02 -4.04446796e-02
  -3.87200527e-02  6.50151446e-02  7.70956650e-02 -2.55590640e-02
  -1.67781636e-02  4.66443822e-02 -5.93886897e-02  1.29582286e-02
  -7.94542059e-02 -7.24678636e-02 -5.09996600e-02  5.02161682e-03
   2.90329605e-02  6.01076856e-02  7.95755535e-03 -2.41968334e-02
   2.10332423e-02 -3.30978669e-02  5.56465611e-02  3.40638384e-02
   5.34573123e-02 -7.49838874e-02 -3.49450037e-02  5.14181182e-02
   2.96352506e-02 -7.64183849e-02  6.80929348e-02  8.05986151e-02
  -4.62773442e-02  1.72377899e-02  3.00516784e-02 -5.76594993e-02]
 [ 1.16062462e-02  2.98293829e-02  4.18319330e-02 -3.78945470e-03
   4.84611616e-02  4.27002609e-02 -6.32223785e-02 -2.51010954e-02
  -6.46146387e-03  2.90038139e-02  1.44543350e-02  1.54234171e-02
  -3.02973129e-02 -3.04726921e-02 -3.64185832e-02 -4.89343479e-02
   7.96666816e-02 -5.50998747e-03 -7.28950277e-02  5.53532168e-02
   8.04984793e-02  8.01870227e-03  3.46730873e-02 -2.87364833e-02
  -6.07133657e-03 -2.66699903e-02  5.04332408e-02 -7.91527033e-02
   1.28981397e-02 -7.58538842e-02  6.23269379e-03  5.25675490e-02
   8.02148655e-02 -4.54949960e-02  1.45251676e-02 -3.48233655e-02
  -5.53922951e-02 -4.71837297e-02 -2.68397816e-02  2.81788260e-02
   2.64582783e-03 -1.19228512e-02 -4.16152850e-02  6.54025376e-03
   3.13635096e-02 -1.60862729e-02  4.86383960e-02  1.92045346e-02
  -7.99699053e-02 -1.13813803e-02 -1.91334486e-02 -5.13799265e-02
   1.34943798e-02  1.04920939e-02  3.12248021e-02  2.81833708e-02
   7.70111457e-02  7.82781318e-02  4.67085168e-02  7.74755850e-02
   3.50480974e-02  4.49610874e-02 -1.22340098e-02 -4.29332703e-02
  -1.24511421e-02 -7.73225278e-02  5.12650535e-02  5.74508086e-02
  -5.35383075e-03 -1.58230439e-02 -4.89380956e-03 -1.40649229e-02
   3.77669036e-02  6.11597076e-02 -2.26601958e-03  5.47167137e-02
  -2.39855051e-03 -1.07079819e-02 -7.90314749e-02  7.45561644e-02
  -4.55742218e-02  1.49742290e-02 -1.63846090e-02  3.25606316e-02
   6.86030611e-02 -4.02369313e-02 -3.60964835e-02  7.68083557e-02
   7.01578036e-02 -3.60178724e-02 -5.57417795e-02  7.55705908e-02
  -7.13701993e-02 -1.03454515e-02 -5.27609363e-02 -7.17416704e-02
   2.55428031e-02 -7.04547614e-02 -4.54869680e-02 -5.00144139e-02
   7.36166462e-02 -2.46242881e-02  3.90701741e-02 -7.71511123e-02
   4.46046367e-02 -5.02739549e-02  2.82578021e-02  5.24438992e-02
   2.84419954e-02  3.43484730e-02  1.28698349e-02  1.74400508e-02
   3.21373343e-02 -4.61277813e-02 -3.53534482e-02 -1.85222030e-02
  -7.29936287e-02 -6.61178380e-02 -7.72376508e-02  6.19478449e-02
  -2.22995356e-02 -1.42250806e-02 -1.57427043e-03 -1.69138163e-02
   2.45233029e-02 -3.06195877e-02 -3.70931625e-03  2.23724395e-02]
 [ 7.17296451e-03  6.41818270e-02  5.39758578e-02  8.07344392e-02
  -8.85353982e-03  1.78965330e-02 -1.98679566e-02  2.79013216e-02
  -6.65490851e-02  4.86110672e-02 -7.49389902e-02 -2.40560733e-02
   1.36756748e-02  3.02312151e-02 -1.52986273e-02  7.95400664e-02
   4.28284332e-02  5.78212067e-02 -2.13048309e-02  2.85442919e-03
  -4.86759320e-02 -1.49744004e-03  7.59372041e-02  6.69414029e-02
  -1.40206143e-02 -1.72994211e-02 -5.69069125e-02 -4.01876755e-02
  -2.04939172e-02  7.61954859e-02  2.91488096e-02  2.53631175e-03
   5.06083295e-02  6.61480501e-02  1.72930807e-02 -2.43740305e-02
   2.44888663e-03 -3.41471247e-02 -4.35570441e-02  3.69963944e-02
  -2.33111978e-02 -7.62484223e-02  3.49236950e-02 -7.94542879e-02
  -6.76175654e-02  1.50137320e-02  5.11809811e-02 -3.39522734e-02
  -2.43064836e-02  7.38272816e-03  1.10210106e-02 -1.27386972e-02
   7.93371126e-02 -1.49555281e-02  9.13852453e-03 -3.83368246e-02
   3.45767066e-02 -2.41087116e-02 -6.81354851e-02  9.02841240e-03
   8.02222118e-02  2.24779099e-02 -1.98461041e-02 -3.12634744e-02
   6.55993819e-04 -7.11096749e-02  2.63984650e-02 -2.49794349e-02
   3.70345861e-02  6.19631484e-02 -2.99998336e-02 -6.27493188e-02
  -2.84451507e-02 -3.71605158e-02 -5.40929288e-03 -1.44642964e-02
   9.62708890e-03 -4.67366278e-02  7.72972926e-02 -4.15652581e-02
   2.44968906e-02  3.33802477e-02 -7.65074790e-02  5.29646650e-02
  -6.48686290e-02  5.29159382e-02  2.22679377e-02  2.16577947e-02
   6.49029538e-02 -1.22372732e-02 -1.85251236e-02  8.05841461e-02
   5.59710786e-02  2.69904733e-03  1.53153166e-02  6.82832524e-02
   4.58244756e-02  6.11387566e-02 -8.01246315e-02 -5.19561321e-02
   7.13217929e-02  7.61244223e-02  6.11050501e-02  4.73893806e-02
   8.10892954e-02 -7.48752058e-02  3.87192592e-02  5.21092489e-02
  -2.18110532e-03  1.44618005e-02 -5.85417338e-02  5.20834401e-02
  -4.47202064e-02  6.56297058e-03 -6.53963685e-02 -3.88216563e-02
   4.31124195e-02  6.43114522e-02  3.39893848e-02 -4.45403010e-02
   2.26460397e-02 -1.56378970e-02 -3.86178121e-02  4.20279652e-02
  -7.87278637e-02  4.17675748e-02  6.13999143e-02  7.32833222e-02]
 [ 6.08019009e-02 -1.03176013e-02  2.00840458e-02 -2.98467688e-02
  -3.20182890e-02  6.22605011e-02 -8.19344074e-03  4.67657670e-02
   7.20800534e-02 -1.19062588e-02  5.32879159e-02 -5.44264466e-02
   3.45226377e-02  6.90418258e-02 -3.68033387e-02 -2.05962360e-02
   5.08142039e-02  3.12436745e-02 -6.22693636e-02 -1.65944695e-02
  -1.64024979e-02 -3.86629663e-02 -5.75846806e-02  6.05464056e-02
  -5.56274727e-02 -7.61478245e-02  6.24055639e-02 -1.35162175e-02
  -9.62797552e-03  6.63177446e-02  3.37421820e-02  3.27915475e-02
  -7.35273659e-02 -6.63288236e-02 -1.20571628e-02  4.48363647e-02
  -2.95309946e-02  1.60939097e-02  7.31582418e-02  6.50932267e-02
  -7.41224438e-02  3.57363671e-02 -2.26704255e-02 -1.01858675e-02
  -1.98859610e-02 -4.49408740e-02  7.35081509e-02  1.50190517e-02
  -4.87329587e-02 -1.76000744e-02  4.81817648e-02  3.51769254e-02
  -4.58048508e-02  8.89745355e-03  6.86066672e-02  5.98131865e-03
  -1.83055550e-02 -7.46363848e-02  3.44188064e-02  2.80531272e-02
  -3.50554436e-02 -6.93384558e-03  2.52059102e-03 -3.93803008e-02
  -4.78463583e-02 -6.37359172e-03 -7.82711282e-02 -7.65513554e-02
  -3.17960903e-02 -3.43782455e-03 -3.37324925e-02 -3.21537331e-02
  -2.13497728e-02 -2.02536993e-02  4.93254736e-02  5.15118763e-02
  -8.02636892e-02 -5.27701974e-02 -4.31027114e-02  5.23462817e-02
  -6.16470762e-02  7.18700960e-02  6.23539761e-02  2.02365965e-03
  -4.04572114e-02  2.01385468e-03 -9.42362845e-03 -6.62394166e-02
   7.89699331e-02  5.51551059e-02 -4.70328741e-02 -5.11503667e-02
   6.08346686e-02  6.50706366e-02 -7.02001899e-03  3.06439549e-02
   5.60078993e-02 -4.65096161e-02  3.22942063e-02 -7.60671049e-02
   3.81620452e-02 -7.33132958e-02  6.17270991e-02 -2.88208947e-02
   2.69802362e-02  2.29467899e-02 -2.65580602e-02  3.49158794e-02
   7.48158470e-02  3.87498736e-02 -2.12531202e-02  1.86847597e-02
  -5.42208403e-02  7.71780312e-03 -5.84693477e-02  7.75344893e-02
  -6.89412504e-02  2.42759064e-02 -4.20413911e-04 -7.12635070e-02
  -8.00540224e-02 -5.97006381e-02  7.69257769e-02 -4.37614135e-02
   1.06731951e-02  7.08174929e-02 -2.49364488e-02  4.34483588e-03]
 [ 7.06588849e-02  4.21952233e-02 -4.48737331e-02 -7.81466812e-03
  -6.29041642e-02  1.79138035e-02  1.20526701e-02 -4.11538742e-02
   1.57014057e-02  5.88962659e-02  6.92818537e-02  8.40013474e-03
  -7.89391175e-02  4.97946069e-02 -6.83427677e-02  3.25373113e-02
  -6.27374500e-02  6.60337582e-02  6.27563819e-02  6.34453967e-02
   2.96191573e-02 -7.36237317e-02  1.33743659e-02  1.68955475e-02
   7.24955872e-02 -1.53198093e-03  9.70742106e-03  7.91833624e-02
  -7.05017969e-02 -1.73593536e-02 -4.03104722e-02 -5.35520837e-02
  -3.50886881e-02  8.08400437e-02 -1.07067302e-02  4.34898436e-02
   5.74087277e-02 -6.42745122e-02  9.75772738e-04 -5.32207638e-03
   6.39655814e-02 -1.42811984e-02  1.31481662e-02  1.60432830e-02
   1.35663003e-02  3.37366089e-02 -4.72185798e-02  7.28610829e-02
  -4.83106710e-02 -5.25840856e-02 -5.42896837e-02  3.33390161e-02
  -1.55599043e-02  5.42973503e-02 -5.29165566e-03 -8.02880377e-02
   2.02260837e-02 -7.81203657e-02 -9.50566679e-03  2.65125558e-02
   2.12549940e-02 -4.80418466e-02  3.79130691e-02 -1.01705566e-02
  -5.92999868e-02  2.59731188e-02  5.45668229e-02  1.63752437e-02
   8.10171291e-02 -2.22864039e-02 -5.61637990e-02  6.54248372e-02
   4.30413336e-02 -7.38472790e-02  2.21231505e-02  5.10834083e-02
  -4.89619635e-02  2.04226375e-02  1.76564455e-02 -4.44646701e-02
   9.96170193e-03  6.33874312e-02 -8.75566900e-03 -5.05184829e-02
  -4.18818258e-02 -6.50366396e-02  5.81656471e-02 -7.09369630e-02
   6.91943839e-02  1.98081136e-04  6.39727786e-02  4.65582982e-02
   4.99166027e-02 -2.44483091e-02 -4.42892723e-02  9.24892724e-03
  -5.68621829e-02  1.56107470e-02 -1.15989596e-02  1.56606361e-02
   1.49362460e-02  4.05665115e-02 -4.53027524e-02 -5.89850247e-02
  -1.55332014e-02 -3.83756198e-02  4.68414500e-02 -1.19034201e-02
   3.53594646e-02  6.91710934e-02 -3.00492607e-02  8.09219703e-02
   5.22578284e-02  9.89803672e-03 -1.58761665e-02 -5.04250042e-02
   7.99765214e-02  3.14210430e-02  1.38631463e-02  1.78100169e-03
  -1.17882341e-03  5.31104729e-02  4.34676409e-02  5.65968230e-02
  -4.52230573e-02  4.97170910e-02 -7.96678215e-02  4.98151109e-02]
 [ 6.71371818e-03  7.99257383e-02  3.67368162e-02 -6.51050210e-02
  -8.05395693e-02 -1.38674676e-03 -1.60459131e-02  4.31194231e-02
  -4.08454090e-02  7.64461979e-02 -1.69296339e-02 -6.93657473e-02
   3.37531492e-02 -8.07558522e-02 -6.14564009e-02 -1.16931722e-02
   4.64860871e-02 -4.75121923e-02  2.36124694e-02  5.78582808e-02
  -4.03105505e-02 -4.30566072e-02  6.26971796e-02 -6.17216080e-02
  -2.02321336e-02 -1.44189075e-02  3.85691598e-02  2.12441459e-02
   4.25112247e-03 -2.59776227e-02  8.01386312e-02  2.89125741e-02
   5.04870042e-02 -2.26657242e-02 -1.14521384e-02  3.58580649e-02
  -5.85659817e-02 -3.82753313e-02 -7.06892461e-03  7.05123022e-02
   7.22652152e-02 -1.49858892e-02 -3.30493599e-03 -7.85384849e-02
   5.66288903e-02  2.41514295e-02 -3.62933874e-02  5.28716072e-02
  -3.02965976e-02  3.77537385e-02 -1.88151747e-03 -2.05591321e-03
  -5.97426035e-02  2.67169997e-02  4.50066701e-02  5.24379089e-02
  -2.98847705e-02  7.61822090e-02 -6.43000752e-02  4.68741879e-02
   7.89381787e-02  1.01452619e-02 -2.22714953e-02  5.18186614e-02
  -6.58421367e-02  1.97178870e-03  5.70680425e-02  6.80771396e-02
   3.76455486e-04 -1.14884973e-02  4.83707115e-02 -5.38310558e-02
   7.56295547e-02  1.97287202e-02  3.47337350e-02  4.07101363e-02
   1.18449777e-02  3.32992598e-02  7.20781311e-02  5.22717014e-02
   4.60437164e-02 -1.87436864e-02  5.45780584e-02  7.82608762e-02
  -4.87651378e-02  6.23714849e-02 -2.76867002e-02  6.96685240e-02
   8.64708424e-03  2.26490200e-02 -6.40913025e-02  6.18574545e-02
  -6.24332577e-02 -1.50384456e-02 -2.45564096e-02  3.45677733e-02
   1.45791471e-02 -6.39211088e-02 -2.81758271e-02  3.19555923e-02
  -6.32472336e-03  1.24535933e-02  6.93920627e-02 -5.31039387e-03
   1.11388788e-02  6.34165183e-02  4.95871082e-02  4.92847189e-02
  -1.27066374e-02 -7.32313544e-02 -9.51351225e-03  2.31810883e-02
  -2.90364027e-04 -1.95991918e-02 -1.54739246e-02 -2.02253461e-03
  -5.09240665e-02 -3.64619195e-02  2.61757225e-02  4.04395387e-02
  -5.42807728e-02 -2.94891074e-02  6.32065013e-02  4.06335965e-02
   7.51224235e-02  8.08284506e-02  3.28846425e-02  3.97681296e-02]
 [ 6.67722300e-02  5.72523251e-02 -1.38704553e-02  1.49359554e-03
   6.34033456e-02  1.07989684e-02  9.49572772e-03  1.38215870e-02
  -6.49569407e-02  3.52400094e-02  7.81256929e-02  4.74311635e-02
   7.44152740e-02  5.40588126e-02  7.54022524e-02 -7.16624036e-02
   8.07316527e-02 -7.50789344e-02  5.14770299e-03 -2.28575803e-02
  -8.05793852e-02 -4.46180217e-02 -4.98250537e-02 -7.80786723e-02
  -2.56907977e-02  3.48470956e-02  6.86594322e-02  5.27128950e-02
   2.78373063e-03  1.61491409e-02 -4.17541564e-02  5.93529865e-02
  -2.63886563e-02 -2.62912512e-02  2.47933641e-02  1.11059695e-02
   3.68326753e-02  1.48436129e-02  8.06037411e-02 -6.29057661e-02
  -5.41098192e-02 -6.55917451e-02 -4.68375944e-02 -7.08644092e-02
  -6.83331564e-02 -6.90351948e-02  1.64753795e-02  2.01354027e-02
  -5.14431298e-03 -4.93959747e-02 -3.66178043e-02 -6.23499453e-02
  -7.98395798e-02  2.14663148e-03 -4.88621034e-02  3.76918912e-03
   3.07145789e-02  8.19690526e-03 -7.64218494e-02  5.41453585e-02
  -1.25920549e-02 -6.41799271e-02  2.56976038e-02  6.59319833e-02
  -2.33766586e-02  6.09353930e-03  5.07000163e-02  2.97138393e-02
   7.84236714e-02 -6.44549429e-02 -3.33446041e-02 -4.58034202e-02
   6.74519688e-03  4.68678251e-02 -6.20018579e-02 -3.09340470e-02
  -2.31207348e-02 -2.53497809e-03  1.04699135e-02 -6.19892292e-02
   2.49607116e-03 -7.63577223e-02 -3.37176025e-02 -3.47629189e-03
  -6.66390061e-02 -6.26436397e-02 -2.76221707e-02 -1.64779946e-02
  -1.00980178e-02  7.84526244e-02 -7.58432075e-02 -5.14040813e-02
   2.09825560e-02  5.00109121e-02 -9.79479402e-03  4.58826497e-02
   3.73301730e-02 -2.98949406e-02 -4.17137370e-02 -3.37460116e-02
   3.86685133e-04 -2.30319723e-02  7.73818418e-02  6.86157271e-02
  -5.18446080e-02  9.28275287e-03 -5.75074404e-02  4.66419533e-02
  -6.67458549e-02 -5.29550165e-02 -4.90484647e-02  3.67064551e-02
  -2.94617638e-02  4.01520506e-02 -4.35086787e-02 -6.86677098e-02
   3.21375653e-02  6.57348111e-02  5.60211614e-02  2.39317119e-03
   3.08646634e-02 -5.94097152e-02 -7.68206641e-02 -2.47585177e-02
   3.77862453e-02 -5.94518520e-02  6.83726296e-02 -3.47084403e-02]
 [ 6.59971312e-02  2.25387290e-02 -6.42365888e-02 -4.09282148e-02
  -7.01192245e-02 -5.32590300e-02 -5.06795347e-02  2.35954300e-02
  -4.36544418e-04 -7.94360489e-02  5.52987531e-02 -1.07916594e-02
   7.13391677e-02  1.91430002e-02  4.63220105e-02  7.41709992e-02
   2.55949944e-02  7.54174218e-02 -5.77429458e-02 -5.09513728e-02
   6.33344427e-02  2.19866633e-05 -6.32792264e-02  1.75596401e-02
  -7.37339780e-02 -2.52235048e-02 -6.37807101e-02  5.42505607e-02
  -3.23766246e-02  7.20129237e-02 -4.03779745e-03 -9.22866166e-03
   6.61644340e-03 -3.02159041e-03 -6.80817440e-02  1.29724964e-02
   4.56774458e-02 -8.98911804e-03 -5.77662885e-02 -9.61707532e-03
  -3.00285704e-02 -6.60060346e-03  2.16892585e-02 -7.56156519e-02
   3.38418931e-02  7.06366077e-02 -1.81980357e-02 -9.79870558e-04
   7.52473995e-02  4.52098921e-02  2.69952193e-02  2.07262710e-02
   5.07856235e-02 -4.50260974e-02 -1.06019154e-02 -7.84823596e-02
  -4.41386066e-02 -1.37007982e-03 -5.03274612e-02  5.51355258e-02
   7.19358027e-03 -1.87109411e-03 -7.18454793e-02  5.06676957e-02
   2.98524573e-02 -3.19638513e-02 -2.08231509e-02 -7.17857629e-02
  -6.04173541e-02  5.77392057e-02 -3.00561264e-02 -7.52373561e-02
   4.49034497e-02  6.72995523e-02  7.88526163e-02 -3.33785452e-02
   4.62562665e-02  5.44186458e-02  5.76512441e-02 -3.12223807e-02
   6.02557585e-02 -1.26922652e-02  2.57304236e-02 -1.76158398e-02
   1.87176764e-02 -5.46026975e-02  3.89664993e-02  1.81379318e-02
   3.98098826e-02  4.28297520e-02 -3.33626270e-02  2.91857868e-02
   5.50627187e-02  5.14649972e-02 -1.11668855e-02  3.72591987e-02
  -5.05471639e-02  7.51879290e-02  3.99327949e-02 -5.67752756e-02
   6.13826439e-02 -3.81022692e-04 -2.13038251e-02  1.82531103e-02
   3.25370580e-02  8.04325864e-02 -4.78038900e-02  2.67925188e-02
  -1.94353983e-02  7.11581334e-02  2.88383961e-02 -1.28279030e-02
   6.26729429e-03 -7.29443207e-02 -6.77629113e-02  3.53194773e-04
   1.46389157e-02  5.72640970e-02 -1.84119791e-02  6.18132278e-02
  -9.82182473e-03  3.97276133e-03  4.52088192e-02 -1.15019381e-02
   6.84781447e-02 -1.80704966e-02 -4.68074270e-02 -3.99322361e-02]
 [-5.09184226e-02  1.23132765e-02  3.16445008e-02  7.42780790e-02
  -6.05195574e-02  2.40852684e-03  5.64945266e-02  4.97561917e-02
  -1.35836452e-02 -3.36210839e-02 -5.74589223e-02  6.02690354e-02
  -5.11469617e-02 -7.98415914e-02  5.40745258e-03  3.63429487e-02
   6.74632862e-02 -3.29128951e-02 -7.19162151e-02 -5.37197478e-02
   6.72811344e-02 -7.82717913e-02 -4.92842197e-02  1.69865713e-02
   4.89122197e-02 -4.58632931e-02 -3.72810699e-02  7.42662475e-02
   5.97988144e-02  7.79912099e-02 -6.13793209e-02 -6.31954521e-03
   4.23005372e-02  3.82351428e-02  9.44664329e-03  3.51734087e-02
  -4.66368236e-02  1.18102282e-02  4.05897796e-02  5.34509495e-02
  -8.10794979e-02  7.35673532e-02 -2.14103013e-02 -1.61668211e-02
  -5.63923977e-02 -2.97644474e-02  5.78099862e-02 -5.58213890e-03
  -1.77216381e-02 -6.01571947e-02  5.83331361e-02 -5.97837158e-02
   7.09072873e-02 -7.07283244e-02 -6.64399415e-02  8.13790411e-03
   7.35032335e-02  7.02887699e-02 -7.92308897e-02  1.61222816e-02
   2.20664516e-02  2.29721367e-02  5.63186631e-02  3.10226977e-02
  -2.32223198e-02  9.52997059e-03 -1.64539143e-02 -8.31676275e-03
   3.52428108e-02  2.98637301e-02  4.14123684e-02  5.57302013e-02
   1.07478201e-02  4.77348268e-03  7.15518072e-02  7.03561828e-02
  -5.94496466e-02  2.99692005e-02  4.05259207e-02 -5.20721450e-02
   4.02060822e-02 -5.67821786e-02 -8.09516907e-02  5.60704842e-02
   1.42568871e-02  5.71123883e-02  5.28005585e-02 -5.22362888e-02
  -2.89314501e-02  1.40380040e-02 -3.07535641e-02  2.41699740e-02
  -4.89628538e-02  3.94889712e-03  5.19223511e-03  4.97726128e-02
   1.53620914e-02  7.53978416e-02 -5.30067235e-02  7.29015470e-03
  -5.80868125e-03  2.99633592e-02  4.10966352e-02 -5.11104874e-02
  -4.19431478e-02 -2.91777030e-02  1.32991225e-02 -4.01657857e-02
  -1.87265910e-02  6.74471483e-02 -2.14061812e-02  3.97267863e-02
  -6.09517843e-03 -5.48849180e-02 -6.55971766e-02  4.12574857e-02
  -6.24994487e-02  5.86089715e-02  1.62094012e-02  2.98905149e-02
  -2.31941231e-02  4.56669927e-03  4.90770265e-02  7.71793723e-03
   1.74751878e-02 -4.37780432e-02  1.97786912e-02  3.40022221e-02]
 [-4.48159873e-02 -5.33849001e-03 -2.14225240e-02 -5.55786192e-02
  -6.25091046e-02  3.61503437e-02  4.42316756e-02  4.85748798e-03
  -4.24947143e-02  6.34885654e-02 -7.16911405e-02 -5.36574386e-02
   6.61551580e-02 -7.84421414e-02 -4.55141589e-02 -6.01049513e-03
  -7.51739442e-02  5.76842800e-02 -6.57876432e-02  4.61553037e-03
   7.24997893e-02  6.96062520e-02 -2.04382055e-02  7.88415894e-02
   2.16073021e-02 -1.77539140e-03 -7.53841549e-02 -1.28659606e-02
  -4.59489413e-02 -2.32742615e-02  2.23898068e-02  2.17927247e-03
   8.30747932e-03  1.43648759e-02 -3.03322189e-02  7.22053647e-03
  -1.54429674e-02 -7.39186183e-02  5.00906631e-02 -4.92113084e-03
   4.06893119e-02 -1.25198662e-02  4.16674018e-02 -2.90465914e-02
   7.65553787e-02  7.86223486e-02  8.62523913e-04  7.50784352e-02
  -1.94544829e-02 -7.91992545e-02  6.25235662e-02  6.33995309e-02
  -5.41396402e-02  2.06237733e-02  2.77231634e-03 -2.45030001e-02
   6.78636208e-02  3.74470353e-02 -2.53077820e-02 -7.20345899e-02
   1.11068785e-02 -6.33820891e-02 -3.82571332e-02 -7.61389732e-04
  -4.99665141e-02  7.72603601e-03 -5.01314849e-02  3.23931873e-03
  -2.30630301e-02 -4.75844592e-02  8.01516995e-02  4.65352014e-02
   1.85895190e-02 -3.73030193e-02  3.06538939e-02 -3.58390808e-03
   6.09340519e-03  6.33289889e-02 -6.85621202e-02 -2.64609642e-02
   2.09761411e-02 -5.23565114e-02 -6.12355769e-02  2.38586217e-03
  -2.75802836e-02 -6.69402629e-03 -4.61920351e-03  5.72476313e-02
  -7.80128688e-02 -2.89004333e-02 -7.35811666e-02 -4.14774418e-02
   2.36945599e-02 -7.15947002e-02 -3.02272141e-02 -1.08394772e-03
  -1.17897913e-02  2.19287798e-02 -3.05014476e-02  7.08258525e-02
   2.13881433e-02  7.61862174e-02 -1.60629898e-02 -3.93266939e-02
   5.72460666e-02  4.11729217e-02 -6.01553991e-02 -4.30373102e-02
   6.77492544e-02 -5.76289259e-02  1.24016404e-03 -7.39642605e-02
   5.44870123e-02  1.32953748e-02  6.22943044e-03 -2.87030637e-02
   6.99915364e-02 -5.13525270e-02  2.75079757e-02  1.87940896e-03
  -1.01643279e-02  6.07327372e-03  5.87617233e-02  5.54509684e-02
   6.40024468e-02 -1.33311301e-02  4.95610312e-02 -4.26754877e-02]
 [-3.28290835e-02 -4.83040959e-02  4.62713167e-02 -3.75144258e-02
   5.88781387e-03  6.48898557e-02  1.52785107e-02  4.68545184e-02
   5.06312028e-02 -3.69475782e-03 -5.75527921e-02  5.47635555e-03
   3.15584987e-02 -2.46606059e-02  7.67159835e-02 -6.56917766e-02
  -7.94843957e-02  3.03016827e-02  4.50905934e-02  8.03243741e-02
  -3.25111635e-02  3.37008759e-02  6.49257526e-02 -7.35517740e-02
   4.62667868e-02  3.95448878e-02  5.84844872e-02  3.98897305e-02
   6.86800852e-02  1.92280337e-02 -5.08872271e-02 -7.09869713e-02
   2.28605419e-03 -2.47291028e-02 -6.88742027e-02  2.45226696e-02
  -2.74337195e-02  3.78935114e-02 -5.08702286e-02  7.96052590e-02
   1.18772164e-02  6.74984083e-02 -5.69149852e-05  7.49405846e-02
   3.19668055e-02 -2.31671110e-02  5.47946319e-02 -3.68403308e-02
  -5.40376678e-02  4.06445414e-02  4.02688161e-02 -5.88777550e-02
  -4.65713628e-02  5.91237843e-03 -2.32539587e-02 -5.28047755e-02
   4.44075838e-02  1.45654529e-02 -7.33176619e-03 -6.84941858e-02
   2.26692483e-02  2.09057257e-02 -9.06629860e-03  3.05242911e-02
   6.86512813e-02 -5.99329695e-02  4.88015264e-03  2.41288617e-02
   2.09086463e-02  2.27505639e-02 -1.08637363e-02  2.35639513e-02
   6.97356537e-02 -4.75755818e-02 -5.46221510e-02  1.09766722e-02
   9.02216882e-03  6.99755624e-02 -4.26414944e-02 -4.78733554e-02
   5.20943776e-02  3.88927758e-03  7.50088617e-02 -1.90604478e-02
   3.03899869e-02 -2.04102807e-02  5.39711639e-02 -5.03218733e-02
  -4.56303433e-02  3.31062376e-02  2.78213918e-02  4.93664667e-02
  -5.01237884e-02  8.73081386e-03 -3.08290981e-02 -2.82023400e-02
  -1.05984733e-02  2.78192759e-03  1.42090097e-02  4.36240733e-02
  -5.08727245e-02  1.69323832e-02  7.07725063e-02  5.95954582e-02
  -7.92192295e-02 -2.58205570e-02  3.73366103e-02  3.37389335e-02
   6.60844147e-04  1.75997689e-02  1.98468789e-02 -1.75596774e-02
   5.41511998e-02  7.88550302e-02 -4.34759595e-02 -4.61429805e-02
  -7.39115849e-02 -7.06906319e-02 -4.49991003e-02 -1.69258863e-02
  -4.81636077e-03  5.75821102e-03 -5.14932312e-02 -4.33395281e-02
  -5.52841760e-02 -3.87683585e-02  7.65319169e-03  4.09081802e-02]
 [ 4.68448922e-02 -8.30083340e-03 -4.41211835e-02 -2.05246061e-02
  -4.73668836e-02 -2.53973901e-03  2.28793323e-02 -8.98542255e-03
   1.73718110e-02  2.21852660e-02 -6.61236420e-02 -2.77361274e-03
   2.11096704e-02 -7.58627802e-03  4.77485582e-02 -2.87452340e-03
   5.21048903e-04  2.37257928e-02 -1.08526945e-02 -1.57956779e-02
  -6.78482652e-03 -4.86926585e-02  2.45785341e-02  1.76759809e-03
   6.85248598e-02  7.47598708e-04 -3.11453752e-02 -1.52394325e-02
   4.51490358e-02  9.71020758e-03 -5.50262034e-02 -3.30727473e-02
   3.24836448e-02  4.89614233e-02 -7.65059143e-02 -2.60095298e-02
   1.82004273e-03  4.57672998e-02 -3.61268446e-02  4.83237281e-02
   3.14874202e-03 -2.69054919e-02  5.17062768e-02  1.66387856e-02
  -7.88587034e-02 -4.36272062e-02  7.89388791e-02  1.75365508e-02
   5.10630012e-03  7.87613615e-02 -5.37185483e-02  5.17650321e-02
  -4.83334884e-02 -1.57437921e-02 -7.54901767e-03  3.85212973e-02
  -7.93497041e-02  5.30084595e-02  2.88152099e-02 -5.42520136e-02
   6.76043704e-02  3.32837105e-02  5.22827581e-02 -3.50478627e-02
   3.57689485e-02 -7.90049434e-02  3.95466462e-02  4.46726382e-03
  -5.63271679e-02  1.01767257e-02 -3.97271328e-02 -1.29578784e-02
  -3.34517658e-03 -7.65540451e-02  6.63517192e-02 -3.57942469e-02
   7.57884756e-02 -6.94152564e-02  1.94583833e-03  7.17000589e-02
   5.14985695e-02 -7.42539093e-02 -4.40910533e-02  7.56057575e-02
  -2.20375992e-02 -3.80190201e-02  4.28904146e-02 -2.64271386e-02
   5.12346551e-02 -3.87921855e-02 -1.37823299e-02 -2.73087360e-02
  -2.34004855e-02 -7.82662556e-02  2.51623392e-02 -5.20525724e-02
   2.16688737e-02 -7.72093236e-03  2.72863805e-02 -4.30189818e-03
   1.09240860e-02  7.76728019e-02 -4.86413538e-02 -6.78668767e-02
  -2.19799504e-02 -6.64099455e-02 -5.25128432e-02  3.02505940e-02
   3.11737433e-02  3.73925269e-03 -6.69111758e-02 -5.13394549e-02
  -6.71120062e-02  2.50212252e-02  6.42433539e-02  6.67276606e-02
   5.97725585e-02 -5.66300265e-02  5.63420579e-02 -4.82041724e-02
  -6.93949685e-02 -2.15952545e-02  4.29737270e-02  5.49427643e-02
  -7.50017986e-02 -5.69318607e-02  2.95930356e-02 -1.85031369e-02]
 [ 2.45667025e-02 -6.06190711e-02  1.42833637e-02 -6.86748475e-02
  -1.65997427e-02  8.19213390e-02  6.55841380e-02  9.96625237e-03
  -3.40725072e-02 -5.26758283e-02 -2.02978831e-02 -5.97304888e-02
  -5.64064533e-02 -4.74543758e-02  4.17717174e-02 -5.47279492e-02
   6.76083788e-02  2.70795971e-02  4.91247214e-02 -1.85335577e-02
   4.13485281e-02  8.14454034e-02 -2.66394950e-02 -1.36175305e-02
  -5.80058293e-03 -5.63563779e-02  7.69106075e-02 -7.94833079e-02
   5.23708872e-02 -6.19578846e-02  1.65493488e-02  4.03382629e-02
  -5.74812219e-02  6.66878596e-02 -8.90087429e-03 -6.92522153e-02
   1.16932653e-02 -2.32966021e-02 -7.38740060e-03  5.09238765e-02
   6.40203729e-02  4.74796779e-02  2.16647387e-02  6.42409250e-02
  -1.59011707e-02  6.47225007e-02 -9.64362174e-04  3.91906723e-02
   5.87616488e-02 -1.40888421e-02 -7.87984207e-02 -5.42974621e-02
   4.44693305e-02  8.10995251e-02  8.37729648e-02 -3.34333144e-02
  -6.67820275e-02  2.47922242e-02  6.50893226e-02  2.41069365e-02
   4.85775806e-02 -6.85863197e-02  9.18597877e-02  1.07166264e-02
   6.16543069e-02  4.98891249e-02 -7.15792775e-02 -2.30396483e-02
  -2.13302784e-02 -5.15041575e-02  3.27577740e-02  1.18065551e-02
   3.60305384e-02 -7.90899172e-02 -8.89229029e-03 -2.14856192e-02
  -7.34325498e-02  9.78386402e-03  5.90985604e-02  4.64061126e-02
   7.47952387e-02 -6.86606765e-02 -3.42778563e-02 -5.73713370e-02
  -6.48047328e-02  7.92530030e-02  4.15479094e-02  3.79196778e-02
  -3.06596123e-02 -2.08445229e-02 -7.16655403e-02 -6.15143962e-02
  -6.44223914e-02  2.40908042e-02 -5.32445833e-02  8.03420618e-02
   4.33869734e-02  7.76140485e-03  7.68199340e-02  3.48180123e-02
  -7.94133097e-02 -3.90034094e-02 -2.64149904e-03  1.59136336e-02
  -2.10723057e-02 -7.30155334e-02 -1.49929915e-02 -6.85588792e-02
  -3.03893182e-02 -2.31380034e-02 -7.21217468e-02 -7.06302449e-02
  -7.40163922e-02 -3.12681193e-03 -2.80912174e-03  4.03315499e-02
  -6.45272136e-02  1.68350432e-03 -7.59555101e-02  3.05764638e-02
   3.56449112e-02  6.27448112e-02 -3.91470045e-02 -2.69336998e-02
   7.61708468e-02 -3.25183496e-02  7.86016658e-02  3.34219709e-02]
 [ 8.48936737e-02  5.48055097e-02  8.23296085e-02 -7.13299122e-03
   5.77809066e-02  1.14789074e-02  6.22267323e-03  3.01261805e-02
   2.83126421e-02 -7.31616840e-02 -5.43502085e-02  6.79105520e-02
   2.25961767e-02 -5.67974225e-02 -6.40411600e-02 -3.36815752e-02
  -4.80500758e-02  1.06019026e-03 -5.47271930e-02 -5.00860512e-02
   3.12103250e-04  5.90703078e-02  2.72405446e-02  1.59337744e-02
  -2.59817243e-02  7.18854517e-02 -8.14971924e-02  2.64480915e-02
  -7.96915814e-02 -6.93247244e-02  3.25018987e-02  5.10462299e-02
   6.34268001e-02 -5.08286059e-03 -8.49449949e-04 -2.23309454e-02
  -5.35251163e-02  8.05257559e-02 -5.98255955e-02 -7.70034194e-02
  -1.31384768e-02  6.07596748e-02  3.10993474e-02 -7.03435466e-02
  -4.97131832e-02 -5.33010960e-02 -2.55917106e-02 -1.79014057e-02
  -5.12381978e-02  6.53227121e-02 -7.18766898e-02  5.29248603e-02
  -6.35330752e-03  3.95546407e-02  8.86794478e-02 -2.36447025e-02
   8.67194384e-02  3.69178951e-02 -7.69137368e-02 -3.49491350e-02
  -2.42147557e-02 -3.96106346e-03 -2.20001731e-02  4.78386506e-02
   3.63145620e-02 -3.05949301e-02  3.91013548e-02  9.91239920e-02
   1.10600963e-02 -3.19530591e-02  5.76828308e-02 -1.71190351e-02
  -7.00846687e-02 -4.91822623e-02 -7.78460726e-02  1.09633267e-01
   7.21068308e-02 -5.04538566e-02 -4.83009741e-02 -1.39841223e-02
  -4.00219858e-03 -4.22967300e-02 -5.33242477e-03  2.67952364e-02
   4.41531166e-02  7.94066563e-02  1.92731693e-02 -4.23882157e-03
  -3.53245437e-02  1.96141377e-02  4.95547615e-03 -5.52823942e-04
   5.22851646e-02  2.35424638e-02  2.82497779e-02  5.34003600e-02
   3.77078988e-02  8.66802856e-02  1.74860121e-03 -2.69200783e-02
  -6.69697300e-02  2.14595981e-02 -2.31137536e-02 -7.80710950e-03
   4.68330197e-02 -2.91405376e-02 -2.94175651e-02 -5.01745529e-02
   3.05011328e-02  4.66074198e-02  3.24998461e-02  1.75933838e-02
  -4.40912060e-02 -8.15055240e-03  7.80005241e-03 -6.19054064e-02
  -4.74467799e-02 -7.69136548e-02  2.15029903e-02 -6.56934977e-02
   3.71405780e-02 -5.89637756e-02  7.31141269e-02 -4.24885526e-02
   9.63478163e-03 -8.49142000e-02  4.17404026e-02 -3.91198993e-02]
 [ 1.40019670e-01 -5.32063916e-02  8.82602036e-02 -1.98402088e-02
   1.72065832e-02 -2.44288258e-02  6.96347468e-03  1.42705515e-01
   1.29231855e-01 -1.30999386e-02  5.72078563e-02  4.98730429e-02
  -1.13064669e-01  6.38722405e-02  3.10575794e-02  4.49791551e-04
  -6.52282387e-02  3.00277397e-03 -5.92678562e-02  3.52403447e-02
  -8.10677186e-02  5.50855510e-02  3.63763273e-02  1.66510008e-02
  -4.14643064e-02  1.22202091e-01 -8.40158165e-02  9.77067128e-02
   3.69931236e-02 -1.24093350e-02 -7.21926289e-03  4.70930412e-02
   4.26214449e-02  1.26638785e-02 -7.54051581e-02 -1.50389344e-01
  -2.85439864e-02  1.49254039e-01  3.15474346e-03  5.92772625e-02
   9.41923112e-02 -5.82005270e-02  3.76758762e-02 -2.17174925e-02
  -9.24531072e-02 -1.90347299e-01 -1.21018052e-01  1.90190598e-02
  -5.60998097e-02  4.77368049e-02 -1.02828518e-02  1.49345417e-02
   1.28562525e-01  7.94347376e-02  1.64226562e-01  8.72901380e-02
  -4.87524085e-03  4.32113782e-02  4.74834926e-02 -9.55917090e-02
  -4.87563759e-02 -1.19123934e-02  4.81970459e-02 -2.06130669e-02
  -1.14426091e-02 -4.02809046e-02 -1.51476189e-01  1.13820471e-01
  -4.52182032e-02  1.01963738e-02  4.64440957e-02  8.95071179e-02
  -7.93028846e-02 -8.52661580e-02 -1.11099429e-01 -1.19110681e-02
   4.10028398e-02  2.90421359e-02  5.70248514e-02  1.14791043e-01
  -4.51815575e-02 -2.11710669e-02 -2.08704593e-03 -8.44148621e-02
  -6.85492605e-02  8.98971558e-02  6.14749454e-02  1.32784471e-02
   1.03961527e-01  1.44710885e-02  1.24814183e-01 -1.47794947e-01
  -3.42125595e-02 -1.64714009e-01  5.07375225e-02 -5.22326045e-02
  -1.17598541e-01  2.52152048e-02  5.73826395e-02  6.88011274e-02
  -1.48866877e-01  1.94899186e-01  6.14626035e-02  1.89585965e-02
   3.37772183e-02  9.22025815e-02 -3.43423449e-02 -4.67559919e-02
   4.46890369e-02 -5.88354692e-02  8.08447227e-02 -5.04016466e-02
   3.26147825e-02  1.30450964e-01 -3.70859466e-02  7.60650262e-02
  -2.24420615e-02 -3.45420837e-03 -1.27956867e-01  1.79754123e-02
  -4.32524048e-02 -8.85782763e-02  1.01654723e-01  1.45385088e-02
   4.82760705e-02 -1.81192607e-01  3.60412002e-02 -1.86365992e-02]
 [ 7.91429728e-02  4.97261509e-02  1.77892938e-01 -3.53982151e-02
   3.24028730e-02 -1.72712132e-02  2.88480055e-02 -5.51183522e-03
   1.39561906e-01 -8.13575275e-03  1.36452690e-01  6.94768205e-02
  -9.24371928e-02 -1.15229622e-01 -1.86002366e-02  7.84875527e-02
  -7.61279240e-02 -1.15458511e-01 -1.51085883e-01  1.30424112e-01
  -3.69625837e-02  1.21268265e-01  4.80151251e-02 -6.25481606e-02
  -1.17309839e-01  3.39656919e-02 -1.36324018e-01  6.37557954e-02
  -8.40995684e-02 -6.04577884e-02  6.49999455e-02  6.79446757e-02
   1.73446238e-02 -8.03412199e-02  1.60921458e-02 -1.40302777e-01
  -7.69159347e-02  4.63234521e-02 -1.80880297e-02 -5.69091477e-02
   4.76211011e-02  3.81134115e-02  2.74850577e-02  1.12773022e-02
   4.53083729e-03 -9.22119021e-02 -9.33244601e-02 -7.74858817e-02
   3.00619695e-02 -5.55932969e-02 -8.42659995e-02  5.36215641e-02
   1.35387823e-01  8.09761882e-03  3.21699977e-02  4.45986092e-02
   9.40301865e-02 -9.22654644e-02 -6.18001372e-02 -1.29546478e-01
  -2.48232484e-02 -9.72299278e-02  1.85551271e-01 -1.34522289e-01
  -1.75483078e-02 -5.25944307e-02 -1.38925374e-01  1.50164023e-01
  -7.10902810e-02  5.08094020e-02  1.98330656e-02 -2.54525105e-04
  -5.30298352e-02 -9.51699242e-02 -7.59650469e-02 -4.66766469e-02
   3.40723991e-02 -6.80944249e-02  1.38483569e-02 -1.09800790e-02
   4.02263924e-02  6.20320737e-02  4.29574475e-02 -2.22251788e-02
  -8.75674188e-04  9.10382867e-02 -2.29680166e-02 -4.47808988e-02
   4.09485064e-02  5.17036505e-02  4.46869247e-02 -1.26237214e-01
  -6.94305822e-02 -1.06581084e-01  2.50105597e-02  4.97843139e-02
  -1.24250483e-02  1.12084243e-02  8.81460235e-02 -2.54407115e-02
  -4.01765779e-02  1.87532857e-01  5.98529447e-03  1.04254320e-01
   4.57378812e-02  5.64823672e-02 -8.58789496e-03  6.40872121e-02
   2.52363086e-02  2.71437038e-02  1.30754197e-02 -1.15923770e-01
   6.46424592e-02  3.64417359e-02 -2.87232921e-02  3.72483023e-02
  -7.67725185e-02  5.49670793e-02 -1.39291137e-01 -3.96638252e-02
  -7.15148300e-02 -6.07734658e-02  8.53922144e-02  7.72985891e-02
  -1.61031894e-02 -1.42406449e-01  5.52220568e-02  1.83634032e-02]
 [ 7.79598877e-02  2.93214612e-06  3.61950956e-02 -2.53076851e-02
  -2.02085897e-02  1.49761856e-01  1.05943881e-01  1.28005341e-01
   7.95106739e-02 -2.31258422e-02  1.03711218e-01 -4.17672843e-02
  -1.15397640e-01 -7.73110911e-02 -1.72123685e-02  2.09460109e-02
  -4.57919911e-02  6.88436851e-02 -5.11981435e-02 -1.36874001e-02
  -6.59179091e-02  1.68903116e-02  6.17325082e-02 -9.08511207e-02
  -1.62790403e-01  4.29942720e-02 -8.95784050e-02  3.88717651e-02
  -6.97051436e-02 -5.02597131e-02  7.25678308e-03 -5.40042967e-02
   4.80269752e-02 -2.36224309e-02 -9.78366360e-02 -1.34538800e-01
  -1.55570820e-01  1.03979863e-01  2.37506591e-02 -8.04228038e-02
  -9.63512957e-02 -1.20652840e-02  1.48839146e-01 -5.80289476e-02
   1.04425348e-01 -1.47015467e-01 -1.68182496e-02 -3.93215530e-02
  -8.97483379e-02 -1.54342027e-02  9.68960114e-03  1.91452041e-01
   1.16566205e-02  7.03944042e-02  2.19519183e-01 -5.35592809e-02
   3.64935063e-02  7.96665438e-03  1.52590498e-02 -1.48560375e-01
  -3.17045003e-02  5.41219860e-03  1.83415487e-01 -3.51828970e-02
  -1.25870705e-02  5.15832528e-02 -1.06589690e-01  1.22830726e-01
  -3.75740454e-02  3.96929011e-02  4.90635037e-02  5.50813880e-03
   2.41494626e-02 -1.34737879e-01 -5.14651723e-02  1.53942898e-01
   5.21010272e-02 -1.35709243e-02  8.23370293e-02  1.60920322e-01
  -5.37929609e-02 -1.03729226e-01  1.61216110e-01  3.64359729e-02
   5.10318801e-02  9.97027829e-02  4.63960916e-02 -1.69196557e-02
   8.75004679e-02 -6.40328676e-02 -1.36993360e-02 -1.29503578e-01
   1.32936135e-01 -1.16587594e-01  1.77347153e-01 -4.83190864e-02
  -1.16629407e-01  1.17365621e-01  1.29021794e-01 -9.41112638e-02
  -8.17998573e-02  1.27872646e-01  2.46828496e-02  6.01310506e-02
   1.77354917e-01  5.07259667e-02 -7.71278189e-03 -1.30739346e-01
   7.62447417e-02 -9.66299325e-02 -3.11800558e-02 -9.72317383e-02
   3.83813586e-03  1.33832157e-01  1.77791640e-01  1.45367846e-01
  -3.15691270e-02 -1.43124357e-01 -9.78576988e-02 -4.96612536e-03
  -6.28137356e-03 -1.36058792e-01  4.83306870e-02  1.48868069e-01
  -9.58975106e-02 -1.20003514e-01 -9.99858230e-03  1.28134742e-01]
 [ 8.60431269e-02 -4.54599336e-02  1.48487195e-01 -6.56599402e-02
   1.20669037e-01  4.89066727e-02  9.42634642e-02  1.04929045e-01
   1.66850150e-01 -6.97956681e-02  8.37269202e-02 -3.00421380e-02
  -1.66777670e-01 -7.49503970e-02  1.12533569e-02 -4.05549482e-02
  -6.48829388e-03  1.29727572e-01 -1.33253530e-01  1.00694761e-01
  -9.10997838e-02  9.10113507e-04  7.07981512e-02 -3.70365195e-02
  -5.57515025e-02  1.61677420e-01 -9.90118012e-02 -1.84127092e-02
  -5.86534180e-02 -3.29225436e-02 -8.05068240e-02 -1.00216635e-01
   9.29643586e-02 -8.51870999e-02 -1.14278451e-01 -2.23004967e-02
  -1.17297009e-01  3.83875407e-02  7.45333917e-03 -9.28730443e-02
  -3.02062910e-02 -7.12870285e-02  4.90302332e-02 -9.00290832e-02
   5.57227135e-02 -4.71815467e-02 -8.88664573e-02 -3.04756723e-02
   5.43064252e-02  1.24634363e-01 -7.22784325e-02  1.36945665e-01
   5.34169711e-02  1.13561004e-01  1.74287468e-01 -1.05053425e-01
   5.86796552e-02 -8.01146403e-02 -1.09348081e-01 -1.49190933e-01
  -7.02165663e-02 -3.85428444e-02  6.44709468e-02  6.98297769e-02
  -4.82315160e-02  6.69909194e-02 -1.56631470e-01  5.77585325e-02
  -4.42590639e-02 -7.88644627e-02  1.00285066e-02 -4.74298410e-02
  -1.21548194e-02 -1.00586899e-01 -1.03729084e-01  1.21370666e-01
  -5.41218333e-02 -5.34836687e-02  1.26169562e-01  8.41633379e-02
   6.41884580e-02 -1.00538008e-01  1.34019867e-01 -3.79228219e-02
  -4.11295481e-02  2.00465232e-01 -2.97236983e-02 -6.44614547e-02
   1.24226481e-01  2.60125753e-02  4.13215868e-02 -8.15762654e-02
   8.16318765e-02 -1.02839872e-01  1.75069757e-02  4.54403087e-02
  -4.80440110e-02  1.61533460e-01  7.38888681e-02 -6.88605085e-02
  -1.63381681e-01  1.76282272e-01 -6.64967112e-03  2.06441917e-02
   9.55840424e-02  1.16091207e-01 -4.66177873e-02 -1.38401553e-01
   1.16287112e-01  2.57841311e-02  4.12716679e-02 -4.89225276e-02
   4.04557250e-02  2.84764990e-02  1.68747917e-01  1.65681198e-01
  -4.71797138e-02 -1.53760225e-01 -2.00416502e-02 -9.16537549e-03
  -1.56325355e-01 -2.00148001e-02 -4.89249639e-02  1.71256159e-02
  -1.06623888e-01 -1.71297520e-01 -3.65603976e-02  3.78564559e-02]
 [ 8.71537104e-02  1.20296739e-01  2.54869163e-01 -1.38107464e-01
   8.81464407e-02  1.21334977e-01  4.23084199e-02  2.49381825e-01
   3.34595293e-01 -1.02616310e-01  1.88995808e-01  1.60390154e-01
  -2.35994413e-01 -5.90286665e-02 -2.91535109e-02  5.72120585e-03
   2.14020312e-01  1.50777504e-01 -1.19781002e-01  6.97711781e-02
  -1.62276924e-01  1.41289428e-01 -6.36484176e-02 -9.53553468e-02
  -1.53588310e-01  5.04752547e-02 -1.11758567e-01 -2.16749087e-01
  -1.90360367e-01  7.73543539e-03 -2.56783962e-02 -9.18505937e-02
  -4.13047001e-02 -4.35826257e-02 -1.42531231e-01 -1.58320948e-01
  -2.18847275e-01  2.36561269e-01  1.90977946e-01 -9.91130173e-02
  -1.75923258e-01 -1.58530667e-01 -4.27871086e-02 -8.98186937e-02
   1.21241845e-01 -2.12425902e-01 -1.94785058e-01 -7.23411888e-02
  -3.63139883e-02  4.62581366e-02 -8.59793276e-02  2.02275753e-01
   1.01022035e-01  9.44278613e-02  2.70441860e-01 -1.37238637e-01
   2.88529843e-01 -5.31989671e-02 -1.69935748e-01 -8.71909857e-02
  -1.04653388e-01  1.02505878e-01  3.61723781e-01  8.29294324e-02
  -5.37732691e-02  6.34415150e-02 -2.55618811e-01  4.12049115e-01
  -1.22843049e-01 -3.19475867e-02  5.58505952e-03  5.94437122e-02
   9.82210860e-02 -5.94153181e-02 -1.97074637e-01  1.44407004e-01
   4.85330671e-02  3.71491984e-02  4.33671087e-01  3.53286058e-01
  -4.23769606e-03 -8.38789344e-02  1.59344733e-01  4.51163985e-02
   4.40633371e-02  4.66103218e-02 -8.82859156e-03 -1.68125462e-02
   2.53004640e-01 -9.84371230e-02 -2.99220197e-02 -6.67223856e-02
   1.42072320e-01 -1.80375025e-01  1.70816123e-01  4.76317853e-02
  -4.46153395e-02 -4.81600463e-02  8.67936481e-03  1.58411823e-02
  -9.21326950e-02  3.54535818e-01 -5.23140877e-02 -1.13710709e-01
   3.26145738e-01  8.74412656e-02 -9.36115161e-02  3.34834196e-02
   1.91852331e-01 -3.99603248e-02  4.86554950e-02 -2.42118329e-01
  -1.07565582e-01  1.29298151e-01 -1.62552278e-02  1.95121393e-01
   2.08316520e-02 -7.56976157e-02 -7.95413554e-02  2.82736197e-02
  -1.23772383e-01 -2.27617323e-02 -1.35237321e-01  3.65073350e-03
  -6.75558001e-02 -2.37450466e-01  6.56485790e-04  8.44026506e-02]
 [-6.07091151e-02  1.81259200e-01  3.19132179e-01 -6.61811829e-02
  -4.42426614e-02  8.87048393e-02  9.36704129e-02  1.67630345e-01
   2.16716200e-01 -1.87356502e-01  1.86404780e-01  5.95241114e-02
  -1.57298207e-01  2.95119546e-02 -4.54109162e-02  6.16005287e-02
  -1.36516675e-01  1.18277341e-01 -2.59896815e-02  6.40803277e-02
   7.98011720e-02  1.82923779e-01 -4.92196493e-02 -5.60224317e-02
  -1.54949710e-01 -5.61659224e-02  3.24827759e-03 -1.71721563e-01
  -2.12417632e-01  3.16404924e-02 -8.75261948e-02 -1.42930984e-01
   8.24223235e-02  2.19750572e-02 -2.80906702e-03  2.42622886e-02
  -1.00070722e-01  2.05257148e-01 -6.20678440e-02  8.26334953e-03
  -5.57599030e-02 -2.14287445e-01 -2.17918452e-04 -1.16576962e-01
   1.88609406e-01 -6.02845661e-02 -6.03890084e-02 -2.88723968e-02
   3.63878831e-02  1.16357341e-01 -3.13376859e-02  2.40557268e-01
   1.06862158e-01 -7.97468983e-03  2.80083328e-01 -6.55474141e-02
   1.38179794e-01 -4.46834527e-02 -4.48933430e-02  2.90279854e-02
   4.22968753e-02  2.77040899e-02  2.24170551e-01  3.30577530e-02
  -5.39483950e-02  4.15857919e-02 -1.76294982e-01  1.81391746e-01
   6.92968676e-03  5.17084859e-02  5.59542999e-02  1.60288755e-02
   1.68205321e-01 -1.31608263e-01 -8.77858996e-02 -6.30183564e-03
  -1.52019355e-02  5.97592928e-02  9.72094312e-02  1.58632144e-01
   3.74695547e-02 -1.49239525e-01  2.32558027e-02  3.78263630e-02
   5.99423796e-03  8.80350396e-02 -2.36401777e-03  5.68183661e-02
   1.62108272e-01 -8.40060487e-02 -3.03839445e-02 -5.06821126e-02
  -4.43986692e-02 -8.85851085e-02  4.38860655e-02 -1.53239332e-02
  -1.61058366e-01 -1.35642588e-01  1.83092132e-01 -2.23609176e-03
   9.85982344e-02  3.37738663e-01  4.19629700e-02 -1.50441723e-02
   1.65198848e-01 -7.55834877e-02  5.78507967e-02  7.39687234e-02
   7.70804808e-02  2.75126453e-02 -8.64332765e-02 -2.05955282e-01
  -1.03335261e-01  1.71870124e-02 -6.20604828e-02  2.74194032e-01
   2.03805417e-01 -3.21454406e-02 -3.81920785e-02  2.01296657e-01
  -1.32466510e-01 -6.86038882e-02  1.24225728e-02  6.00825995e-02
  -1.41160507e-02 -2.05439329e-02 -8.23992267e-02  1.92754492e-01]
 [ 9.41161513e-02  1.49351716e-01  2.11441413e-01 -7.17193857e-02
   9.76319797e-03  1.20064393e-01  3.87613140e-02  2.10733116e-01
   1.71906978e-01 -1.56713456e-01  2.38018081e-01  1.71678379e-01
  -2.48935863e-01  5.89048229e-02 -2.18436018e-01 -1.12257153e-03
  -1.90837771e-01  3.57429194e-03 -4.92962152e-02  5.90588059e-03
   3.74317146e-03  2.75496393e-01  1.14599288e-01 -1.15677789e-02
  -5.53334467e-02  1.60259306e-01 -2.61013210e-03 -7.58491904e-02
  -2.54533768e-01 -5.20058051e-02 -7.53156841e-02 -9.59499776e-02
   1.75811648e-01  9.85095743e-03 -5.05358018e-02 -5.04047377e-03
  -6.71234727e-02  3.13214481e-01 -1.60592999e-02  4.27250490e-02
  -1.06821075e-01 -1.91945404e-01  1.22983560e-01 -5.45078628e-02
   1.17863566e-01 -1.54236689e-01 -1.93793550e-02  1.83488205e-02
   5.65223955e-02  1.18540891e-01 -9.70868915e-02  1.49419338e-01
   9.59545225e-02  2.10907236e-02  4.82585222e-01 -1.21239079e-02
   4.64229770e-02 -3.93686704e-02 -2.20370069e-02  2.99549289e-03
  -1.50271595e-01  9.51905698e-02  3.62019420e-01 -7.12499768e-02
   1.39283597e-01  3.48453224e-02 -1.26888275e-01  3.47700953e-01
   9.14566442e-02  1.24224588e-01 -3.32528427e-02  4.49781045e-02
   1.57810181e-01 -2.56886452e-01 -2.83890456e-01  9.37536210e-02
  -2.04141103e-02  6.10323697e-02  2.42639482e-01  2.84719318e-01
  -7.95508474e-02  2.12820563e-02  1.27572656e-01  7.08788559e-02
  -6.93174601e-02  3.04537684e-01  1.02384843e-01  3.78742851e-02
   3.33062649e-01 -3.37642282e-02  1.24092802e-01 -2.21339688e-01
   1.48399711e-01 -5.05327806e-02  7.90552422e-02  6.12957738e-02
  -9.70659032e-02 -3.49424983e-04  3.03051800e-01 -1.39730591e-02
  -5.83471470e-02  2.69395560e-01 -2.04997789e-02  8.74966010e-02
   2.83319920e-01  4.52859141e-02 -9.44095179e-02 -9.99507830e-02
   8.75701159e-02  4.19884697e-02 -8.31646547e-02 -1.81076616e-01
  -1.36928633e-01  2.46809915e-01  1.68410420e-01  3.82773727e-01
   1.56785607e-01 -1.58250257e-01 -7.76821077e-02  8.43640938e-02
  -1.64853901e-01 -1.55715168e-01 -2.56914068e-02  4.84873950e-02
  -1.81506664e-01 -2.93674972e-02  2.45490074e-02  1.20267868e-01]
 [ 2.05058843e-01 -1.52058706e-01  1.16402760e-01 -6.48086937e-03
   7.57981390e-02 -5.07571734e-03  2.25360654e-02  1.56852245e-01
   3.55932325e-01 -7.71141127e-02  2.91446686e-01  7.71504194e-02
  -3.05185854e-01 -3.55442703e-01 -2.04384670e-01 -7.92798772e-02
  -1.60704285e-01 -2.01894552e-01 -1.26000643e-01 -6.67095706e-02
  -6.45043924e-02  2.19475433e-01  3.38223502e-02 -1.86877862e-01
  -1.55529946e-01  1.70564875e-01 -1.04810134e-01 -4.45167348e-02
  -5.15236594e-02 -1.12408623e-01 -5.07827736e-02 -6.61709681e-02
   2.58005708e-01  3.44435126e-02 -5.11822999e-02 -9.57895815e-02
  -4.41318676e-02  3.50138366e-01  1.07403649e-02  2.51075458e-02
  -1.56849846e-01 -6.29516840e-02  2.00724378e-01  4.41553071e-03
   1.71554446e-01 -3.07788700e-01 -2.00234264e-01  1.36945918e-01
   4.38072830e-02  2.03443512e-01 -2.33431444e-01  1.39196113e-01
   4.00932413e-03  1.18957147e-01  4.52893227e-01  1.14559114e-01
   5.82018793e-02  4.19559516e-02 -3.31567340e-02 -8.94821286e-02
  -2.67943591e-01 -2.50783004e-02  3.27169627e-01 -6.62112013e-02
   1.19649857e-01 -4.20529097e-02 -2.19851971e-01  2.93889493e-01
   4.75528501e-02  8.55591297e-02  3.76575999e-02  7.91012347e-02
   8.24042708e-02 -2.38109291e-01 -5.28999045e-02  5.00954092e-02
  -5.27141467e-02  3.58892325e-03  2.72394568e-01  1.59904838e-01
  -1.92341919e-03 -1.75663065e-02  1.56305790e-01 -8.16063806e-02
   5.46370372e-02  2.01049671e-01  3.59671831e-01 -1.00780487e-01
   2.49611452e-01 -9.40768346e-02  5.29037230e-02 -2.16707185e-01
   2.43875831e-01 -1.24412619e-01  1.51179552e-01  6.91160709e-02
  -1.30252227e-01  1.76266447e-01 -5.25688343e-02  5.07304491e-03
  -2.53048033e-01  2.44550377e-01 -1.76722556e-02  1.21221393e-01
   3.10898393e-01  2.00719327e-01  9.15386379e-02 -1.34742975e-01
   1.80604309e-01  1.50230020e-01  5.69320004e-03 -3.46854150e-01
  -7.84004256e-02  2.41786093e-02  1.24340899e-01  4.91219997e-01
   3.30295265e-02 -3.14029068e-01 -1.90281048e-01  4.16716300e-02
  -9.02521461e-02 -2.51777563e-02  8.86051133e-02  1.05490349e-02
  -1.70596838e-01 -5.41601069e-02  6.63792565e-02  1.02384485e-01]
 [-1.72601968e-01  2.35071644e-01 -7.07777590e-02 -1.47166520e-01
   2.45137617e-01 -2.25647427e-02 -1.46506846e-01  8.54925364e-02
   1.81385264e-01  2.47392088e-01  2.37374410e-01 -3.70060742e-01
  -2.06933245e-01  6.87141763e-03 -2.08545104e-01  3.99935022e-02
   2.62849510e-01 -2.21222907e-01  2.83019505e-02  2.42288150e-02
  -6.48842528e-02  3.74418378e-01 -5.62962927e-02 -1.57174766e-01
  -1.35135219e-01  9.29482058e-02  1.55174494e-01  3.24344546e-01
   3.01473349e-01 -5.06726168e-02 -2.52329260e-01 -3.21993798e-01
  -6.78645372e-02  2.37844661e-01 -1.81849048e-01 -7.27005079e-02
  -1.55119017e-01 -1.16036236e-01 -2.70134300e-01  9.82771590e-02
  -1.44322649e-01 -8.11181366e-02  1.46363333e-01 -8.93064588e-02
   2.34317452e-01  2.48220637e-01 -1.78161442e-01 -8.54481105e-03
  -8.14363658e-02  1.04422949e-01  2.18067631e-01  2.76698321e-02
   4.48416248e-02 -2.22237989e-01  3.23841758e-02  2.98469782e-01
  -7.78046846e-02  6.58937171e-02  7.54839405e-02  7.72197358e-03
  -1.94907889e-01  7.34079629e-02  1.73893735e-01  4.26829718e-02
  -1.29482225e-01  2.13517174e-01 -5.55594303e-02  1.09855458e-01
   2.38934815e-01 -3.47084969e-01  2.68679172e-01 -2.46571861e-02
  -1.26304030e-01 -2.60405362e-01  1.27630234e-02 -3.04241270e-01
  -2.43219867e-01 -2.44795382e-02 -5.68964779e-02 -1.07446890e-02
   3.36672664e-01  2.94961333e-01 -1.26779422e-01  8.42693634e-03
   3.98991369e-02 -5.87413907e-02 -2.28579313e-01  2.36993730e-01
  -2.96766683e-02 -2.43673682e-01 -5.41916601e-02 -2.71612376e-01
   1.14293694e-01 -1.52061015e-01 -2.16902569e-01 -8.71398393e-03
   7.77772162e-03  2.13329494e-01  1.34394765e-01  2.05235973e-01
  -8.35615322e-02 -2.88475722e-01 -4.60040905e-02  3.16618919e-01
   6.21932894e-02 -2.09687114e-01  2.10155413e-01 -2.44178176e-01
   4.08876687e-01  3.41217965e-01 -1.49625972e-01 -3.60616565e-01
  -3.08767468e-01 -6.45164400e-02  2.15813994e-01  4.34157521e-01
   8.05017278e-02 -1.73823431e-01 -2.64177293e-01  9.68456194e-02
   3.49240424e-03 -1.93664774e-01  3.12420696e-01 -1.03375398e-01
  -2.67025322e-01  3.60116363e-02  5.53511828e-02 -2.29055300e-01]
 [-2.13139519e-01  1.76028416e-01 -1.39597714e-01 -7.71423429e-02
   1.93209795e-04  3.08295757e-01  1.96945488e-01  1.50118873e-01
   2.09217235e-01  3.06759834e-01  4.61424381e-01 -2.52710462e-01
  -2.75865078e-01  1.57968625e-02 -2.12086096e-01  4.01597694e-02
   1.28805682e-01 -6.99560940e-02 -1.05684556e-01  3.86635773e-02
  -1.43932417e-01  4.99947965e-01 -1.78462435e-02 -9.40768644e-02
  -1.09276138e-01  3.05636644e-01  1.11061402e-01  3.75824600e-01
   2.12393403e-01 -5.69199072e-03 -2.38648593e-01 -2.79730558e-01
   9.43744369e-03  1.24559060e-01 -1.58185691e-01 -2.06632569e-01
  -2.92084217e-01 -9.04525071e-02 -2.95700163e-01 -1.37905717e-01
  -1.10707954e-01 -7.38867372e-02  7.23199770e-02 -4.97573726e-02
   6.59805685e-02  1.79511115e-01  1.50982775e-02  1.74332375e-03
  -9.98026282e-02  5.04213452e-01  1.16849422e-01  1.28729984e-01
   1.72324121e-01 -2.64652431e-01  1.14060938e-02  2.48363540e-01
   1.37817889e-01  4.98740003e-02  1.16862848e-01  4.67636297e-03
  -1.96500480e-01 -1.85225323e-01  5.31627059e-01 -4.08877313e-01
  -1.81561083e-01  2.24533439e-01 -2.23725773e-02  4.48756456e-01
   1.85375288e-01 -2.24264830e-01  2.36825004e-01  3.69632915e-02
  -1.10186629e-01 -2.49565318e-01 -1.86673015e-01 -1.59329727e-01
  -2.32493907e-01 -8.06753859e-02 -3.69077995e-02  1.88072711e-01
   2.84777403e-01  2.49086618e-01 -5.88450134e-02  6.29760921e-02
   7.30544552e-02  2.18184978e-01 -1.50516018e-01  1.95650861e-01
   4.26139504e-01 -3.36725205e-01 -1.60301909e-01 -2.13706315e-01
  -1.65254757e-01 -1.47271633e-01 -1.83237553e-01 -1.63807273e-02
  -1.53726310e-01  1.36117339e-01  3.27874690e-01  3.25113773e-01
  -4.18870896e-01 -9.70273837e-02  5.63452393e-02  4.03919458e-01
   1.60166308e-01 -1.39971286e-01  8.99731368e-02  4.83800173e-02
   4.30583358e-01  3.39041173e-01 -1.23074457e-01 -2.11837530e-01
  -2.47698858e-01  7.40522519e-03  2.53876865e-01  3.19275796e-01
  -9.82120540e-03 -2.38565966e-01 -2.24066988e-01  1.24607822e-02
  -6.99447393e-02 -1.87089995e-01  2.37047747e-01 -6.05129898e-02
  -1.73582271e-01 -1.71838358e-01  3.41576785e-02 -2.27426723e-01]
 [-5.37066162e-02 -8.55512246e-02 -7.41159916e-02  1.05520599e-02
  -1.66171372e-01  1.74714684e-01  2.23707393e-01  1.61037594e-01
  -8.39803293e-02  2.90667526e-02  3.03731471e-01  2.85771668e-01
  -5.97025417e-02 -3.10330279e-02 -3.00510228e-01  1.73422396e-02
   8.98040384e-02  3.63375992e-02 -5.18901795e-02  1.19639829e-01
   1.52402163e-01  1.32265002e-01  3.48219089e-02 -1.41328454e-01
   8.05877820e-02  6.78905919e-02 -1.69813976e-01  1.85771927e-01
  -8.90599936e-02  2.58795153e-02 -4.46529053e-02  1.68947250e-01
   5.15574450e-03  9.28963572e-02  6.24389388e-02  2.04691868e-02
  -5.85369989e-02 -3.29069346e-02 -2.08836570e-01 -6.38011321e-02
   5.11316545e-02  2.36226559e-01  1.79787483e-02 -1.62652090e-01
  -6.39776560e-03  1.42590255e-01  1.26507729e-01  4.11834102e-03
  -9.32331383e-02  2.48660669e-01 -2.24830687e-01  2.79135019e-01
   1.10702924e-01 -1.89265311e-01  2.49664128e-01  1.85849726e-01
   2.98978478e-01  3.59351300e-02  3.09750795e-01 -3.18685994e-02
   4.07919548e-02 -1.78977743e-01  1.34993225e-01 -3.74859661e-01
  -5.90260215e-02  1.36392385e-01  7.76682273e-02  1.25576466e-01
  -4.23323065e-02  1.35822147e-01  1.56271726e-01  9.39527992e-03
   1.64591402e-01 -2.86477804e-01 -4.69372272e-02  5.34011051e-02
   1.04702212e-01 -2.83780545e-02 -3.94952483e-02 -1.60209723e-02
   2.95735419e-01 -7.10165948e-02  4.40559499e-02  3.10712695e-01
  -6.70472917e-04  2.39246428e-01  1.21625572e-01  1.87245354e-01
   3.47756982e-01 -1.15254812e-01  1.05813734e-01 -3.24581623e-01
  -1.12741724e-01 -2.26737514e-01  5.60316315e-04 -7.26234242e-02
   8.41989815e-02 -1.04784459e-01  1.53888494e-01  1.35978892e-01
  -2.60575593e-01  2.47237831e-01  1.75111949e-01  1.57309532e-01
  -4.32264209e-02  8.17827284e-02 -6.73197433e-02  3.47686037e-02
   2.13653713e-01 -7.38686416e-03  8.92233290e-03 -1.63056791e-01
  -8.91976804e-02  1.08236663e-01 -1.12897353e-02  3.36325943e-01
   5.12866378e-02  2.20765378e-02 -2.96159722e-02  2.06212118e-01
   1.35012433e-01  1.06168874e-01  7.22292140e-02  2.64115147e-02
   1.79874614e-01 -1.21959493e-01  3.18552973e-03 -1.40168434e-02]
 [ 1.30409840e-02 -1.62157640e-01 -1.14896428e-02 -9.07733366e-02
  -1.10575132e-01  3.62983137e-01  2.43284881e-01  8.17153230e-02
   1.36744305e-01 -2.51513243e-01  2.49593109e-01  5.43555796e-01
  -2.18002617e-01 -1.15908802e-01 -2.11248770e-01  6.89896718e-02
  -5.89356460e-02 -5.03971009e-03 -3.87144201e-02  4.78064790e-02
   1.02800570e-01  9.31184217e-02 -7.42202625e-02 -4.07919064e-02
  -3.21243703e-03  1.41075999e-01 -1.63492694e-01 -1.83640599e-01
  -1.37743190e-01  6.50416017e-02 -2.68739164e-02  3.48892570e-01
   1.53641284e-01 -1.89904913e-01  2.03677211e-02  2.35793181e-02
  -6.70064166e-02  1.71058923e-01 -3.07421722e-02 -2.35385239e-01
  -2.90438402e-02  9.54023078e-02  5.28598623e-03 -1.99782982e-01
   1.62856132e-02 -9.29275528e-02  1.04046941e-01  1.00892205e-02
  -5.95101342e-02  2.88826346e-01 -2.45359957e-01  2.07726210e-01
   1.16369978e-01 -9.24722552e-02  1.61457986e-01  1.62288472e-01
   3.83726686e-01  2.79280711e-02  2.17271775e-01 -9.38886777e-02
  -2.33936533e-01 -1.80070445e-01  2.99249440e-01 -2.07716614e-01
   1.17396288e-01 -1.87757257e-02  1.75116807e-02  1.90560699e-01
   5.52846231e-02  2.67055333e-01  2.48702932e-02  1.51307553e-01
   1.84521660e-01 -3.84416282e-01 -7.07552508e-02  2.37998232e-01
   1.58774808e-01 -9.69371349e-02  1.59771759e-02  1.96527287e-01
  -3.68576348e-02 -3.98981720e-01  6.12605475e-02  1.75919518e-01
  -1.20945601e-02  1.78961039e-01  2.89090008e-01 -2.01663356e-02
   2.99533248e-01  6.90877736e-02  1.89516887e-01 -2.91937113e-01
   1.87948152e-01 -1.88035145e-01  1.35683045e-01 -6.18384890e-02
   5.21828700e-03 -2.08509445e-01  7.16261789e-02 -1.03950724e-01
  -1.42579943e-01  5.93972981e-01  2.10482195e-01  1.47173554e-03
   5.36400117e-02  2.42984831e-01 -1.62002876e-01 -7.31995404e-02
   1.03968523e-01 -2.31389508e-01  6.50484711e-02 -1.57490671e-01
  -5.46180122e-02  9.93397459e-02  2.05929577e-02  5.41941762e-01
   8.32346827e-03 -2.26756126e-01  1.30121469e-01  1.65688783e-01
   1.01662882e-01  1.66791990e-01  3.18700001e-02  1.22168429e-01
   2.18725815e-01 -2.21886113e-01  1.20303780e-01  9.40906852e-02]
 [ 9.92753208e-02 -2.82432735e-02  2.65678167e-02 -9.42489803e-02
   2.06541702e-01  1.65280908e-01  8.00695941e-02  2.91208457e-02
   2.39371464e-01  4.88360673e-02  2.15220705e-01 -6.80087730e-02
  -2.79470593e-01  1.98976062e-02 -4.58428636e-02  4.43797484e-02
   7.27191642e-02  1.11205876e-01 -2.08528697e-01 -6.99046301e-03
  -1.78453982e-01  3.60291041e-02 -4.92871441e-02 -1.13973096e-01
  -1.03131667e-01  1.37352213e-01 -1.60687059e-01 -4.92444187e-02
  -1.03870325e-01  9.36085507e-02  4.30364087e-02 -2.89955083e-02
   3.39923613e-02  9.77884755e-02 -3.16161998e-02 -2.37442389e-01
  -1.47657439e-01  7.44814277e-02  2.22808585e-01 -2.27723151e-01
  -3.10209095e-02 -1.69638440e-01 -4.20471579e-02  2.67733051e-03
   1.58285335e-01 -3.58871482e-02  3.84046510e-02  2.19983816e-01
   2.67069880e-02  2.26899356e-01  1.57095447e-01  2.01440118e-02
   3.67110223e-02  2.02890933e-01  9.27079916e-02  3.02144438e-02
   2.87748605e-01 -1.08500242e-01 -1.50788620e-01 -1.66490600e-01
  -3.60101968e-01  1.14125893e-01  2.09955603e-01  9.07622725e-02
   3.43032628e-02  6.33888692e-02 -1.78647578e-01  2.64394313e-01
   1.66552484e-01 -1.25395060e-01 -1.03716344e-01  1.21206686e-01
  -4.34343219e-02 -2.18462646e-01 -2.10566148e-01  1.75225914e-01
  -1.63036659e-01 -6.62677437e-02  1.45078138e-01  1.54786512e-01
  -8.12739804e-02 -2.17457518e-01  2.01606870e-01 -6.93185851e-02
   3.37851048e-02  2.27706581e-01  2.09063321e-01 -2.69502937e-03
   1.83460772e-01  3.82310012e-03 -1.02337688e-01 -1.52803555e-01
   1.14238054e-01 -1.64675325e-01  7.35782087e-02 -4.45273854e-02
   3.51817943e-02  9.54234526e-02  1.48159996e-01 -3.95888537e-02
  -1.68304980e-01  4.37968463e-01  2.45089203e-01  6.26057088e-02
   2.05772847e-01  2.01278239e-01 -3.29274923e-01 -1.54332533e-01
   2.47478839e-02  1.34546563e-01 -1.27293557e-01 -1.23756960e-01
  -2.63021188e-03  9.97053385e-02  3.04147661e-01  2.39734098e-01
  -1.44862711e-01 -2.33321890e-01 -1.58956259e-01  4.02336456e-02
  -2.73384362e-01 -2.09879309e-01 -1.48227271e-02  3.76860909e-02
  -1.13939501e-01 -2.28669584e-01  4.40665521e-02  1.97720006e-01]
 [ 1.79690257e-01  5.24306893e-02  5.36917336e-02  2.77170334e-02
   2.87866950e-01  1.33246049e-01  1.38595819e-01  1.07534185e-01
   3.98747593e-01  1.34922117e-01  3.00921291e-01  2.59103887e-02
  -4.16445613e-01 -1.54513106e-01 -1.29750699e-01 -3.56449336e-02
  -1.17108963e-01  1.08097352e-01 -1.37708530e-01 -1.04454085e-01
  -1.43076345e-01  1.97443634e-01 -7.23218918e-02 -1.26190446e-02
  -2.08330661e-01  3.05115134e-01  1.80776697e-02  1.20333694e-02
  -2.76312649e-01 -2.21918151e-02 -4.61666919e-02 -1.48520708e-01
   1.15307763e-01  1.93801075e-01 -1.61093622e-01 -2.31733635e-01
  -1.79344490e-01  1.35998309e-01  2.14837015e-01 -2.11548924e-01
