baseline/conv2d/kernel:0
(5, 5, 3, 6)
[[[[-1.46097630e-01 -2.75749937e-02  1.59386322e-01 -1.19447425e-01
     5.56513630e-02  2.50998020e-01]
   [-1.27876893e-01  5.89524619e-02 -6.53903857e-02  6.70843720e-02
    -1.95532396e-01 -8.63938332e-02]
   [-1.45225286e-01 -1.26798898e-01  1.36043265e-01  9.81640220e-02
    -5.18086962e-02  1.94272473e-01]]

  [[ 5.84429093e-02  1.34627670e-01  2.59340644e-01  7.63411224e-02
     7.02352747e-02  7.25153238e-02]
   [-1.36575907e-01  1.04511917e-01  5.00517227e-02  5.79073876e-02
    -1.19149767e-01 -1.57782659e-01]
   [ 1.29605113e-02 -4.92340960e-02  7.40656629e-02 -1.07036114e-01
    -1.55906128e-02 -7.19859228e-02]]

  [[ 7.73475096e-02 -1.20331809e-01  3.34238350e-01 -6.08126782e-02
    -1.83405057e-01  3.22411470e-02]
   [-4.07354033e-04 -6.03987128e-02 -3.46118324e-02 -1.48485839e-01
     2.17752904e-02 -7.95795619e-02]
   [-1.82022572e-01  1.64422527e-01  1.15194514e-01  1.34548873e-01
    -2.62831748e-02 -1.48016334e-01]]

  [[ 4.07677181e-02  9.43479240e-02  2.20246553e-01 -1.63212158e-02
     5.19326851e-02  1.78716540e-01]
   [-9.48387384e-02 -1.41253397e-01  2.85336506e-02 -2.41216511e-01
    -1.19433865e-01 -1.37928382e-01]
   [ 1.98192865e-01  5.60839102e-03 -3.22999358e-02 -1.53082252e-01
     1.26782963e-02 -1.50714383e-01]]

  [[ 1.04559816e-01  2.53650043e-02  7.10734576e-02  1.53730690e-01
     2.07868572e-02  1.46426752e-01]
   [-1.09430008e-01 -8.77467915e-02  1.06648892e-01  1.17690541e-01
     1.37765959e-01 -1.80575684e-01]
   [ 2.90437698e-01  3.55250090e-02 -7.19973743e-02  4.93765697e-02
     1.63835064e-01  6.38953149e-02]]]


 [[[ 1.03636749e-01  2.20725667e-02 -5.95550686e-02 -1.50433406e-01
     1.30309595e-03  9.10499506e-03]
   [ 1.09774001e-01  8.81316438e-02 -2.46586695e-01  1.08949855e-01
    -6.44005910e-02 -2.55736828e-01]
   [-8.64953101e-02 -1.26669731e-03 -1.58082440e-01  1.00459471e-01
    -2.02200517e-01 -2.42386013e-01]]

  [[ 2.43545175e-01  2.62170248e-02 -1.10170469e-01  5.47672622e-02
    -6.94056824e-02  2.76680849e-02]
   [-1.55501366e-01  1.41765714e-01 -2.26973981e-01  1.34314626e-01
    -1.07106671e-01 -2.29284242e-01]
   [ 7.16327205e-02  2.14747742e-01 -1.53678730e-02 -3.51675749e-02
    -4.37077358e-02  8.91876407e-03]]

  [[ 6.70510679e-02 -4.39887643e-02 -1.33954436e-01 -1.45543963e-01
    -9.57688242e-02 -2.24716887e-01]
   [-1.09698586e-01 -1.78306513e-02 -2.18386665e-01 -1.44228429e-01
    -9.69303995e-02 -3.05810630e-01]
   [-1.61493033e-01 -2.41433576e-01 -2.08860394e-02  1.03678092e-01
     4.36642878e-02 -9.54274181e-03]]

  [[ 4.48046699e-02 -1.79027766e-01 -7.28340819e-03 -9.67622176e-02
     3.85988094e-02  1.14932612e-01]
   [ 6.38490496e-03 -3.82395871e-02 -1.50202051e-01 -1.91666156e-01
     9.43787545e-02 -1.90164804e-01]
   [-8.62817615e-02 -2.99748629e-02 -1.47653362e-02 -1.59552023e-01
     2.94974238e-01 -7.57278353e-02]]

  [[-3.23801860e-02  1.05522722e-02 -7.52501786e-02  3.27444464e-01
     1.30195230e-01  1.78537443e-01]
   [-1.77547529e-01  1.71919644e-01  1.08599551e-01 -9.37637221e-03
    -4.50013466e-02 -9.79897678e-02]
   [ 1.56979278e-01 -4.60793450e-02  9.72803757e-02  1.16190396e-01
     2.05044985e-01  1.06528595e-01]]]


 [[[ 1.62246019e-01  1.15197711e-01 -1.97126240e-01 -1.08553290e-01
    -7.59052709e-02 -1.29128573e-02]
   [ 1.00535303e-01  8.51381496e-02  1.15079775e-01  1.28537253e-01
    -1.05593793e-01 -1.17161125e-02]
   [ 8.38203803e-02  2.29046330e-01  2.11337864e-01  1.66065678e-01
    -3.32760718e-03 -2.38812238e-01]]

  [[ 2.36640021e-01 -1.52986450e-02 -8.93862620e-02 -9.40654054e-03
    -7.98506364e-02  7.36970128e-03]
   [-4.54822443e-02 -2.69411728e-02 -3.55733372e-02  2.04281718e-01
    -3.35232615e-02  6.16775975e-02]
   [-8.08121711e-02 -8.87259692e-02  2.04928204e-01  5.58328107e-02
     1.91253975e-01 -1.95901424e-01]]

  [[ 1.36485770e-01 -2.39111334e-01  3.19436681e-03 -2.43115366e-01
    -4.08922359e-02  3.48160304e-02]
   [-1.43036827e-01 -3.13073605e-01  6.44090548e-02 -2.73614433e-02
    -1.31491691e-01  4.99831252e-02]
   [ 5.95120131e-04 -1.90706894e-01  4.27583866e-02 -8.63031670e-02
     4.42483217e-01 -4.28856798e-02]]

  [[-5.30481711e-02  1.56706989e-01  1.09571062e-01 -1.83881104e-01
    -1.60842448e-01  1.86005890e-01]
   [-8.82345736e-02  1.47558853e-01 -7.27190524e-02 -1.23052403e-01
     3.93488370e-02  1.28118068e-01]
   [ 7.39314035e-02 -1.36940982e-02 -8.13968703e-02 -2.38097295e-01
     2.95475423e-01 -1.36746362e-01]]

  [[ 7.79529214e-02  3.46308388e-02  1.97394378e-02  1.59860015e-01
    -1.32671475e-01 -2.60142498e-02]
   [-8.03774893e-02  2.37445757e-01 -1.94575846e-01  2.18475372e-01
     9.11191180e-02  1.00412317e-01]
   [-1.67538583e-01 -9.80101004e-02 -7.65359402e-02  1.70642033e-01
     1.84100762e-01  1.90295221e-04]]]


 [[[ 4.87132408e-02 -1.56489030e-01 -1.86206877e-01  9.50454623e-02
    -1.39778033e-01 -2.20029920e-01]
   [ 1.69602141e-01 -8.75157788e-02 -2.92322785e-02 -3.62517759e-02
    -8.76675844e-02 -1.00919455e-01]
   [ 1.58232570e-01 -2.27601230e-01  1.67131081e-01  2.92404871e-02
     8.17563501e-04  2.08969358e-02]]

  [[ 1.20085567e-01  1.72570311e-02 -7.49272630e-02  7.78363198e-02
    -1.55497715e-01 -2.19403934e-02]
   [-7.24022537e-02 -1.27040505e-01 -1.11454867e-01  9.45732370e-02
     2.84730978e-02 -2.94763073e-02]
   [ 1.70419142e-01 -1.06698759e-01 -7.22653568e-02  3.50287035e-02
     2.24687546e-01 -4.18402925e-02]]

  [[-1.13326544e-02  1.44978493e-01 -1.30390778e-01 -7.15597272e-02
    -2.74900645e-01 -1.15449198e-01]
   [-1.67388588e-01  2.75231898e-01  5.79633005e-02 -1.50605440e-01
     5.22354841e-02  8.10555145e-02]
   [-5.71049936e-03  6.86291531e-02 -1.71837881e-01 -7.64021724e-02
     2.24527210e-01  1.38910726e-01]]

  [[ 7.91727528e-02  7.95159638e-02 -2.01427892e-01 -3.29109691e-02
    -5.18645905e-02 -3.36527079e-02]
   [-2.39647150e-01  1.64189652e-01 -6.71683252e-02 -2.03582183e-01
    -5.22199050e-02 -1.28136411e-01]
   [-6.90576341e-03  1.58709422e-01  1.22109381e-03 -1.94119588e-01
     3.67702484e-01 -9.11242589e-02]]

  [[ 7.73984417e-02 -1.47719160e-01 -1.11041710e-01  2.87025183e-01
     6.05190508e-02 -5.81262186e-02]
   [-4.61457446e-02 -1.56609058e-01 -6.27907440e-02  4.68760915e-02
    -7.24757090e-02  5.78563064e-02]
   [-1.77471831e-01  4.11952026e-02 -2.58367918e-02  1.38054445e-01
    -2.89507229e-02  1.14702888e-01]]]


 [[[-1.33477934e-02 -4.75241803e-02 -1.01399451e-01 -7.31855333e-02
     5.71786016e-02 -9.12601724e-02]
   [-1.90666802e-02 -4.29942161e-02  1.02192082e-01  8.04914013e-02
     8.78125802e-02 -2.26207823e-01]
   [ 2.50294268e-01  1.33008063e-01 -8.12930800e-03  1.31939769e-01
     2.68996209e-02  6.38375953e-02]]

  [[ 7.23283440e-02 -4.87547852e-02  3.41551676e-02  2.05137935e-02
     1.37336642e-01  7.91150033e-02]
   [ 3.34013663e-02 -1.28492147e-01  1.05093077e-01 -7.04484805e-02
     9.40564275e-03 -7.97193050e-02]
   [ 5.83128771e-03 -7.34445602e-02  2.14178185e-03  1.83382437e-01
     1.17698260e-01  2.57009059e-01]]

  [[ 1.30287185e-01  1.51565462e-01 -9.95375887e-02 -1.64963081e-01
     2.21479777e-02 -1.21984981e-01]
   [-2.21791744e-01  2.57325452e-02  2.21834153e-01 -1.97272375e-01
     1.04206853e-01  7.78351305e-03]
   [-1.01239495e-01  1.48409113e-01  2.07068697e-01  9.97785944e-03
    -3.64144184e-02 -4.81509045e-02]]

  [[ 1.41234547e-02 -7.90612623e-02  7.14809671e-02 -2.04863194e-02
     1.08789399e-01 -6.60546347e-02]
   [-4.77361269e-02 -1.36637583e-01  1.17912047e-01 -1.16417147e-01
    -7.81261697e-02 -1.01438284e-01]
   [ 1.95686240e-02 -1.93915889e-02 -3.60968038e-02 -1.18756488e-01
    -1.14513196e-01 -7.75568932e-03]]

  [[-6.96864277e-02  1.20765731e-01 -2.47448348e-02  9.39680934e-02
     1.64971322e-01  1.18269898e-01]
   [-1.88326403e-01 -1.72500089e-01  1.62570581e-01  4.93614264e-02
    -1.90902159e-01  9.96217225e-03]
   [-1.43748611e-01  8.86319652e-02  6.15440272e-02  2.98241363e-03
    -1.11519754e-01  1.51342288e-01]]]]
baseline/conv2d/bias:0
(6,)
[-0.03553512  0.03259741 -0.03802373  0.04092699  0.00309898  0.09752438]
baseline/batch_normalization/gamma:0
(6,)
[0.7254822  0.8284641  0.92904884 0.9866635  0.6938458  0.70085424]
baseline/batch_normalization/beta:0
(6,)
[-0.27543813 -0.35693273 -0.40868533 -0.39298362 -0.25924432 -0.31634685]
baseline/dense/kernel:0
(1536, 128)
[[-8.25320184e-03 -5.40902168e-02 -1.01292498e-01 -1.04814721e-03
   3.25698778e-02 -9.93412510e-02 -1.57326348e-02 -3.28014642e-02
   5.72744235e-02  6.12303428e-02 -5.03545068e-02 -1.24540245e-02
  -2.14730017e-02 -5.19731417e-02  4.63060774e-02 -2.93240249e-01
  -1.96834840e-02 -1.54477544e-02 -7.24335313e-02 -2.61688620e-01
  -4.64509334e-03  5.00489734e-02 -2.44151521e-02  1.13961473e-01
  -2.60175057e-02 -2.29003243e-02 -1.03398174e-01  3.23460586e-02
  -2.94735581e-02 -2.43505225e-01 -5.97930364e-02  6.24143295e-02
   3.78947109e-02 -8.27984288e-02  1.91598870e-02  7.31426477e-03
  -3.39125246e-02 -3.69555652e-02 -8.59557539e-02 -7.33570196e-03
  -1.68662846e-01  2.32041031e-02  5.36851212e-02  4.58834991e-02
   4.51374501e-02 -1.41432762e-01 -6.96915835e-02  6.33707941e-02
  -2.93061454e-02 -2.67784297e-03 -5.00137284e-02 -8.42366889e-02
   1.46036401e-01  1.56186922e-02  6.35870872e-03  3.09236981e-02
   4.06784490e-02  1.35196671e-02 -5.47996908e-02 -1.75262302e-01
  -1.98051170e-03 -1.83338404e-01 -6.74571395e-02  4.24309298e-02
  -8.54850262e-02 -3.35702598e-02  1.36853784e-01  3.23432416e-01
   1.22433770e-02  3.60498205e-02 -6.84435219e-02  4.57506925e-02
   7.99126327e-02  5.42487130e-02  2.10985215e-03  5.51570877e-02
   4.28195074e-02 -4.50406782e-03  4.96341959e-02 -1.68637782e-02
  -2.18680333e-02 -1.14108801e-01  4.67665866e-03  5.88323250e-02
  -3.61635350e-02  2.32719965e-02  1.26612280e-02  5.67723438e-02
  -1.50526911e-02  1.15566656e-01  2.57255211e-02  1.88253284e-01
  -6.76593408e-02 -6.40054196e-02  8.72867256e-02 -6.08002506e-02
  -6.22611642e-02  2.98087131e-02  6.32449985e-03 -3.97239812e-02
   6.00852072e-04 -5.18071502e-02 -1.35140941e-02  5.54008521e-02
   3.56140062e-02  2.35410690e-01 -2.18361348e-01  3.43699679e-02
  -5.09314686e-02  5.80194592e-03  2.03909408e-02 -6.89986721e-02
   4.69510853e-02 -1.38866141e-01  1.78670958e-02  5.41622713e-02
  -3.41502659e-04  4.12654728e-02  8.97566602e-03 -1.02644973e-02
   1.44921541e-02 -1.78632587e-02 -4.72844057e-02 -9.03865844e-02
   4.98418696e-02  3.26313898e-02 -4.21199873e-02  4.26190607e-02]
 [-3.45573165e-02  1.23356590e-02  1.57258306e-02  5.01670428e-02
  -2.55648345e-02  9.43899825e-02  1.44360438e-02 -3.28263827e-02
  -6.07869364e-02 -2.31172051e-02 -3.06282230e-02  7.31909499e-02
  -1.35804117e-02 -5.38765751e-02 -4.52063084e-02  3.00474092e-02
   2.40118615e-02  5.76379262e-02 -5.11754639e-02 -1.26252361e-02
   7.49805719e-02 -5.75272962e-02  1.29222190e-02  5.34398258e-02
  -4.69959714e-02  1.87721904e-02  8.05117190e-02 -8.80978033e-02
   5.27777784e-02  3.38573568e-02 -7.71736056e-02  1.24219963e-02
  -7.08721429e-02  9.96070355e-03  2.17455681e-02  3.22632492e-03
   2.00109929e-03  1.18654869e-01 -1.32008987e-02  3.92267518e-02
   2.49918438e-02  6.32984610e-03  5.30581176e-03  2.16920897e-02
  -6.05699793e-03  2.70697754e-02  4.16477807e-02 -1.94422193e-02
  -7.10616410e-02 -2.14505903e-02  3.82054504e-03 -6.68484345e-02
  -3.07435580e-02  6.70719743e-02  4.75174934e-02  9.33292042e-03
  -1.23901358e-02  1.03174895e-01  1.91920884e-02  2.51781400e-02
  -3.66640612e-02 -6.40874496e-04 -2.31718309e-02 -6.75677657e-02
   1.04780741e-01 -3.32473442e-02  7.36597106e-02 -8.21504444e-02
  -2.38910690e-02 -6.76453486e-02 -3.21407132e-02 -3.57264653e-02
  -3.05229705e-02 -3.03431861e-02 -5.63030243e-02  6.87674284e-02
   5.31687625e-02 -1.57012120e-01  2.29619686e-02 -4.73219194e-02
  -9.83445123e-02 -1.58821570e-03 -1.34688141e-02 -1.55404592e-02
  -2.21980941e-02  5.45044523e-03 -1.36086605e-02 -2.21563783e-02
   3.02570909e-02  5.48979789e-02  3.47915404e-02  1.17651401e-02
   2.30284370e-02 -2.81088483e-02  3.18329297e-02  6.87828520e-03
   1.18932485e-05 -3.04469969e-02  2.34084371e-02 -1.90061964e-02
   1.31747387e-02  2.40038568e-03 -1.57599747e-02 -4.81323190e-02
  -6.74659982e-02 -1.36563573e-02  1.16618713e-02  1.59139670e-02
   2.68244650e-03 -8.02862793e-02 -1.26970541e-02 -1.51386121e-02
  -6.54265508e-02  4.67838682e-02 -6.49380758e-02 -9.65247229e-02
  -4.29610200e-02 -8.39730576e-02  2.70919148e-02 -6.47485778e-02
  -2.60446705e-02  6.56552538e-02 -7.52543807e-02  2.32571121e-02
  -4.74745501e-03 -4.47206646e-02 -6.13157377e-02  4.15178016e-02]
 [ 2.97445357e-02 -3.59824002e-02 -3.38879585e-01 -4.43772376e-02
  -1.75441504e-02  3.24815288e-02 -1.71667282e-02 -9.96348411e-02
  -1.29536502e-02  3.31637013e-04 -2.32896898e-02  2.73184087e-02
  -8.35078135e-02  1.97279286e-02  8.64181370e-02  1.03376873e-01
  -6.62412643e-02 -1.58757403e-01 -8.94752741e-02  1.02927744e-01
  -1.52053893e-01 -5.33825345e-02  1.42762102e-02 -2.38426015e-01
   6.77658897e-03 -4.53026034e-02 -3.87523249e-02 -2.92522404e-02
  -8.61833319e-02 -1.24714091e-01 -8.47814325e-03  1.12672545e-01
  -4.28380296e-02  6.06985576e-02  9.98824984e-02 -4.66311276e-02
  -7.15890229e-02 -5.85031174e-02 -5.67454025e-02 -1.43948980e-02
  -2.06546277e-01  2.38201711e-02 -1.50367290e-01 -9.87490639e-03
   8.00450966e-02  1.87133804e-01  4.01898511e-02 -3.58962454e-02
  -4.47561853e-02 -7.56388828e-02 -7.19945431e-02 -2.46570054e-02
  -1.93405911e-01 -2.44324595e-01 -8.45698491e-02 -1.77954182e-01
  -3.37031740e-03 -4.57751972e-04  4.08815779e-02  2.34099757e-02
   1.07939141e-02  6.34799665e-03 -1.81455091e-02 -2.10335515e-02
  -1.71385229e-01 -6.35057166e-02 -8.48794542e-03  9.54015404e-02
  -1.83891863e-01  4.59654331e-02 -1.03394225e-01 -5.73081300e-02
   1.89367905e-02 -5.98861612e-02 -8.08075536e-03 -5.59505709e-02
   5.65297082e-02 -5.20960204e-02 -6.24561906e-02  4.55997810e-02
   1.62009504e-02  1.19031154e-01  2.38121115e-03  2.01955959e-02
  -1.88501214e-03 -2.01485425e-01 -3.28141488e-02 -1.66834649e-02
   8.92778039e-02 -3.06409419e-01 -4.00039628e-02  1.12718247e-01
   1.75686497e-02 -4.35916521e-02  2.23351028e-02 -2.78794646e-01
  -5.26473150e-02 -8.66131037e-02  2.75397934e-02  1.40310317e-01
  -6.37224168e-02  1.58237815e-02  5.34140095e-02 -3.16462032e-02
   7.36209145e-03 -8.59412625e-02 -6.07081428e-02 -5.54977618e-02
  -3.68281417e-02 -5.81122823e-02 -2.01555006e-02  2.38729361e-02
   4.02694605e-02  3.14331949e-01 -5.82540743e-02 -6.71181157e-02
   2.13233884e-02 -5.07777706e-02 -2.08277196e-01 -7.87584782e-02
   7.72918314e-02 -9.06641260e-02  2.06404570e-02 -6.70095831e-02
  -1.54311731e-01 -2.94627938e-02 -3.03985942e-02 -6.54677600e-02]
 [ 3.67986858e-02 -2.06629913e-02 -1.21388711e-01  1.50605279e-03
  -2.08352059e-02  1.29489064e-01 -1.11048697e-02 -1.35726601e-01
  -6.02021404e-02 -2.25801226e-02 -6.32196153e-03 -3.91026773e-02
   3.20628844e-03 -3.67434956e-02  3.28537710e-02 -3.56255658e-02
  -6.60565346e-02 -1.14713341e-01 -9.89188161e-03  9.69572738e-02
  -5.84358387e-02  8.90762825e-03 -3.62495743e-02 -5.26130646e-02
  -4.76715080e-02  6.53734477e-03  4.37888503e-02  2.48058625e-02
   1.11221625e-02  3.48349172e-03  4.65317257e-02  1.26094408e-02
  -9.41338483e-03 -1.89608969e-02  4.22248356e-02 -7.22119436e-02
  -6.55965135e-02  1.46368425e-02  7.43927527e-03 -5.35446182e-02
  -4.75234911e-02  1.50891533e-02  6.72401935e-02  3.60048786e-02
  -1.53915863e-02  6.61730021e-02  9.55022201e-02  1.54714510e-01
   2.05987785e-02 -3.93989943e-02 -3.14748362e-02  4.69370559e-02
  -9.70833842e-03 -1.43124107e-02  9.09985378e-02 -2.59055477e-02
   2.48624627e-02 -9.49755087e-02 -5.90126924e-02 -3.18660811e-02
  -4.44925725e-02 -3.28024738e-02 -3.41283693e-03  2.93140523e-02
  -7.66579658e-02 -4.48845066e-02 -4.31708172e-02  6.74843267e-02
   8.34821686e-02 -1.45327356e-02 -8.02232474e-02 -2.75918916e-02
  -3.22507285e-02 -3.80013068e-03 -3.39481682e-02 -1.68075562e-02
  -1.66619644e-02  2.34304536e-02 -5.12700155e-02 -3.31780612e-02
   3.93911544e-03 -3.71268205e-02  2.36750823e-02  8.47458467e-03
  -3.28875594e-02 -6.74140900e-02 -7.94653594e-02  5.50922491e-02
  -1.19066210e-02 -3.21619846e-02  3.87441665e-02  8.62688571e-02
  -8.71444494e-02 -5.80663532e-02  3.23810056e-02 -2.20005810e-01
  -5.15966341e-02  7.76703330e-03 -2.55306829e-02 -7.05110058e-02
   7.84099102e-03  1.79112237e-02 -8.57195705e-02 -9.82426330e-02
   1.77491847e-02  1.45845562e-02  1.07913189e-01 -2.12318413e-02
  -1.88186362e-01 -4.77656238e-02  2.19570417e-02  3.79370376e-02
   2.26925593e-03 -9.50660557e-03  1.59069765e-02 -3.18240337e-02
   5.18120341e-02  1.34512316e-02 -1.74612507e-01 -5.45361638e-02
   2.73179784e-02 -2.71600075e-02 -6.24413379e-02  1.58843156e-02
   3.02074999e-02  3.98474522e-02 -4.38580029e-02  4.77161184e-02]
 [-4.23429273e-02  2.66015623e-02  8.21502432e-02  4.23507094e-02
  -5.39098345e-02 -9.96261239e-02 -5.32229654e-02  4.60493416e-02
   3.23996246e-02 -4.33569662e-02 -2.62429658e-03  5.10304868e-02
  -1.71952564e-02 -4.99737151e-02  4.14216146e-03  3.24884355e-02
   2.51870155e-02  3.26143019e-02 -2.21882705e-02 -8.42762217e-02
   3.45548056e-02  3.91806252e-02 -3.75858992e-02  9.37914774e-02
   7.67930876e-03  5.54056801e-02 -6.66019395e-02  2.63283513e-02
   8.24104026e-02  2.98888981e-02 -7.25198835e-02 -4.89285439e-02
  -1.80251412e-02 -3.48286033e-02 -6.94932267e-02 -1.57181785e-04
   1.02311354e-02 -3.16980407e-02 -1.08487822e-01 -5.76260276e-02
   6.11228049e-02 -2.66571157e-02  2.22133249e-02  1.20488917e-02
   6.58889413e-02  4.82386909e-02 -5.36780395e-02 -1.15121342e-03
  -1.31309209e-02 -4.13369201e-02  3.70011181e-02 -5.69394119e-02
  -4.65544425e-02  7.71645159e-02 -1.22115705e-02  8.39200020e-02
   2.97977272e-02 -2.54061841e-03 -3.73345101e-03  5.67834824e-02
  -7.99975172e-02 -1.91422291e-02 -5.15839607e-02 -3.69281173e-02
  -5.35937995e-02 -2.00932045e-02 -3.42553258e-02 -1.52897596e-01
  -3.34559605e-02  3.66975330e-02 -2.43635122e-02 -6.92769587e-02
  -1.13640726e-01  2.17806753e-02  1.36851603e-02  4.77723852e-02
   1.27229774e-02 -3.44624966e-02 -2.55940109e-02 -2.33203080e-03
  -7.27634877e-02  1.18213249e-02  4.97436598e-02 -4.90638390e-02
  -2.81926598e-02  5.47618642e-02 -4.10319157e-02 -3.78603004e-02
  -1.00111654e-02 -2.53913999e-02 -5.67323416e-02 -1.06603399e-01
   3.81594226e-02  8.37411173e-03  2.98038106e-02  9.65099633e-02
   4.52038795e-02 -8.13620463e-02  8.55589658e-03 -4.82019335e-02
   2.60329377e-02  8.75748321e-03 -8.90154913e-02  7.31902337e-03
   4.87825945e-02  4.96423542e-02 -9.45509151e-02 -3.24307545e-03
   1.07456565e-01  3.62397172e-02  1.12618851e-02 -1.72304828e-02
   5.02406843e-02  6.96450565e-03 -7.67413229e-02 -4.00584899e-02
   2.48801447e-02 -8.37146677e-03  8.85040015e-02 -7.99194500e-02
   4.26719524e-02  8.12768191e-03 -2.77828332e-02  9.57793444e-02
  -1.76844187e-02 -7.34002842e-03 -6.28742054e-02 -4.35060263e-02]
 [-8.55100900e-02 -1.13799656e-02  1.78309344e-02  4.09478918e-02
   2.21998580e-02  1.24876715e-01 -7.05693802e-03  2.07096897e-02
  -2.89867981e-03 -6.78463355e-02 -6.42277859e-03 -7.23092258e-02
   1.54944509e-02 -7.07711950e-02 -6.66068271e-02  5.23604788e-02
  -3.28852832e-02  8.96075368e-02 -6.56455830e-02 -2.51854211e-02
   2.11362410e-02 -4.52445671e-02  8.22401512e-03 -4.51224670e-03
   1.79571602e-02 -2.37297197e-03  4.27104011e-02 -2.73118988e-02
  -2.78559066e-02  2.65700538e-02 -2.14332975e-02 -7.38981962e-02
  -5.95542379e-02  6.70882240e-02  4.09159251e-02  2.22803187e-02
   2.23966893e-02  2.02586479e-03  5.71664469e-03 -5.47616407e-02
   4.05189469e-02 -5.90897910e-02  1.43711567e-01 -1.23463646e-02
  -2.58584376e-02  1.31247625e-01  4.96662818e-02 -1.82870291e-02
  -4.81565855e-02 -7.26863593e-02 -5.95357269e-03 -5.93509749e-02
  -6.97188005e-02  9.40179303e-02  7.47814998e-02  8.13939571e-02
  -6.80074915e-02 -3.67878228e-02 -6.44925088e-02  3.01598273e-02
   3.30333412e-02 -4.93578091e-02 -5.16293645e-02 -6.52352199e-02
   3.97366062e-02 -4.63496074e-02  3.48148420e-02  6.70815483e-02
   3.67380679e-02 -6.20534532e-02 -4.88132872e-02  3.39858532e-02
   6.40394986e-02 -3.93316001e-02 -2.02062018e-02  7.28189126e-02
  -4.45385166e-02 -8.51604566e-02 -2.00950019e-02 -2.94607095e-02
  -6.01503216e-02  1.20835109e-02 -1.10469703e-02  4.91737016e-03
  -2.14716941e-02  6.73132911e-02  1.21960215e-01  5.26677025e-03
   2.40140781e-02  2.26063877e-02 -5.37768379e-02  7.45412381e-03
   1.19003102e-01 -1.72762491e-04 -6.30169883e-02  1.62577778e-02
  -3.27374153e-02 -9.11694020e-03 -5.99942245e-02 -9.50115453e-03
  -3.51501815e-02  5.37704565e-02 -6.17617853e-02 -9.19822678e-02
  -6.11587390e-02  1.82662755e-02  7.46444091e-02 -1.24779614e-02
  -2.50554718e-02 -2.11858973e-02  1.09279780e-02  1.54761598e-02
  -4.01675813e-02  1.19467489e-01 -2.87800748e-02  1.30611155e-02
   2.11815089e-02 -6.44317940e-02  5.01930565e-02  5.02962396e-02
  -8.34533758e-03 -8.92454460e-02 -3.27064171e-02  7.98405111e-02
  -1.77820085e-03 -1.20150037e-02  3.03828390e-03 -1.25971977e-02]
 [ 2.10599508e-02 -4.11350206e-02 -1.18915133e-01 -7.17358738e-02
  -4.82948460e-02  3.88067178e-02  4.14842255e-02  1.13668647e-02
   2.80780885e-02 -7.30943540e-03  2.53014956e-02 -9.66855437e-02
   1.12960830e-01  2.19514668e-02 -5.54374158e-02  3.06182131e-02
  -4.04324010e-02  2.50943340e-02 -5.46936020e-02 -9.93257314e-02
   7.16945156e-02 -3.31233107e-02 -4.78908271e-02  1.40135372e-02
  -1.58798434e-02  5.06742783e-02  5.79096265e-02 -4.43681180e-02
   1.76187232e-02  8.36662669e-03 -5.85536845e-02 -2.10485868e-02
   1.69962700e-02 -9.32840705e-02  8.60957801e-02 -1.90825704e-02
   2.33090986e-02 -5.30568175e-02 -7.82897845e-02 -2.07891129e-02
  -1.49293706e-01  5.96177615e-02  3.58248479e-04  9.45366547e-03
   3.44679020e-02  3.44474129e-02  6.36895373e-02 -3.97473387e-02
  -7.62520432e-02  2.71855313e-02  3.39650884e-02 -3.02777253e-02
   2.57719029e-02  1.63311921e-02  1.80577233e-01  2.50953436e-02
   5.01428321e-02  3.24597917e-02 -2.94050258e-02 -3.58296521e-02
  -4.94487723e-03 -5.81416339e-02 -5.14391921e-02 -8.27361941e-02
   9.23770070e-02 -9.20291001e-04  1.17666395e-02  1.68785919e-02
   8.59201699e-02 -5.73120117e-02  5.54438345e-02  4.34485376e-02
   1.30568072e-01  4.62518260e-02 -1.99060887e-02  1.16896138e-01
   2.52663717e-03 -1.07207634e-01  1.49441417e-02  5.67141995e-02
  -1.54757907e-03  7.00222105e-02 -2.52678897e-02  4.43001725e-02
  -4.09357157e-03  1.77444637e-01 -2.53053047e-02 -1.65999345e-02
  -1.32838194e-03 -1.25705615e-01 -5.72701823e-03 -1.02607295e-01
   8.43643211e-03  3.96059528e-02 -1.49455499e-02 -1.83420721e-02
  -6.36638254e-02 -2.34307013e-02 -1.77559778e-02  4.96658757e-02
   3.68227176e-02  5.89529350e-02 -2.06956789e-02  2.19931081e-02
  -7.87369683e-02  2.53639854e-02 -9.83473882e-02 -8.56813509e-03
   2.24703290e-02  3.07681989e-02 -7.14435726e-02 -4.01897654e-02
  -7.00070858e-02 -2.03438643e-02 -1.43872183e-02  2.21019778e-02
  -2.52649095e-02 -5.05984910e-02  5.46302693e-03  2.89724674e-02
  -7.79674575e-02 -5.24080405e-03  2.59104203e-02 -8.12151469e-03
   1.04086593e-01  2.76650582e-02  1.21770715e-02  1.90716032e-02]
 [ 4.61642072e-02 -5.39332852e-02 -2.40088091e-03  4.14292514e-02
  -6.09381357e-03  7.65562132e-02 -1.54651876e-03  2.69446950e-02
   4.15509939e-03  2.82823555e-02 -2.98899692e-02  1.98576599e-02
   4.43200544e-02 -5.45319840e-02 -1.61590166e-02 -1.13909028e-01
   1.05719315e-03 -2.76499212e-01  1.11937048e-02  1.07281795e-02
   4.01484482e-02 -1.20025910e-01 -1.81215852e-02  1.20673373e-01
  -1.92575548e-02 -3.30556519e-02 -1.21773593e-01 -7.66480863e-02
  -6.28533140e-02  1.52291618e-02  4.72975895e-02  7.98662305e-02
   6.53217435e-02  7.02321306e-02  7.63475522e-02 -6.77373707e-02
   2.97032041e-03  2.76890248e-02  8.24731141e-02  5.15618995e-02
   9.84310135e-02 -9.09675658e-03  7.64275491e-02 -1.93082877e-02
  -1.49430871e-01  2.89865639e-02  2.00468570e-01  1.87181681e-01
   4.06846441e-02 -5.53864874e-02 -6.61406964e-02  1.79247383e-03
  -9.19541419e-02  1.82794351e-02  7.07973093e-02 -1.58374161e-01
  -1.99600160e-02 -2.28640307e-02 -5.84789664e-02  1.04508214e-01
   9.11038518e-02 -4.94628586e-02 -1.40364468e-02  2.07573026e-02
  -7.26780742e-02  2.33678035e-02  8.79659206e-02  9.94724855e-02
   1.97807904e-02 -1.82415619e-02  9.36260223e-02 -9.79998782e-02
  -1.34495229e-01  3.48012596e-02 -7.67881144e-03  2.15811301e-02
   4.43544202e-02 -3.57798934e-02  3.60398367e-02 -6.31899089e-02
  -6.71205530e-03 -7.11122379e-02  4.38089948e-03 -1.89975575e-02
  -5.75568303e-02 -2.53993750e-01 -4.36005332e-02  3.46221216e-02
  -2.26907656e-01 -1.87574133e-01  4.81472723e-02  5.89861646e-02
   5.46820015e-02  2.03815419e-02  8.65008831e-02 -2.42426425e-01
   1.64209921e-02 -4.42424528e-02  3.43816802e-02 -9.58867092e-03
  -6.80665970e-02 -1.25511855e-01 -6.36512414e-02 -4.84844223e-02
  -4.85789888e-02 -7.34401494e-02  5.92998881e-03 -2.85568889e-02
  -5.32400757e-02 -3.77411470e-02 -3.77012491e-02 -9.26028118e-02
   1.04422439e-02  9.99622196e-02 -4.27846760e-02  2.98672840e-02
   5.02751954e-02 -3.36635299e-02 -1.55555367e-01 -1.27926990e-01
  -5.77536523e-02 -5.47488965e-02  5.51463366e-02 -3.40812206e-02
  -7.92121291e-02  1.46394521e-02  2.29435787e-02 -6.40113577e-02]
 [ 3.43537629e-02  1.00859255e-02  1.00541525e-01  1.96297243e-02
   4.36123163e-02 -5.48029803e-02 -1.49392579e-02  8.46907049e-02
  -4.95453216e-02 -4.02518958e-02  3.69981304e-02  3.78677249e-02
  -6.36543036e-02 -3.58989574e-02  6.21148385e-02  5.53770922e-02
   5.01440205e-02 -2.08341941e-01 -9.68612432e-02  1.05173603e-01
  -2.19018590e-02  4.20939848e-02  8.21292624e-02 -1.13538064e-01
   3.71670462e-02  7.59385824e-02  2.27306373e-02  4.32014614e-02
  -3.43128107e-02 -7.00539872e-02 -2.99752243e-02  6.67038336e-02
   7.76201067e-03  1.51972726e-01  6.40970170e-02 -4.73016612e-02
   4.95972373e-02  1.00589126e-01 -4.81712259e-03 -4.24274057e-02
  -1.96086779e-01 -5.77007234e-02 -6.64987415e-02  1.10770464e-02
  -7.46458694e-02  4.71626334e-02  8.95235166e-02 -6.36149272e-02
   9.84791946e-03 -5.59992827e-02 -1.85251385e-02  4.41057347e-02
  -1.07999273e-01 -1.22675344e-01 -2.25004524e-01 -1.97934970e-01
   3.81308794e-03  2.22363994e-02 -3.12281549e-02 -9.13167447e-02
   4.34973836e-02  6.52698129e-02 -2.91198567e-02 -6.01899885e-02
  -1.19109318e-01  3.27387974e-02 -1.31570876e-01 -4.40704450e-02
  -3.88037716e-03  3.36007215e-02  1.06817171e-01 -1.75676942e-02
  -1.46932051e-01  4.60046157e-02  3.26584280e-02  1.08986162e-01
  -3.17660794e-02  3.45645845e-02 -2.78731808e-02 -4.83862087e-02
  -2.45549604e-02  8.63795504e-02 -1.21961415e-01  2.28752438e-02
  -5.62789962e-02 -3.93765122e-02 -5.39919734e-02  1.84896868e-02
   1.69945508e-01 -9.43197757e-02  4.13422845e-02  3.71456444e-02
  -6.74392730e-02 -4.04111110e-02 -8.13482776e-02 -9.22310725e-02
   1.78475846e-02 -6.60991669e-02  4.81436327e-02  1.29526213e-01
  -5.23373298e-02  3.04832533e-02 -8.62218514e-02 -5.14319912e-02
  -3.81107368e-02  5.11761643e-02 -4.58998829e-02  2.19935644e-02
   3.70807131e-03  4.44843695e-02  3.40113305e-02 -3.00811119e-02
  -8.72212742e-03  1.36364996e-01  2.10646843e-03 -5.53454421e-02
   4.12685089e-02 -3.02365869e-02  8.07315707e-02 -2.10799817e-02
  -2.54215412e-02 -1.12268969e-01 -2.37889076e-03 -1.19016478e-02
  -1.36494771e-01 -1.24983704e-02  1.98898688e-02 -3.44078131e-02]
 [-4.70383205e-02 -2.79052407e-02 -5.16196452e-02 -2.91000623e-02
  -6.65842518e-02 -1.64466098e-01  1.84469484e-02 -1.17102131e-01
  -8.50333795e-02 -6.18786551e-02  4.94545959e-02 -6.83148801e-02
  -2.60264380e-03 -7.11412355e-02 -8.30249861e-02  1.03283793e-01
  -5.49986698e-02 -8.60871300e-02 -1.41659185e-01  1.25933066e-01
  -6.84504956e-02 -1.84256788e-02  4.10431772e-02  1.66165223e-03
   2.11623125e-02 -5.02061956e-02 -3.29290330e-02 -2.93501951e-02
  -9.00479779e-02 -6.00333922e-02  5.28615899e-02 -8.20138864e-03
  -1.57003440e-02  2.22180635e-02 -1.35991285e-02 -7.42210373e-02
   1.52024371e-03 -4.68050353e-02  4.09828592e-03 -9.69180390e-02
   5.23340032e-02 -9.03536156e-02 -9.03679207e-02 -3.47133800e-02
  -6.28615096e-02  6.12186007e-02  9.67181940e-03  1.46567121e-01
  -1.06303677e-01 -4.12126957e-03 -1.38271628e-02 -4.07265350e-02
   8.32469482e-03  9.20480210e-03  1.28620595e-01 -1.98865440e-02
   5.13034724e-02  9.01461113e-03 -4.07946147e-02 -8.36362541e-02
   9.12083983e-02  5.26316538e-02  1.09963603e-02  8.69084336e-03
  -6.00259267e-02  3.18071828e-03 -1.37531921e-01  4.63218801e-02
   9.57080349e-02 -5.64640760e-02  1.08324252e-01  4.04082984e-02
  -1.12232983e-01 -2.44663879e-02 -1.46372132e-02  1.93205312e-01
   2.18873117e-02 -4.45452295e-02 -5.75784929e-02 -2.93363854e-02
  -5.08470088e-02  8.24080557e-02  7.78063089e-02  4.92221713e-02
  -7.08750077e-03  6.91828579e-02 -2.56698877e-02  3.03312205e-02
   1.72129050e-02 -7.39700049e-02  1.69113576e-02 -6.80759773e-02
   8.37673340e-03 -7.83348922e-03 -1.03701288e-02 -6.12272061e-02
   1.19483527e-02  1.70306284e-02  4.29381095e-02  9.13774222e-02
  -2.46578734e-02  6.38384521e-02 -3.15326154e-02 -5.71928769e-02
  -2.95713376e-02 -5.14232414e-03 -1.68394931e-02 -6.97500492e-03
  -9.20857862e-03  4.43120115e-02  4.89127915e-03 -2.16344483e-02
  -1.43989120e-02  4.54850085e-02  2.48834267e-02 -1.85532980e-02
  -5.50054573e-02 -7.26346150e-02 -5.61847873e-02  3.81829143e-02
  -4.97007854e-02 -2.12418437e-02 -7.37892538e-02 -1.18115999e-01
   1.01919599e-01 -4.05605398e-02 -6.48393482e-02 -1.24561321e-02]
 [-4.50509451e-02  3.36432643e-03  3.52734365e-02 -5.00179306e-02
   9.15546808e-03 -5.97738773e-02  1.65127590e-02 -1.86848622e-02
   4.87263985e-02 -1.32962428e-02  1.68180056e-02 -7.41007775e-02
   2.52681673e-02 -2.47442070e-02 -2.31576450e-02 -8.99824277e-02
   2.05442682e-02  2.04368271e-02 -6.72213454e-03 -9.05994698e-02
  -7.01601133e-02  5.79069136e-03 -6.16739057e-02  9.88853350e-02
  -1.43674975e-02  4.82821353e-02 -1.09898247e-01 -6.60418943e-02
  -1.54007748e-02 -9.76351798e-02 -6.45285472e-02 -3.51839736e-02
  -7.21292719e-02 -2.22197741e-01 -8.74400139e-02 -6.03205822e-02
   1.45955682e-02 -4.91542406e-02 -6.78657601e-03  3.36610191e-02
  -5.90170175e-02  6.13109320e-02  4.97241877e-02 -6.94127828e-02
   8.28237087e-02 -7.16161495e-03 -2.97459900e-01 -2.36083530e-02
   2.85049938e-02 -2.62782741e-02  4.61540632e-02  6.62361225e-03
   4.23274711e-02  1.27212077e-01 -2.03936808e-02  7.81965256e-03
  -4.84778881e-02  7.34467581e-02 -1.43276863e-02  5.59180975e-02
   1.22932531e-02 -6.65214434e-02  5.56235202e-02 -3.99754606e-02
  -7.44722486e-02 -5.09249456e-02  4.29613423e-03 -1.65998235e-01
  -4.43693995e-02 -5.50325885e-02 -1.02714144e-01 -1.02612628e-02
  -7.57571012e-02 -3.59378308e-02 -6.44801706e-02 -1.12303019e-01
  -2.23373733e-02 -1.29685342e-01 -3.13136764e-02 -2.51996540e-03
  -2.48091519e-02 -1.26595974e-01  1.41397968e-01 -2.43849922e-02
  -2.18654890e-03 -1.11905402e-02 -1.63426455e-02  4.67520915e-02
  -5.84006123e-02 -3.83404978e-02  9.59970243e-03 -8.41613710e-02
   6.33705705e-02 -4.59067635e-02 -3.64898480e-02  1.01953603e-01
  -1.88659094e-02 -2.36178413e-02 -2.24641953e-02 -8.09751451e-02
  -7.35591352e-02  3.37694846e-02  2.07705479e-02 -9.72888246e-03
  -1.92757379e-02  6.51885271e-02 -8.09729695e-02  3.80718410e-02
   1.24713413e-01  2.91240290e-02 -1.14225894e-01 -6.94232658e-02
  -6.27914956e-03 -1.58610538e-01 -6.89519197e-03  4.67633493e-02
  -5.53310998e-02  1.13899540e-02  3.29104811e-02 -1.08134709e-02
  -6.38892874e-02 -1.84251145e-02 -2.83439481e-03  1.72201879e-02
   1.51244504e-03 -4.93623829e-03  3.32530625e-02  5.64844832e-02]
 [-2.55885962e-02 -8.37023091e-03 -1.31319687e-01 -7.97257293e-03
   3.07729058e-02  1.14655748e-01  3.29420641e-02 -4.36733942e-03
  -3.68316332e-03 -1.00949764e-01  4.89740297e-02  5.65614924e-02
  -4.38881852e-03 -6.00597858e-02  2.83515938e-02  4.25550193e-02
   1.32141504e-02  4.44797240e-02 -1.57349091e-02  1.00316018e-01
   7.71782473e-02 -1.64761171e-02  9.24684294e-03  2.81415544e-02
   4.23048288e-02 -1.52039286e-02 -4.94962977e-03 -1.92785114e-02
  -1.08808458e-01 -7.58427801e-03 -7.02517927e-02  1.86729636e-02
  -2.93360092e-02  7.04713240e-02  1.18389949e-01  2.54072789e-02
  -5.91500700e-02 -4.35297042e-02  4.18288894e-02 -5.51859923e-02
   9.34310034e-02 -4.06382121e-02  1.90634415e-01 -4.18306105e-02
  -3.69362459e-02  1.13166846e-01  4.30428162e-02  4.85980660e-02
  -1.86417364e-02 -1.10803023e-02 -2.27556117e-02 -1.84295662e-02
  -1.05355240e-01 -9.80303288e-02  1.06064547e-02 -7.89383575e-02
   1.40970098e-02 -1.08635187e-01 -1.80928055e-02  1.01292476e-01
  -3.10058985e-02  5.30515313e-02  3.71083431e-02 -1.35034723e-02
   1.80693232e-02 -5.79947010e-02 -5.17515987e-02  1.58384040e-01
   9.22084451e-02 -3.38116707e-03  7.37211853e-02 -2.29136739e-02
  -3.07601206e-02  3.44845988e-02 -5.47138900e-02 -4.16548103e-02
  -8.48630443e-02 -6.50075525e-02 -3.63968126e-02 -1.17599182e-02
  -6.45227134e-02 -5.94578274e-02 -3.16890813e-02 -5.00080688e-03
  -2.27637705e-03  8.90331529e-03  5.11646830e-03 -5.22884130e-02
   3.88788953e-02  7.33699941e-04  2.72122361e-02  1.02764450e-01
   1.12118453e-01 -5.10891378e-02  5.91454320e-02 -3.05774242e-01
  -6.20953217e-02  2.40541454e-02  2.80721169e-02  3.16051506e-02
  -8.58716294e-03  9.78786200e-02 -1.79521106e-02 -1.06483169e-01
  -4.57013138e-02 -1.76164377e-02  8.64963233e-02 -4.66313399e-02
  -1.67839080e-01 -9.22826398e-03  6.39452562e-02  9.26501211e-03
  -6.88473433e-02  1.04110204e-01  3.86825949e-02 -5.02575338e-02
  -1.68709958e-03 -2.37520188e-02 -6.07686862e-02 -6.82714432e-02
  -7.58789331e-02 -4.13368456e-02 -3.28103304e-02  5.61722443e-02
   8.80618300e-03 -2.66505368e-02 -9.70940292e-03 -3.96597236e-02]
 [-6.15093373e-02 -4.54237163e-02  7.29571357e-02  2.23087277e-02
  -2.36862507e-02  6.39921129e-02 -1.64367072e-02  8.66842940e-02
  -1.24006218e-03 -3.59471440e-02  4.36062925e-02 -4.13835160e-02
  -2.79022977e-02 -1.16734868e-02 -1.45896137e-01 -4.07878868e-02
   1.39902392e-02 -5.03565446e-02 -5.79538085e-02 -1.51972458e-01
   2.33263616e-02  1.75490836e-03 -5.30489385e-02 -2.09637638e-02
  -6.07316941e-02 -2.24546716e-02 -2.17222665e-02 -6.81998581e-02
   4.07042131e-02  1.09928474e-01 -3.69232371e-02 -1.06893510e-01
  -2.68283696e-03 -2.70310324e-02  6.38924614e-02  1.04238950e-02
  -4.73885499e-02 -2.17306092e-02 -9.32979584e-02  2.33223848e-02
  -2.51913965e-01  7.03856722e-03 -8.05441737e-02  3.53708342e-02
  -7.00573102e-02  3.09251621e-02  4.10348214e-02  5.15290536e-02
   1.81151386e-02  5.50148748e-02  2.13459749e-02  9.66052432e-03
   3.81189734e-02 -6.68590963e-02  1.75225526e-01  1.22853210e-02
   2.59888358e-02 -4.59514968e-02 -2.27016862e-02 -3.29076238e-02
  -8.59096795e-02  5.50363138e-02 -4.31626886e-02 -3.88631038e-02
   8.53796452e-02 -2.47602165e-02 -6.08164165e-03  5.00589758e-02
  -9.79030803e-02  2.64161751e-02  4.72194813e-02  3.83444987e-02
   3.95611040e-02 -2.16815732e-02 -5.00897691e-03 -4.19285297e-02
   2.61419453e-02 -3.27569023e-02 -6.06800057e-02  3.68073955e-02
   1.10003082e-02  1.64392829e-01 -3.04598659e-02  3.24652088e-03
  -2.15601865e-02  1.19634569e-04 -1.12903185e-01  1.89552680e-02
  -1.45614192e-01 -1.30742088e-01  1.53723974e-02  1.26921823e-02
  -1.25603825e-01 -1.90755632e-03  5.13721853e-02 -1.80279575e-02
   2.81683188e-02 -6.91768676e-02  9.17066913e-03 -1.49047673e-02
  -4.18774821e-02 -5.43366820e-02 -2.62796544e-02  5.13777658e-02
  -2.17830967e-02  4.31230254e-02 -2.49460135e-02  1.58864744e-02
   8.95403177e-02 -3.65164019e-02 -3.59310992e-02 -1.30504640e-02
   7.50008598e-03  1.51502825e-02  1.44041870e-02  2.20119338e-02
   3.35079394e-02 -1.00327861e-02 -4.24622418e-03  4.33844402e-02
  -1.44139007e-01 -2.11676694e-02  1.34655423e-02 -6.65268153e-02
   1.93456218e-01  2.71980613e-02  3.92814875e-02 -1.71736116e-03]
 [ 2.62037814e-02 -1.92264728e-02 -6.33275807e-02  8.60452875e-02
  -6.03581313e-03  3.92076299e-02 -4.49033827e-02 -5.16168140e-02
   1.07219461e-02 -1.14641249e-01 -1.35674570e-02 -1.15592755e-01
   4.54719998e-02  1.56409629e-02  7.20401779e-02  7.97086284e-02
  -1.16794622e-02 -2.02157184e-01 -6.47694468e-02 -7.71582648e-02
  -1.38470516e-01 -4.37673852e-02 -6.88467771e-02  9.93026420e-02
  -4.35370319e-02 -9.05124173e-02  8.20407569e-02 -1.94643289e-02
  -1.23675004e-01 -6.32020757e-02 -2.05752198e-02  2.30296757e-02
   4.40418608e-02  2.41845436e-02  6.67037815e-02 -2.22055428e-02
  -3.06643615e-03  1.67195480e-02  1.87064009e-03 -6.22547679e-02
  -3.97888720e-02 -2.30473187e-02 -1.05730139e-01  5.89699671e-02
   3.29972692e-02  3.53540257e-02 -4.86420766e-02  2.38072313e-02
   5.67094497e-02  1.39217377e-02 -6.42451197e-02 -8.45837072e-02
   4.39348966e-02 -6.91421852e-02  8.98655802e-02 -1.30053371e-01
   1.69285052e-02  3.31899114e-02  5.64198419e-02  4.73918729e-02
   2.71949172e-01 -2.65350509e-02  8.83172732e-03  8.63255188e-02
  -7.05147311e-02 -7.66681060e-02  1.29184559e-01  1.25057071e-01
   3.54315192e-02 -4.74536717e-02  7.40918219e-02 -6.98056491e-03
  -6.74141794e-02 -1.12807518e-02  5.02944808e-04  1.78457409e-01
  -1.04042068e-02 -5.83860055e-02 -1.38059510e-02  5.66133708e-02
  -3.55139188e-02  4.07170989e-02 -7.15559795e-02  3.52550931e-02
   4.73079830e-02 -2.08650641e-02  5.86257093e-02  1.20766023e-02
  -1.07700832e-01 -1.36400267e-01  6.45405846e-03  7.85633996e-02
   1.27540082e-02 -1.56457238e-02  7.09426850e-02 -9.51578021e-02
  -5.56179099e-02 -3.34775858e-02 -3.79194245e-02 -3.22082117e-02
   2.87017822e-02  8.66426304e-02 -6.38320148e-02 -2.40028501e-02
  -2.64437646e-02 -8.53266716e-02 -6.07333109e-02 -7.32171461e-02
   8.14719349e-02 -4.12730500e-02  3.02850660e-02 -8.44786912e-02
   4.10508923e-02  9.03090015e-02  5.32570593e-02 -1.41454088e-02
   3.23340041e-03 -2.58824825e-02 -1.64095521e-01 -6.20608740e-02
   1.16093410e-02 -6.85970783e-02 -3.89173478e-02 -2.48334154e-01
   1.87063348e-02 -4.29288521e-02  1.03000998e-02 -2.42486669e-04]
 [ 5.11811301e-02 -5.70281073e-02  1.18426785e-01 -5.30078709e-02
   1.66048892e-02 -7.53513649e-02 -3.48186046e-02  1.60228051e-02
   6.87263906e-03  4.46712598e-02  4.74002510e-02  5.99897355e-02
  -1.07303426e-01 -4.77403104e-02  1.36756385e-02  1.62187442e-01
   2.44107340e-02 -1.07228116e-03 -9.84475166e-02  1.73349008e-01
   3.35571170e-02 -1.12253642e-02  2.97548417e-02 -1.23497523e-01
  -3.00855469e-02  5.08115813e-02 -6.52382299e-02  2.51323953e-02
   8.02091360e-02 -1.85631830e-02  5.28976917e-02 -1.96645909e-04
  -1.67348552e-02  9.02942289e-03  3.33019756e-02 -1.04381070e-01
  -4.95009795e-02  1.08845219e-01 -4.59428020e-02  1.60464272e-02
  -4.57049310e-02 -3.56028602e-02 -4.57763821e-02  1.30812824e-02
  -9.80374217e-02 -7.29933828e-02 -5.36372364e-02 -1.05008423e-01
   4.33331169e-02  4.76911701e-02  1.34559385e-02  3.48567143e-02
  -1.63884342e-01 -7.66731873e-02 -1.62711278e-01 -2.04984620e-01
  -4.23166202e-03 -3.96066904e-02 -6.63103834e-02 -6.97649345e-02
  -6.90086260e-02  3.46751250e-02  3.42848636e-02 -8.14070553e-02
  -1.42682984e-01 -7.14268908e-02  7.33271800e-03 -4.66703586e-02
   8.81624669e-02  5.50184920e-02  1.35805886e-02  5.11620007e-02
  -4.81978022e-02  4.53309715e-02  2.78071091e-02  1.56831890e-02
  -2.78315563e-02  4.31058705e-02 -2.80866809e-02  3.28123830e-02
  -4.95316125e-02  3.75260897e-02 -1.38854071e-01 -5.45172095e-02
  -3.48138027e-02 -6.05935007e-02 -2.75372993e-02  5.42435721e-02
   1.83343679e-01 -3.88190821e-02  2.91390028e-02 -4.18210402e-02
  -7.74267092e-02  2.63661500e-02 -9.20433924e-02 -1.16339408e-01
  -1.79110430e-02  1.80145772e-03  3.44295101e-03 -4.35125902e-02
  -1.07012922e-02 -1.06599825e-02 -7.21337572e-02 -2.13815607e-02
  -5.90053760e-02  5.37502989e-02  3.04229800e-02  9.73859727e-02
   1.59403328e-02 -3.85795012e-02  6.55116066e-02 -1.83373448e-02
  -9.89527255e-02  8.44370574e-02 -5.01089469e-02 -1.34856347e-02
   4.84417081e-02  2.49522887e-02  2.16390248e-02  3.15902010e-02
   9.47522521e-02 -1.43533200e-01 -2.68274033e-03 -1.17882481e-02
  -1.55892909e-01  1.68882050e-02  3.59886289e-02 -3.89926247e-02]
 [ 1.62279066e-02  4.78170440e-02 -1.46651072e-02  3.85822020e-02
  -5.28815668e-03 -5.04129007e-02 -1.91341061e-02  4.38597798e-03
   4.66606952e-03 -4.04452980e-02 -3.69096771e-02  5.95145561e-02
  -5.44097461e-02 -1.52339684e-02 -2.04747897e-02  1.10364705e-01
  -2.79687941e-02 -6.52423948e-02  7.91149912e-04 -1.47312060e-02
  -7.51853362e-02 -5.30385226e-02 -3.46049145e-02  1.04289474e-02
  -5.64535754e-03 -1.61751127e-03  9.76707861e-02  4.10719812e-02
   3.31022777e-02  5.34421727e-02  1.53467907e-02  8.58101770e-02
  -2.10680421e-02  6.94182292e-02  5.54064475e-03 -1.30013796e-02
  -1.46439970e-02 -3.50395367e-02 -4.75458428e-02 -3.24060842e-02
  -2.13608686e-02 -4.74978834e-02 -2.91956812e-02 -1.60160121e-02
  -7.44307116e-02 -2.66888123e-02  7.07013905e-02  8.43259096e-02
  -4.06432748e-02 -1.22992340e-02  5.34930974e-02  2.37346292e-02
  -3.77685949e-02 -1.61872595e-03  1.12250417e-01 -6.59633130e-02
   2.20284574e-02 -1.52764516e-02  1.69814546e-02 -3.06945387e-02
  -9.03941691e-02  3.82429501e-03 -3.86748947e-02  7.36724772e-03
   2.62557268e-02 -2.08459981e-02  4.01089825e-02  1.05229899e-01
   4.61236425e-02  2.56472211e-02 -1.60358306e-02  3.07976808e-02
  -7.04616830e-02  1.83873083e-02 -2.57266667e-02  6.20673113e-02
   4.26611267e-02  1.62436590e-02  4.12624441e-02 -9.90501978e-03
  -6.49406239e-02  1.13600008e-01 -1.63845606e-02 -1.65876877e-02
  -4.81083281e-02 -2.52972655e-02 -4.89141978e-02  3.65171172e-02
   1.45774022e-01 -2.05002613e-02 -5.36688715e-02 -1.07772142e-01
   9.97392684e-02 -7.19945580e-02  3.82860154e-02 -1.04385316e-01
  -1.25211636e-02  2.68247854e-02  1.19635575e-02  1.01397082e-01
   3.85314156e-03  8.94731134e-02  2.17363071e-02  5.40217608e-02
  -4.34161089e-02  1.17745318e-01  8.96109343e-02 -7.22899213e-02
  -4.43523638e-02 -1.32146366e-02  7.67644718e-02  3.18899564e-02
  -9.43827108e-02  1.27889767e-01 -5.01781106e-02  2.65495814e-02
  -3.86961251e-02 -5.21310717e-02  5.46398200e-02 -3.59296724e-02
  -3.51749063e-02 -9.80561525e-02 -2.48949276e-03 -1.67837933e-01
   6.51004091e-02 -2.01069508e-02  2.26040203e-02  4.48112935e-02]
 [-6.79876879e-02  3.82619798e-02  1.36582609e-02 -4.61799018e-02
   2.20337920e-02 -1.09349594e-01  1.90255959e-02  1.71576459e-02
  -5.63195087e-02  2.24247258e-02 -6.20572828e-02  2.53855414e-03
  -8.39174315e-02 -2.48920973e-02 -8.12698603e-02 -5.78512475e-02
  -2.11508907e-02  4.53672260e-02 -1.87896602e-02 -8.72298032e-02
  -8.47814232e-03 -3.93579947e-03 -1.07013872e-02  2.46988535e-02
   2.32167747e-02 -8.15188587e-02 -5.08393496e-02 -2.32288055e-02
  -2.47131046e-02 -1.31055847e-01 -2.87210755e-02  9.27803759e-03
   3.80218737e-02 -1.99459314e-01 -7.11209029e-02  1.70684103e-02
  -5.58446087e-02 -3.84816295e-03 -6.33771643e-02  4.08562571e-02
   3.48662622e-02  3.26092206e-02  2.13537216e-02  6.13747339e-04
   5.87553382e-02 -1.88959762e-02 -2.58524150e-01 -7.54882954e-03
   5.04984632e-02 -5.74760213e-02 -6.67281598e-02  1.55249378e-03
   7.96136856e-02  2.74535883e-02 -2.91901268e-02  7.14527220e-02
  -3.77766788e-02  7.04422370e-02 -1.57989133e-02  3.02185789e-02
  -2.04750057e-02 -6.85309246e-03  5.32651097e-02 -1.06532216e-01
  -7.14020729e-02 -5.29514663e-02  2.16562673e-02 -1.34025052e-01
  -1.39827386e-01 -6.14802763e-02 -1.74898356e-02  3.16065103e-02
  -3.53800468e-02 -1.92370713e-02 -1.81143321e-02 -1.11490890e-01
  -1.28858751e-02 -5.33440821e-02 -1.30679607e-02 -3.47078703e-02
   2.86613815e-02 -6.01221025e-02  6.84739873e-02 -5.19729825e-03
   2.10450450e-03 -5.76492213e-02 -6.64323270e-02 -4.12082672e-02
  -8.06713998e-02  1.21062985e-02  2.76695769e-02 -6.57927319e-02
   5.76928183e-02  4.19516526e-02 -1.86132658e-02  8.76093283e-03
   2.07478181e-02 -8.16235319e-02  2.18525007e-02 -6.33592457e-02
   4.63237762e-02 -6.57289848e-02  2.40491480e-02  6.52779965e-03
   3.55152972e-02  6.69588447e-02 -6.44384921e-02 -1.85898971e-03
   1.28286138e-01 -7.16624549e-03 -2.97041461e-02 -7.07194954e-02
   2.55770758e-02 -9.11877751e-02 -5.44549450e-02 -5.88483475e-02
  -3.13441791e-02  1.42360553e-02  2.51573008e-02  2.94276047e-02
  -6.90609068e-02 -7.29108527e-02 -6.28699437e-02 -1.04932338e-02
   6.91639557e-02  2.92468388e-02  3.83255333e-02 -2.83037545e-04]
 [-6.44141750e-04  1.36813410e-02 -9.39275324e-02 -1.87014916e-03
  -5.47864437e-02  1.09542973e-01 -1.28538404e-02 -3.62753198e-02
   7.76097272e-03 -3.76099870e-02  1.81907006e-02  8.92411321e-02
  -4.11592387e-02 -4.07310799e-02  9.83604640e-02 -1.00820847e-02
  -6.40997514e-02  3.62355895e-02  1.18575990e-02  6.46906570e-02
  -9.38772317e-03 -1.95530970e-02 -3.97401825e-02 -7.76404738e-02
  -9.97899938e-03 -2.10677506e-03  6.62457719e-02  3.43445577e-02
  -9.61263850e-02  2.74714362e-03  1.93749126e-02  2.36413106e-02
  -5.21023944e-02  3.86790857e-02  1.57102905e-02 -3.83127183e-02
  -3.05439830e-02  3.37843713e-03 -4.18160483e-02  2.91142203e-02
   7.07553774e-02 -6.22440986e-02  8.12479109e-02  4.28769412e-03
  -3.91836129e-02  9.41592976e-02  9.03081745e-02  5.66499680e-02
  -2.40120068e-02  3.03902104e-02  8.31623096e-03 -4.80432436e-02
  -1.06616551e-02 -3.44361663e-02  1.63641516e-02 -8.64824057e-02
  -6.29063398e-02 -2.86991391e-02  8.28988757e-03  5.74206635e-02
   7.60050192e-02 -2.93895304e-02 -6.96190968e-02 -3.04847658e-02
   8.59743804e-02 -2.02064998e-02 -4.96385209e-02  5.57836890e-02
   5.78312110e-03  2.87238713e-02  5.43339513e-02 -6.47209883e-02
  -4.66904417e-02 -5.58792166e-02 -1.46155264e-02  2.55599618e-02
  -2.96924971e-02 -7.98088312e-02  2.98268311e-02 -4.41707298e-02
  -7.77474139e-03  5.27817244e-03  1.28692761e-01  1.10682631e-02
  -6.21661432e-02  1.29156902e-01 -1.26584610e-02 -1.26313604e-02
   1.04278937e-01  1.03007711e-01  5.26435152e-02  1.19150788e-01
   5.52131385e-02  3.73805426e-02  4.03932855e-02 -1.02941401e-01
  -5.22358939e-02 -5.05954958e-03  4.24564481e-02  1.21849217e-02
   8.17412417e-03  2.31158044e-02 -5.14006764e-02 -6.33128881e-02
  -1.12279197e-02 -4.80156094e-02  5.91725968e-02  3.00720930e-02
  -8.41444880e-02  3.05673797e-02 -2.68128258e-03 -4.30086479e-02
  -2.76181921e-02  1.16995826e-01  2.32529826e-02 -3.45335864e-02
  -4.09542732e-02 -1.64433531e-02 -6.02950193e-02 -6.60315976e-02
  -2.84607131e-02 -3.18440236e-03  4.98832427e-02  2.96286624e-02
  -7.14363484e-03 -1.50594581e-02 -5.54708019e-02  1.99992545e-02]
 [ 1.98693853e-02  4.35836539e-02  7.40105892e-03 -5.48516363e-02
  -2.88002249e-02  2.02601366e-02  3.35341133e-03  1.51410297e-01
  -5.08835502e-02  6.17831051e-02 -7.73824798e-03 -4.08947207e-02
   3.09175085e-02 -2.79873069e-02 -4.63440605e-02 -4.00933735e-02
   8.46801908e-04 -1.28994938e-02 -5.20755351e-03 -6.20126538e-02
   1.00878209e-01  7.02838553e-03  3.74617912e-02  1.55122867e-02
  -1.70101970e-02  4.91719022e-02 -4.97180261e-02 -4.61798906e-02
   4.52752933e-02  8.34814385e-02  2.20701788e-02 -3.03464532e-02
  -5.21977879e-02  4.20163237e-02 -1.33757824e-02  1.18814418e-02
  -3.67494784e-02 -6.71754628e-02 -1.07761569e-01  1.74101926e-02
  -2.38547444e-01 -2.72334330e-02 -7.07441568e-02 -4.14814129e-02
  -6.38844743e-02 -3.62031721e-02 -6.33623749e-02 -1.07776262e-01
  -6.50483146e-02 -2.70954575e-02  2.14761272e-02  5.34403138e-03
   6.69181570e-02 -6.72358125e-02  1.92308441e-01  7.59750977e-02
  -2.12545265e-02 -1.65342446e-02  9.03108995e-03 -1.40877172e-01
  -2.22429987e-02 -1.70642193e-02 -3.60905975e-02  1.06648086e-02
   3.12269796e-02 -1.40670585e-02 -7.54510835e-02 -5.41710071e-02
  -4.84582596e-02  3.27259712e-02  1.18517183e-01  1.53399007e-02
  -7.97538459e-03 -2.33626757e-02  8.58745817e-03 -3.22711281e-02
  -1.73791163e-02 -2.79199947e-02 -3.95547412e-02  9.98609513e-03
  -5.72518855e-02  1.31958395e-01 -1.14932798e-01 -5.65340295e-02
  -2.53878795e-02  1.58349872e-02 -8.83121341e-02 -3.43970372e-03
  -6.68795854e-02 -1.86877549e-01 -4.95166220e-02  2.39108223e-04
  -8.93699676e-02 -5.84629439e-02 -4.83834296e-02 -3.89749147e-02
  -6.59700762e-03 -1.38982479e-02 -5.93005773e-03  3.06662992e-02
  -3.66081074e-02 -2.02363372e-01 -1.59085467e-02 -2.36684158e-02
   3.60204615e-02  8.59376788e-02  2.72829682e-02 -4.28949781e-02
   3.16052698e-02 -5.40634543e-02 -1.68810934e-02 -1.55767370e-02
  -1.26140237e-01  6.81742355e-02  2.22005546e-02 -1.83613366e-03
  -9.03453827e-02  4.08404619e-02  1.48750860e-02 -5.95784821e-02
  -1.48490474e-01 -4.21262812e-03 -2.79826783e-02 -7.29376450e-02
  -2.80913413e-02 -7.87292700e-03  3.36907990e-02  3.88575941e-02]
 [-4.63170633e-02 -3.71508598e-02 -1.02956213e-01  1.79361831e-02
   1.23496242e-02  1.11517794e-01  3.25352675e-03  1.99762080e-02
  -7.98155665e-02 -1.33822318e-02 -3.44316140e-02  8.57026428e-02
  -1.57664008e-02  2.70293728e-02 -1.85221378e-02  1.61298085e-03
  -7.69212563e-03 -1.25401482e-01 -1.17029116e-01  1.90349594e-02
   6.97315037e-02  3.32299224e-03 -7.01811910e-02 -7.74911642e-02
  -1.02995578e-02 -1.58911999e-02 -1.51483435e-03 -4.11006026e-02
   7.04446435e-02  1.40973181e-01 -4.87163924e-02  9.71692801e-02
   1.30699165e-02  2.81434581e-02  7.48392642e-02 -3.03629949e-03
  -8.36717859e-02  1.80233866e-02 -4.25582156e-02 -1.21319657e-02
  -5.84793054e-02 -6.53111637e-02 -2.28282824e-01 -2.92386934e-02
  -1.30776372e-02  5.87521791e-02 -1.53104728e-02  1.23862445e-01
  -1.52165545e-02 -5.97549155e-02 -1.38805062e-03 -3.89477462e-02
   1.08798027e-01 -1.95306242e-02  1.47809848e-01 -1.01370320e-01
   2.50136945e-02  2.75196638e-02 -1.89508963e-02  8.38531554e-02
  -4.92845885e-02 -5.43521121e-02  2.28259377e-02 -3.95411029e-02
  -6.61723092e-02  3.21423672e-02 -1.12942480e-01  7.06498250e-02
   1.15099348e-01 -3.24525610e-02  1.47638861e-02 -4.95342091e-02
  -1.21164292e-01 -2.52062622e-02 -3.77266519e-02  1.49921685e-01
  -6.34622648e-02  4.93789231e-03 -3.52239870e-02 -7.83333182e-02
   8.81858263e-03 -3.95691730e-02  6.07840344e-02  7.92605430e-03
  -1.81491149e-03 -8.86236355e-02  1.31709278e-02  5.51327281e-02
  -4.36029537e-03 -1.34104773e-01 -5.80057800e-02  6.76107854e-02
   1.76439852e-01  1.26027269e-02  1.16627924e-01 -1.45715654e-01
  -3.36107649e-02  3.22988965e-02 -6.07457757e-02  1.05140314e-01
  -4.39566299e-02  1.54436380e-01  4.25365902e-02  9.25973281e-02
  -2.47950144e-02 -2.83096246e-02  7.54416808e-02 -9.85827670e-02
  -6.78613335e-02  4.97392565e-02  6.88315034e-02  1.54682100e-02
   8.12152103e-02  2.08144754e-01  3.97176184e-02 -1.02384545e-01
   1.80179588e-02  9.98611823e-02 -1.48485437e-01 -7.01377541e-02
  -2.29563508e-02 -1.10640302e-02 -2.38863975e-02 -3.02879930e-01
   1.22581765e-01 -5.93924113e-02 -4.88708951e-02 -6.29824325e-02]
 [-2.00892985e-03  8.03676248e-03  7.08521828e-02 -2.58493870e-02
   2.09586229e-02  5.20155504e-02 -3.11740786e-02 -4.35071550e-02
   2.32504979e-02 -6.23314157e-02  1.82872564e-02  3.39191221e-03
  -1.13202788e-01  3.54267061e-02  2.81607523e-03  1.14433491e-03
  -5.80271445e-02  4.54182886e-02 -2.96196193e-02  9.81931388e-02
   4.42928821e-02 -3.54807563e-02  3.64721902e-02 -6.53330237e-02
   3.92469391e-03  3.51182334e-02 -3.16456929e-02 -6.49012253e-03
   3.86610702e-02 -2.24020228e-01  3.33725736e-02  1.23635620e-01
   6.43528823e-04 -3.79381850e-02  2.14738667e-01 -5.57121113e-02
  -2.31412351e-02 -1.05869854e-02  4.22921516e-02  5.52785918e-02
   1.56679600e-02 -3.05837747e-02 -9.32157934e-02 -2.06692759e-02
  -2.21291687e-02  7.45967031e-04 -1.04292393e-01  2.19626594e-02
   4.05429257e-03  1.70155130e-02  4.45567369e-02  1.54009983e-02
  -5.88153750e-02 -3.79636697e-02 -1.89430445e-01 -2.30389461e-01
   3.89081761e-02 -5.21474890e-02 -3.02191619e-02  2.92437449e-02
  -1.55183986e-01  1.32351041e-01  4.13854606e-02  3.28341452e-03
   4.16060258e-03 -5.13609275e-02  3.11257821e-02 -1.44000813e-01
   1.00471295e-01 -4.15167622e-02 -2.91259903e-02 -2.51572262e-02
  -1.83681231e-02 -1.91439167e-02  5.49297854e-02  2.32157633e-02
  -4.63289618e-02 -2.09889747e-02  2.70663649e-02 -5.37913851e-02
  -6.48713484e-02 -6.18700609e-02 -4.13978007e-03  1.60705615e-02
  -4.44662645e-02 -1.61583591e-02 -2.03997642e-02  3.82581539e-02
   1.16502680e-01  1.51958205e-02 -3.11985575e-02  4.23368590e-04
   1.07748779e-02  4.35796455e-02 -7.39069134e-02 -7.48836156e-03
  -5.30771762e-02 -3.70013379e-02 -1.59466229e-02 -1.40827551e-01
  -4.38510180e-02 -1.01199649e-01 -1.00672401e-01 -7.37670213e-02
  -3.21969464e-02 -2.61628088e-02  3.30022052e-02 -2.89741084e-02
   3.70732285e-02 -5.08454219e-02  6.54539391e-02 -1.95727162e-02
   1.74507629e-02 -1.00168943e-01  5.09025864e-02 -2.58387811e-02
   2.67752614e-02 -1.54895075e-02  3.07215634e-03 -6.35493845e-02
   3.10891755e-02 -5.76090142e-02 -4.07191291e-02 -5.06168325e-03
  -1.18735835e-01 -2.76897456e-02  2.56573483e-02  5.02831861e-02]
 [ 4.61436361e-02  3.63159031e-02 -4.83096875e-02  3.79777737e-02
  -7.19901249e-02 -5.84715270e-02  1.29238246e-02  9.29152071e-02
   2.63603721e-02 -3.36118648e-03 -5.72433658e-02 -2.08784826e-02
  -3.74582708e-02  1.75412167e-02 -1.23684086e-01  8.22979361e-02
  -6.64461777e-02 -1.22495286e-01 -3.91891599e-02  1.13607369e-01
   4.00105445e-03 -8.50980133e-02 -5.85777909e-02 -7.97637701e-02
   3.61891091e-02 -2.91610206e-03  5.11039644e-02  6.79212809e-03
  -1.00375793e-03 -1.40723055e-02  7.77332485e-03 -1.15525536e-02
   1.16181746e-02  6.54363558e-02 -3.62676457e-02 -4.92824502e-02
  -7.01495213e-03  1.52940787e-02 -1.67402141e-02  6.50235498e-03
   5.51538467e-02 -2.02453993e-02  1.87314823e-02  5.37171075e-03
  -1.52848318e-01 -2.14608684e-02  7.99421221e-02  1.28332660e-01
   2.97946464e-02  2.15067063e-02 -3.57552506e-02  3.37705687e-02
   4.49036248e-02  4.12741192e-02  2.88912915e-02 -6.63826913e-02
   9.91664175e-03 -1.01573646e-01 -7.16806650e-02  6.47631427e-03
  -9.11970437e-02 -2.91021727e-02  3.86327952e-02 -1.17428442e-02
  -1.18096195e-01 -5.60646020e-02 -2.29847446e-01  6.64596260e-02
  -1.01674674e-02 -4.24131155e-02 -1.77928228e-02 -5.70723191e-02
  -1.18727952e-01 -2.23366602e-04 -8.13120902e-02 -4.93960232e-02
  -4.16732132e-02  1.07046086e-02  1.29406033e-02  1.62338745e-02
   5.89553686e-03  1.10553280e-01 -4.57800971e-03  2.28873752e-02
   3.89385670e-02 -4.44233716e-02  2.52483822e-02 -2.59889122e-02
  -4.40605469e-02 -6.80040047e-02 -5.43513373e-02 -1.26712814e-01
   5.84242353e-03 -3.07230055e-02 -1.50181577e-01  4.91413735e-02
   4.45641689e-02  1.25525482e-02 -4.20726612e-02  1.08268240e-03
   2.39520222e-02 -7.45558962e-02 -1.15120880e-01  2.54856534e-02
  -3.28910425e-02 -1.05561605e-02  1.09867536e-01  4.42617014e-03
   1.56548187e-01 -3.89086716e-02  6.91736490e-02  5.12484275e-02
  -4.56722938e-02  1.24972593e-02 -5.92988841e-02 -6.13935776e-02
  -2.24549882e-02 -6.68179803e-03  8.50334316e-02  4.98862527e-02
  -8.75970442e-03 -4.88415584e-02 -3.78571823e-02 -1.11368723e-01
   5.97656481e-02  4.20504250e-02  3.68993469e-02 -2.34535821e-02]
 [-5.97671419e-02  3.53862792e-02 -8.64214380e-04 -7.72880986e-02
   2.72430312e-02 -4.49114665e-02 -6.29242659e-02 -9.67205986e-02
  -1.91799551e-02 -4.57085371e-02 -1.62330493e-02 -2.78680539e-03
  -6.86935708e-02  1.11092664e-02 -9.93071683e-03 -7.92210326e-02
   1.81632563e-02  1.29731465e-03 -3.74431871e-02 -6.40718117e-02
  -1.03489079e-01  2.59810779e-02  1.82641130e-02  5.89520447e-02
  -5.23748212e-02 -5.39820418e-02 -8.11928138e-02 -5.35667688e-02
  -4.22757752e-02 -2.45600715e-02 -8.97670537e-02  1.92646775e-02
   3.36822905e-02 -4.71539535e-02 -7.45491534e-02 -4.92034554e-02
  -3.52086201e-02 -8.60077590e-02 -3.18607576e-02  3.62918414e-02
   4.01336374e-03  2.75881253e-02  8.21345150e-02  1.40287960e-02
   5.08609191e-02  6.99417591e-02 -1.60350800e-01 -6.77213147e-02
   2.37868889e-03  4.22590598e-02 -6.58230633e-02 -2.26267166e-02
  -7.44590238e-02 -2.82624122e-02 -1.11401409e-01  6.77379742e-02
  -3.31093855e-02  2.85387859e-02 -4.13138419e-02  5.46753854e-02
  -4.77161258e-02  1.31117580e-02  2.35462077e-02 -1.89734679e-02
  -5.91902211e-02 -2.09220089e-02 -2.53679417e-02 -1.08338617e-01
  -6.44827932e-02 -5.75647838e-02 -6.97086239e-03  4.97593991e-02
  -7.74991810e-02 -1.76290125e-02 -8.64378065e-02 -1.02917753e-01
   4.09625098e-02 -1.48438839e-02 -7.75920833e-03  2.02422775e-02
  -5.63415959e-02 -1.32039160e-01  4.27907258e-02 -2.30419561e-02
  -1.23577681e-03  5.23656569e-02 -2.22705211e-03 -5.29428646e-02
  -5.76443151e-02 -3.83933261e-02 -6.88121095e-02 -7.81583712e-02
   5.77034317e-02 -1.80518609e-02  1.25591353e-01  4.74274047e-02
   1.91420950e-02 -2.74743978e-02 -1.24503896e-02 -1.10361017e-01
  -5.45626469e-02 -6.86689839e-02  2.20424123e-02 -3.10168490e-02
  -1.71573889e-02  3.46472077e-02 -1.17450893e-01  3.81308459e-02
   8.36713091e-02 -1.11925891e-02 -6.88630939e-02  5.31665348e-02
  -4.79680784e-02 -4.51331437e-02  4.35953122e-03 -4.07424793e-02
  -1.16972011e-02  2.20838971e-02  4.47037667e-02 -3.35096419e-02
   7.58043770e-03 -5.83123527e-02 -7.48529658e-02 -8.29709023e-02
  -4.07164246e-02 -3.59807350e-02  4.72517535e-02 -5.31840511e-03]
 [ 2.69251559e-02  1.49324471e-02 -8.39854870e-03 -2.22763084e-02
  -8.50196276e-03  1.91866532e-02  3.48637216e-02  8.39130059e-02
  -5.26722893e-02 -4.11355607e-02 -4.86415625e-02  7.00383410e-02
  -2.94808764e-02 -2.37213261e-02 -1.69352815e-02  3.18055376e-02
   2.48208288e-02  1.53420074e-02 -1.04474552e-01  8.46167505e-02
  -6.41976297e-02 -2.58833170e-03 -5.10850027e-02 -6.91330284e-02
  -3.53217311e-02 -5.80852944e-03 -4.67176689e-03  3.87432352e-02
  -9.92538258e-02  1.08336717e-01 -2.43151691e-02 -1.75066013e-02
  -6.27176091e-02  5.19661345e-02  7.38479868e-02  3.40853110e-02
  -5.35169318e-02 -8.50334205e-03  5.46431281e-02  1.89313889e-02
   4.57836427e-02 -2.55463514e-02  4.09129448e-02  1.79387033e-02
  -9.78313684e-02  7.16475025e-02  7.43118897e-02 -6.65448373e-03
   5.36616743e-02  2.85377093e-02  4.27600965e-02  4.11490817e-03
  -7.03281090e-02 -2.10899413e-02  5.51779242e-03 -2.59507205e-02
  -6.31330088e-02 -8.31089467e-02 -5.98055311e-02  9.87399966e-02
   4.70043942e-02  6.89234138e-02  1.78046990e-02  5.57740070e-02
   6.76449686e-02 -6.64164638e-03  3.02623268e-02  1.52013898e-01
   1.37268424e-01 -4.52799797e-02  4.03674431e-02  8.86967964e-03
  -3.48161045e-03 -1.71780325e-02  4.41830605e-02  6.34575114e-02
  -4.44927774e-02  6.38719350e-02  2.02340893e-02 -5.12375534e-02
  -3.98341417e-02 -2.44000554e-02 -1.06161885e-01 -2.95931101e-02
   2.66385265e-02  1.40698418e-01 -1.61175374e-02 -6.99875727e-02
   7.92628154e-03 -1.06105255e-02 -7.27304369e-02  3.42580751e-02
   1.58588290e-02  1.94162354e-02  6.97524622e-02 -1.11724935e-01
  -3.01742442e-02  2.42602266e-02 -9.00792703e-03 -3.40518588e-03
  -3.16338204e-02  6.06439486e-02 -6.29143119e-02 -4.86667007e-02
   1.42344646e-02 -3.19892205e-02  1.12349264e-01 -5.88489464e-03
  -4.88829464e-02 -5.75423576e-02 -9.14494507e-03 -7.48618832e-03
  -3.94063815e-02  1.10406339e-01  1.48450518e-02 -4.89044972e-02
   2.64139418e-02 -3.36692519e-02 -3.98419914e-04 -5.11097237e-02
   3.32519487e-02  3.18697877e-02 -6.90328330e-03  4.77272570e-02
  -8.03900063e-02 -6.45083562e-02 -1.26543129e-02  2.65030470e-03]
 [-4.41121608e-02  4.66576852e-02  4.76829857e-02  8.61217733e-03
  -1.85684729e-02  5.47874719e-02  3.69101092e-02  9.77898538e-02
   1.05072195e-02 -7.72451833e-02  2.71315426e-02 -4.75237146e-02
   1.91795640e-02  1.74692627e-02 -2.18705177e-01  6.97576627e-02
  -1.76747162e-02 -1.50920853e-01 -1.63080133e-02 -1.42145872e-01
   3.41421999e-02 -1.73059590e-02  4.57882546e-02  2.20376235e-02
  -4.75501269e-03  7.45133236e-02 -7.13462606e-02 -7.73314014e-03
   1.26815506e-03 -8.90602241e-04  2.09927117e-03 -9.91296619e-02
  -5.10849012e-03  1.46485539e-02  1.19022079e-01 -4.80417982e-02
   2.53148209e-02  1.85541133e-03 -7.59064108e-02 -3.61759365e-02
  -3.34571779e-01 -3.16790491e-02 -1.12680651e-01 -3.89593542e-02
  -7.37803578e-02 -6.14981465e-02  6.03500120e-02  4.35580090e-02
  -8.98350328e-02 -1.00253187e-02  8.18542019e-03 -6.97267205e-02
   1.69565722e-01 -4.37798798e-02  1.69367403e-01  1.60437703e-01
   3.53771709e-02 -8.80396441e-02 -4.91224863e-02  1.38128474e-02
  -7.49718398e-02 -3.65052782e-02 -1.52366199e-02 -2.35780254e-02
  -3.21391672e-02 -5.38653433e-02 -3.13904099e-02 -4.39728647e-02
   2.92606559e-03  2.40516346e-02  1.98735535e-01 -2.31835749e-02
   6.97697848e-02 -6.95629865e-02 -8.63738954e-02 -6.23495132e-02
  -6.06949441e-02 -1.00145079e-01  9.72693507e-03 -6.34417310e-02
   3.32835428e-02  5.67686092e-03 -1.44078821e-01 -1.77945173e-03
   4.95102592e-02 -1.95726473e-02 -5.48061728e-02  1.26239527e-02
   6.56324401e-02 -2.05478504e-01  1.98762901e-02  5.17521128e-02
  -3.24083492e-02 -2.13885996e-02 -9.52378735e-02  5.75723462e-02
  -5.21415733e-02 -4.66588959e-02  3.49958874e-02  8.19071978e-02
   6.65225962e-04 -1.51084319e-01 -9.57611948e-02 -1.05384313e-01
  -5.01248427e-02 -2.17312165e-02  5.37632443e-02 -6.77621514e-02
   4.65015769e-02 -2.17088647e-02 -2.86963657e-02 -1.14059215e-03
  -5.35253882e-02  5.38457669e-02  5.50560169e-02 -2.95514776e-03
  -5.26700541e-02 -1.03764040e-02  1.85576677e-01  4.53455150e-02
  -5.22027984e-02 -1.03078030e-01 -4.39669490e-02 -4.74412069e-02
   1.54527485e-01 -2.23672073e-02 -5.01540154e-02 -3.87379192e-02]
 [-4.31430638e-02 -5.91021031e-02 -7.79119581e-02  4.93684374e-02
  -9.66040976e-03  8.05144235e-02 -5.86884879e-02 -3.48050818e-02
  -4.37001102e-02 -2.97776721e-02 -2.70619877e-02  1.24215454e-01
   1.08380027e-01 -3.90623249e-02 -1.06458105e-01  1.08097017e-01
   3.27904038e-02 -3.56268317e-01 -5.83131239e-02  5.51344380e-02
   6.12839796e-02 -3.33260372e-03  2.58800071e-02  1.44772406e-03
  -2.21513119e-02 -4.82068360e-02  3.71242091e-02 -1.99271343e-03
  -4.55822796e-02 -2.06489414e-02 -8.93917866e-03  9.56667736e-02
   4.31886241e-02 -1.00823380e-01  1.24975227e-01 -3.46824862e-02
  -1.02699213e-01 -1.97181217e-02  1.74173899e-02  7.52911996e-03
  -3.79566960e-02 -5.73176667e-02 -2.05192521e-01 -4.53947186e-02
  -1.18335115e-03  1.33364901e-01 -9.51728672e-02  4.57327291e-02
  -3.68439592e-02  5.21320663e-02  5.91975451e-03 -1.80799775e-02
  -8.12542364e-02  1.51220588e-02  1.01209521e-01 -2.11050101e-02
  -1.75751839e-02 -7.69655183e-02  5.56502771e-03  2.63894256e-02
   4.69125994e-02 -1.50175050e-01  4.35318872e-02  8.68420117e-03
  -1.92016363e-01 -5.27392663e-02 -1.40734211e-01  1.62476838e-01
   3.93567160e-02 -1.37277022e-02  9.54930391e-03 -6.68257549e-02
   7.31371865e-02 -1.53508810e-02 -4.20939513e-02  1.35325119e-01
  -6.22625612e-02  1.24457758e-02  1.55817401e-02  3.57218683e-02
  -4.71650995e-02  5.82811497e-02  2.59835273e-04 -3.23362574e-02
  -1.92131028e-02 -3.81317884e-02 -3.42031494e-02  8.22004527e-02
  -1.77298740e-01 -2.82573462e-01 -4.82915007e-02  8.32804069e-02
  -3.93078811e-02 -7.03302398e-02  1.23638883e-02  4.95996885e-02
  -8.24575648e-02  4.41217385e-02 -4.06988524e-02 -9.42143500e-02
  -8.34476575e-03  1.15053438e-01 -2.52443980e-02 -3.33820321e-02
  -4.39918637e-02 -1.24494936e-02 -1.56654511e-03  3.18756178e-02
  -6.62438273e-02 -3.60213965e-02 -5.86625785e-02 -5.41718677e-02
   3.41363028e-02 -3.29347774e-02 -2.44508162e-02  1.27706118e-02
   1.54942246e-02  4.79057841e-02 -2.06930682e-01 -5.85211217e-02
  -1.31273232e-02 -2.97666322e-02 -2.02540611e-03 -2.49333277e-01
   1.14256859e-01 -1.74320750e-02 -3.68253589e-02  5.23806065e-02]
 [-6.34281337e-03  1.04981288e-02  8.61947536e-02  2.88292374e-02
   2.39451751e-02  8.33689943e-02  2.57612374e-02 -2.50757602e-03
  -2.69459561e-03 -1.88272577e-02  4.60944548e-02  7.55242854e-02
  -4.40365858e-02 -4.97512445e-02 -2.06063390e-02 -5.31315915e-02
   2.52075847e-02  1.40782148e-02 -1.05249330e-01  3.99758741e-02
   2.05154084e-02  1.89886615e-02 -8.69802386e-03  2.17955597e-02
   3.69533077e-02  7.28541985e-03  5.23565747e-02 -4.02186215e-02
   5.36937616e-04 -1.06990591e-01 -2.14685686e-02  1.89756008e-03
   2.60295011e-02 -7.12761581e-02  8.83878693e-02 -1.22290645e-02
   2.21176893e-02  1.04341149e-01 -4.28881049e-02 -2.27677450e-02
  -5.00290766e-02 -6.39617220e-02 -5.01526669e-02 -9.77953710e-03
  -6.90441206e-02 -9.55445506e-03 -1.23772897e-01  3.27990390e-02
  -3.47041041e-02  3.49507928e-02 -4.85226102e-02  2.04965007e-02
  -1.10346368e-02 -9.38303210e-03 -2.11738169e-01 -2.03269482e-01
   2.88791582e-02  9.65205431e-02  1.44877816e-02 -1.00106768e-01
   1.26985893e-01  5.43552004e-02  3.25994641e-02 -3.96414399e-02
   7.56675154e-02  3.83937568e-03 -4.17503938e-02 -1.22383960e-01
   6.80235475e-02  2.59325802e-02 -6.72102794e-02 -2.65131053e-02
  -3.30730528e-02  5.07509708e-02 -5.09498194e-02 -1.11966595e-01
  -3.11223809e-02  5.64693846e-02  2.87660584e-02  3.25299129e-02
  -7.06513040e-03 -6.17812835e-02  1.48741957e-02 -4.89837378e-02
  -5.13794012e-02 -1.22445993e-01 -2.47190287e-03  2.20975541e-02
   2.23833770e-01 -4.30413373e-02 -1.73592810e-02  5.35949431e-02
  -1.41773328e-01  5.70207462e-02  5.62653802e-02 -1.52777314e-01
  -5.51212719e-03  1.63314324e-02 -3.83178741e-02 -5.64487278e-02
  -4.95806523e-02 -2.43538842e-02 -1.67233869e-02 -5.22238947e-02
   3.90537689e-03 -1.01105042e-01  4.49924804e-02 -3.28145339e-03
  -9.39643681e-02  1.59474760e-02 -3.40762138e-02  9.89045203e-03
  -6.37063384e-02 -1.33467570e-01 -4.15757596e-02 -3.67073491e-02
   1.92228630e-02  4.76471260e-02  3.62785347e-02 -6.84744194e-02
   1.36717886e-01 -8.98428187e-02 -7.36421486e-03 -1.15042582e-01
  -1.54405450e-02 -7.80453756e-02  2.57666707e-02 -1.92473736e-02]
 [ 3.57406633e-03 -3.20929550e-02 -1.66673213e-02  1.43990144e-02
  -2.27000881e-02 -5.42969815e-03 -1.00078331e-02  1.49305249e-02
   2.45376062e-02  1.86468381e-02 -6.13708347e-02 -1.22095473e-01
  -1.36145130e-02 -5.86728901e-02 -4.32885718e-03  3.76219079e-02
   3.25941741e-02  1.85140241e-02 -9.11511108e-02  1.44469455e-01
   3.38766575e-02  2.04736982e-02 -5.00807837e-02  6.88529462e-02
  -4.08389345e-02 -5.59368823e-03 -1.92574427e-01 -3.92713062e-02
  -2.55156849e-02  2.51353886e-02 -6.72701895e-02  5.43886311e-02
   3.52474265e-02  4.40444015e-02  8.47690478e-02 -2.70808153e-02
  -1.67993214e-02 -2.48113014e-02 -6.88051879e-02 -2.07205433e-02
   1.23660453e-02 -3.45840417e-02 -6.96964562e-02 -9.17921483e-04
  -2.77919862e-02  8.34562033e-02 -4.80740294e-02  1.82452321e-01
  -9.89331678e-02  3.55826505e-02 -6.12952821e-02  3.15011777e-02
   1.17691578e-02 -5.76492548e-02 -5.77338487e-02  2.67640203e-02
  -4.95033227e-02 -1.63060695e-01 -3.24612483e-02  8.92504528e-02
  -9.24455523e-02  9.95105430e-02 -2.17582416e-02  3.73893045e-02
   2.50840113e-02  1.83126125e-02  1.37084741e-02  6.57177940e-02
   1.30103022e-01  2.06640363e-02  7.30552077e-02 -6.01692125e-02
  -7.40053803e-02  1.56218456e-02  1.74595229e-02  1.20482542e-01
   8.99037113e-04 -4.18303832e-02 -2.07289644e-02  1.99381988e-02
  -2.45414060e-02 -1.57079380e-02  1.01322839e-02 -1.81780700e-02
   2.38197874e-02 -2.28412803e-02  1.38572557e-02  1.13211116e-02
   2.52731261e-03 -1.89237017e-02 -4.51271124e-02 -1.01340830e-01
   4.08566855e-02 -6.06089877e-03 -7.32013881e-02 -1.10587636e-02
  -9.64653958e-03 -9.85086337e-03 -1.43665196e-02  1.10030681e-01
  -3.50213833e-02  5.02756797e-04 -1.02981091e-01 -1.54015496e-02
  -3.01685613e-02 -4.08655740e-02  1.63068771e-01  3.21161438e-04
   1.88342687e-02 -4.18066718e-02  5.98017164e-02  6.14718534e-03
  -1.55966654e-02  3.70928496e-02  4.73077372e-02 -3.96011397e-02
   2.34148055e-02  1.79535542e-02 -7.86429830e-03  6.41523898e-02
  -8.00810754e-02 -1.30434871e-01 -2.93315277e-02 -3.51417288e-02
   6.18432537e-02  1.45405103e-02 -2.27756631e-02  1.83708908e-03]
 [-3.59602459e-02  1.59997828e-02 -4.11633477e-02  1.26238531e-02
  -6.19694591e-02 -8.27055424e-02 -4.98300605e-02 -9.50043276e-02
   4.40428443e-02 -4.14228030e-02 -3.66652496e-02 -1.73389167e-02
  -4.33942974e-02 -3.92249860e-02 -5.26715023e-03 -8.08455646e-02
  -5.19794747e-02  8.48704651e-02 -4.62301038e-02 -8.21424201e-02
  -7.72829726e-02  1.59617011e-02  5.42059354e-02  4.83835302e-03
  -1.86751913e-02 -8.15785676e-02 -5.83579205e-02  2.49072723e-02
  -3.92466923e-03 -5.65622076e-02 -4.77646012e-03  1.09599959e-02
   3.54548208e-02 -5.22295199e-02 -4.22466844e-02 -4.79068048e-02
  -1.27126323e-02 -3.41242515e-02 -3.08827218e-02  3.52407061e-02
   1.34264836e-02  1.39290271e-02 -3.69263813e-03 -4.14329618e-02
   8.60053822e-02  8.17286968e-02 -2.12474734e-01 -1.37250260e-01
   3.72781157e-02  2.06709765e-02 -1.79046746e-02 -4.96356227e-02
  -6.05509011e-03  7.11763203e-02 -1.49430260e-01  6.73072338e-02
  -3.27647515e-02  7.42559135e-02  4.88776788e-02 -3.06202024e-02
  -1.07388452e-01  7.65614510e-02 -4.20284867e-02 -1.03817485e-01
  -1.20431423e-01  1.97338816e-02  7.09415078e-02 -2.32932195e-02
  -3.60750109e-02 -7.42213428e-02 -2.38316488e-02 -2.45348178e-02
   3.33299972e-02  4.09364849e-02 -6.81464374e-02 -4.44153361e-02
  -7.67046213e-03 -3.54272947e-02 -1.57976840e-02  3.74591649e-02
   3.45865600e-02 -2.17723489e-01  1.40272409e-01 -7.79621827e-04
  -5.00811189e-02  5.33063002e-02  3.24900821e-02 -1.31243449e-02
  -5.46382442e-02  6.85478449e-02 -6.66860938e-02 -3.57367545e-02
   7.26253763e-02  2.65381876e-02  1.04684494e-02  8.85911286e-02
  -2.78142169e-02 -6.38571903e-02 -2.44973097e-02 -6.95291981e-02
  -6.66906014e-02  1.20129161e-01 -2.16130298e-02 -5.09618744e-02
  -2.25574449e-02  4.18653376e-02 -1.35562330e-01  3.48004559e-03
   4.88564558e-02  1.20120691e-02 -5.73761016e-02 -1.20259458e-02
   4.77927439e-02 -7.93365389e-03  2.10678950e-02 -1.01745492e-02
   6.01277091e-02 -1.03496835e-02  2.18633544e-02  2.15495471e-02
  -2.69300994e-02 -6.03258945e-02 -4.99369055e-02 -9.05587971e-02
  -1.82095706e-03 -1.64834671e-02 -4.75443294e-03  2.75622401e-02]
 [-7.58516565e-02 -5.55486418e-02  1.83463637e-02  3.30999978e-02
   2.72920877e-02  4.01583277e-02 -5.59457764e-02 -3.66542786e-02
  -7.88693205e-02 -5.10058217e-02  7.08605582e-03  1.38852503e-02
  -1.12708524e-01 -6.66026995e-02 -6.83183298e-02  5.88866472e-02
  -8.48819595e-03  6.44334406e-02 -6.05853386e-02  5.04825152e-02
  -5.51397388e-05 -3.55211347e-02 -1.65513698e-02 -2.59632170e-02
   3.46677005e-02 -7.65812322e-02 -6.53177351e-02 -5.34882247e-02
  -3.31583321e-02  3.00688371e-02 -2.90408824e-02  9.10845697e-02
  -4.21895310e-02  4.86201271e-02  1.80270663e-03  6.47530928e-02
  -2.95226425e-02  2.79215425e-02 -1.10488087e-01  6.98463758e-03
   1.19195180e-02 -4.97685187e-02  5.21964580e-02  2.08959095e-02
  -2.11153459e-02  1.33397743e-01  3.43990512e-02  3.99948098e-02
  -5.95059469e-02  2.52079014e-02 -3.76680903e-02  3.73229869e-02
  -9.86808389e-02  9.89698619e-03 -2.33856197e-02  4.97742556e-02
  -1.74341109e-02 -1.10907346e-01 -2.61386577e-03  5.27053699e-02
   8.83744434e-02  1.61923803e-02  1.73269119e-02  6.25047926e-03
   1.03117384e-01  7.45840743e-03  2.44945288e-02  1.66879579e-01
   1.33690909e-01  4.88503762e-02  2.13822220e-02 -4.30723391e-02
  -7.49922618e-02  3.32073569e-02  1.64727718e-02  9.92129147e-02
  -6.66801408e-02  4.47164290e-02 -9.42612886e-02 -7.51491264e-02
  -4.96865176e-02 -7.81475566e-03  2.83218175e-02  1.60997566e-02
   3.53618450e-02  9.92657617e-02  4.44357730e-02 -1.20403534e-02
   1.22241126e-02 -4.50289081e-05 -3.39930691e-02  2.66415104e-02
   5.15569374e-02 -4.63425554e-02  2.12922003e-02 -1.74857691e-01
   4.27136533e-02 -1.58259068e-02 -2.50191428e-03 -6.14704527e-02
  -3.61432955e-02  2.84684412e-02 -3.37302834e-02 -3.88961472e-02
  -6.53612986e-02  1.07794646e-02  1.26945436e-01 -3.53081189e-02
  -1.31121218e-01  2.30890624e-02 -4.37974706e-02 -2.68365536e-02
  -4.83668409e-02  4.33056578e-02 -2.95136552e-02  1.26716774e-03
  -1.52143296e-02 -6.84260428e-02  9.47124884e-03 -9.21221226e-02
   1.53804915e-02  6.93759099e-02  4.44306806e-02  3.46296802e-02
  -3.63394506e-02  2.37483494e-02  4.86802161e-02 -4.49943878e-02]
 [-2.33542770e-02 -6.34091720e-02 -1.01969495e-01  5.09232841e-02
  -4.52096611e-02  2.51538083e-02  4.91395481e-02 -5.94118647e-02
  -1.67448223e-02 -1.49711959e-05  3.54785062e-02 -5.75285479e-02
  -1.96368359e-02  5.28579317e-02 -1.29244030e-01  6.81803701e-03
  -5.94361946e-02 -1.24067292e-01  2.43853517e-02 -6.97720200e-02
  -1.29929259e-01 -6.12476654e-02  4.73462902e-02  3.67947482e-02
  -6.15290143e-02  8.40589963e-03  1.11624964e-01 -7.33887032e-02
   4.80394112e-03  9.59926471e-02  1.31060490e-02 -5.62307127e-02
  -3.32484320e-02 -5.42613044e-02  3.70320901e-02 -6.33363351e-02
   1.28036703e-03 -2.90546846e-02 -9.71538424e-02  1.08244019e-02
  -2.47416049e-01  1.61994416e-02 -1.53646618e-02  2.30330452e-02
  -5.60844615e-02  2.40347274e-02  3.30628678e-02  7.61071267e-03
  -2.22325567e-02 -8.01454950e-03 -3.32799964e-02  1.81129817e-02
   1.67683408e-01 -8.21413994e-02  1.36039898e-01  9.83842239e-02
   4.59759049e-02 -4.14722227e-02  3.40787582e-02 -9.43963975e-02
  -1.09445252e-01 -1.48735464e-01  2.26340219e-02  1.49889281e-02
  -7.82866776e-02  1.73842497e-02  2.00741485e-01 -1.02779321e-01
  -1.86425924e-01  3.25358808e-02  2.45202444e-02  1.01873130e-02
  -3.18281129e-02 -3.65489163e-02  2.99894456e-02 -1.58280149e-01
   1.43085634e-02 -2.05862429e-02  1.03695309e-02 -3.65462154e-02
  -1.69625264e-02  6.65179566e-02 -9.93115157e-02 -2.91373599e-02
   7.95562007e-03 -6.46683201e-02 -1.26669317e-01 -1.75763089e-02
   2.96462830e-02 -6.02183454e-02 -1.98847242e-02 -8.65924656e-02
  -8.63761678e-02  3.61284316e-02 -7.83797950e-02  7.85207823e-02
  -1.24189937e-02 -3.55769917e-02  2.83616595e-02 -3.24160419e-02
  -6.38030842e-02 -1.51855141e-01 -2.54854020e-02 -2.87218541e-02
  -6.95144460e-02 -3.32166068e-02 -4.73054051e-02 -9.25505012e-02
  -7.24192197e-03 -5.83383702e-02 -1.00226738e-01  3.81508544e-02
   2.32179463e-02  3.40414383e-02 -5.53207770e-02 -4.08374611e-03
   1.33569185e-02  2.66790409e-02  3.35649401e-02 -3.72374919e-03
  -7.80409276e-02 -5.63643761e-02 -7.68470690e-02 -8.83282349e-02
   8.48653093e-02  3.89100090e-02 -1.06484462e-02 -3.72861922e-02]
 [-3.78236845e-02 -1.42622255e-02 -8.37936997e-02  4.34539281e-02
  -4.75684255e-02 -1.48951739e-01 -3.55887637e-02  4.64209095e-02
  -1.90784056e-02  3.32484394e-02 -5.59935495e-02  5.53197339e-02
   3.31277866e-03  5.71521334e-02 -1.28754571e-01 -8.34793448e-02
  -4.18464839e-02 -1.09721377e-01 -1.16111040e-01  1.50384465e-02
   4.70740385e-02 -6.76121935e-02 -5.92632480e-02 -9.86108482e-02
  -4.31631953e-02 -4.33963537e-03  1.76456366e-02  3.17998864e-02
  -3.77811342e-02  4.15113457e-02  6.48245513e-02  7.10601360e-02
   1.80125572e-02  3.87377455e-03  1.66539952e-01 -3.16247903e-02
  -6.90442771e-02 -6.37176037e-02 -4.72324081e-02 -5.59904128e-02
  -1.31659918e-02 -2.20250543e-02 -1.76418811e-01  4.50347662e-02
  -3.79371904e-02  3.26023176e-02 -1.46271169e-01 -3.05997417e-03
  -3.71063575e-02  5.48297986e-02 -5.23590073e-02 -5.74368834e-02
  -4.30953875e-02 -1.84876546e-01  1.67276792e-03  1.72207020e-02
  -6.27051219e-02 -7.47090280e-02  4.37075049e-02 -8.34340882e-03
   1.01716563e-01  4.13383283e-02  4.14755158e-02  2.78816093e-02
  -8.10114369e-02 -3.73160057e-02 -2.76193231e-01  2.12829009e-01
   9.43788793e-03 -1.89098157e-02  1.29606742e-02 -1.79335158e-02
  -6.56444533e-03 -4.85388009e-05  1.90112740e-02  3.70478705e-02
   3.88509035e-02 -4.99606207e-02 -2.84912921e-02  7.04736263e-03
   2.18382739e-02  1.08780488e-01 -1.84556581e-02 -6.63863346e-02
  -7.23237842e-02 -4.85814624e-02  6.31530061e-02 -3.66471186e-02
  -4.59484309e-02 -1.71930462e-01 -2.16307417e-02  2.94290930e-02
  -1.21204421e-01 -6.76043779e-02  6.26162067e-02 -4.44829417e-03
  -1.37019875e-02 -3.11476104e-02 -5.23987003e-02 -5.32807335e-02
  -1.02896966e-01  1.07831329e-01 -1.11462958e-02  3.52000818e-03
  -2.90897731e-02 -8.28850642e-02  8.33412111e-02 -3.82208377e-02
   9.07330513e-02 -1.73118562e-02  2.84465645e-02  5.22092311e-03
   4.84989285e-02  2.71102749e-02  3.47436890e-02 -3.83129381e-02
   1.57081429e-02  8.56427476e-02 -1.08459063e-01 -2.89213695e-02
   5.49842417e-03  2.01458503e-02  3.89600508e-02  1.67135545e-03
   4.03796993e-02 -8.25013518e-02  3.15800831e-02 -1.33675719e-02]
 [-6.09217584e-03 -5.04921190e-02 -1.20182438e-02 -2.35793795e-02
  -5.66263683e-02  6.56711534e-02  2.83867083e-02 -1.62098259e-02
  -1.87448207e-02 -3.71864103e-02  2.66105160e-02  1.25532568e-01
  -4.85733189e-02 -2.92842295e-02  6.48724437e-02  1.71279341e-01
   1.91557724e-02  1.84340440e-02 -4.40795533e-02  6.51029423e-02
   1.40251117e-02  2.86087971e-02 -2.38095615e-02 -3.77913080e-02
  -3.49159688e-02 -8.92444514e-03  3.27654630e-02 -7.75019452e-02
   1.06344663e-01  2.84194462e-02  1.96204484e-02  1.06260432e-02
  -6.70219660e-02 -6.33981526e-02 -7.97595270e-03 -9.99736488e-02
   4.08142284e-02  5.43713458e-02 -6.97650388e-02  1.02927163e-02
  -5.28891347e-02  3.26317027e-02 -1.79730896e-02  3.84848788e-02
  -1.36570409e-01 -2.53755655e-02  2.89739780e-02 -9.15371329e-02
  -2.20584590e-03  3.29598226e-02 -1.86279640e-02  3.37233469e-02
   6.40269816e-02 -9.72843766e-02 -1.42395124e-01 -2.98464671e-02
   3.74898352e-02  1.14541709e-01 -5.54281734e-02 -1.71936527e-01
   2.54949704e-02 -4.39597778e-02 -4.01526969e-03 -8.29937309e-02
   4.68182610e-04 -5.52256852e-02  2.07023099e-02 -6.60126284e-02
  -1.58443744e-03 -3.05813514e-02 -7.66262859e-02  3.81999724e-02
  -9.10573527e-02 -5.42040095e-02  3.12838852e-02 -4.16258490e-03
  -2.35490613e-02  1.32789621e-02 -3.23469937e-03 -2.47827964e-03
   2.72192210e-02 -1.36437342e-02 -7.00959656e-03  1.96238495e-02
  -2.11876556e-02 -5.10893576e-02  4.70384918e-02 -1.96717568e-02
   4.04728875e-02 -8.61401632e-02  3.63133550e-02  9.79314893e-02
  -4.38094325e-02  3.65925841e-02  1.27919167e-01 -1.12970896e-01
   6.07991265e-03 -5.47090769e-02 -4.86327559e-02  8.17198381e-02
   3.41348350e-02 -6.11162744e-02 -1.89097901e-03 -6.61796927e-02
   9.19037126e-03 -4.49312590e-02  1.72438356e-03  3.61512452e-02
   5.79381026e-02  5.77853099e-02 -4.91212122e-02  4.13568094e-02
  -9.72292721e-02 -5.74792735e-02  3.04810572e-02  1.39524480e-02
  -8.50282516e-03 -1.55301299e-02  1.61840230e-01 -1.43582951e-02
   4.51431377e-03 -1.03331082e-01  2.23108307e-02  4.22423445e-02
  -2.79528648e-02 -6.01042844e-02  5.22911996e-02  3.09258737e-02]
 [-4.90470901e-02 -2.73859259e-02  8.54013637e-02  2.17572935e-02
   1.70682669e-02 -5.24847955e-02  4.29087207e-02  3.42490375e-02
   1.07970135e-02 -3.50570641e-02 -7.87696056e-03  1.09750719e-03
  -1.08939148e-02 -4.59521152e-02 -4.72086817e-02  5.04037850e-02
  -3.42806168e-02 -9.85530242e-02 -2.62158038e-03  6.77732825e-02
  -1.39669076e-01 -4.27689627e-02  8.02181941e-03  3.35811004e-02
   2.75572948e-02  8.00221413e-03  4.05453034e-02  4.61327918e-02
  -1.18367009e-01 -2.80617662e-02  2.48455424e-02 -5.57856038e-02
   4.22197348e-03  1.03572980e-01 -2.97036823e-02 -7.55169392e-02
  -3.96569520e-02 -5.32469451e-02  1.04864351e-02  2.51754913e-02
  -4.36641760e-02  3.99010293e-02  5.86839952e-02 -3.78558822e-02
  -6.52781129e-02  1.91936530e-02 -4.01036069e-02  5.21668140e-03
  -6.46570846e-02  2.07546763e-02  1.23094919e-03 -6.55473769e-02
   1.13832943e-01 -4.52101268e-02 -7.23971725e-02  7.31295347e-02
   4.98302281e-02 -1.03289887e-01 -5.74417487e-02  1.36911973e-01
   1.47164930e-02 -8.38238597e-02 -4.99878041e-02 -5.09391315e-02
  -1.05763562e-01  3.65146971e-03 -6.21795990e-02  1.22888438e-01
   5.35601983e-03 -9.93688498e-03  1.12345673e-01  1.06547177e-02
   6.44272193e-02 -5.30705079e-02 -3.73672391e-03 -1.62890293e-02
  -1.22414278e-02  1.87908988e-02 -1.34857818e-02 -3.02889999e-02
  -5.06293401e-02  8.64409357e-02 -6.68760240e-02 -2.53138132e-03
  -1.68080479e-02 -4.39048037e-02 -1.52483955e-02 -4.41630967e-02
   4.39065434e-02  5.04321754e-02  3.94942239e-02  2.68326234e-02
   8.03565010e-02  1.77961364e-02 -7.51476851e-04  1.45218641e-01
  -3.08252145e-02 -2.43551578e-04 -5.74028939e-02  1.55203581e-01
   3.71251777e-02 -6.80734813e-02 -8.45789239e-02  9.07240808e-02
   2.98549645e-02  2.18858123e-02  1.35088041e-01  2.58535482e-02
   1.68696065e-02 -4.86815255e-03  5.15528992e-02 -4.83295657e-02
  -1.30951315e-01  1.28968522e-01  2.65040938e-02  4.55229124e-03
  -5.05719632e-02 -7.85554349e-02  1.36674911e-01 -5.61557412e-02
  -5.30461036e-02  1.00950226e-02  3.83786000e-02 -1.62921175e-01
   3.41576114e-02  1.47188790e-02  2.63835844e-02 -5.81485257e-02]
 [ 3.84364016e-02 -5.31078242e-02 -5.25547080e-02 -1.17265247e-01
   3.05297635e-02 -1.19706035e-01 -5.08155636e-02 -6.70764595e-02
  -7.62881013e-03 -6.12044074e-02 -1.18490343e-03  3.76508422e-02
  -5.21813845e-03 -4.11949493e-03  6.87078238e-02  1.13171414e-01
   9.16462671e-03 -2.52400432e-02 -5.19820154e-02  4.92689684e-02
  -4.26488201e-04  5.20317769e-03 -4.69780974e-02 -4.59968261e-02
   3.60069163e-02 -5.73296212e-02 -4.47613783e-02 -2.56811026e-02
  -1.17092077e-02 -3.70371528e-02 -7.92670250e-02  3.23348194e-02
  -5.93246776e-04 -1.25403538e-01 -7.81080350e-02 -3.16590220e-02
   1.70850735e-02  2.84770876e-02 -4.35620211e-02  2.57508475e-02
  -7.79833738e-03 -4.54389900e-02 -6.83718100e-02 -6.76939562e-02
   1.10400245e-01  5.90816215e-02 -1.95484281e-01 -5.55703565e-02
  -6.09105155e-02 -4.87769656e-02 -6.53345063e-02  2.38226131e-02
  -6.24619499e-02  7.60472342e-02 -3.48926894e-02  3.13788429e-02
  -2.45228112e-02  9.04993247e-03 -5.81390150e-02  4.09133509e-02
   1.37657337e-02  4.18148786e-02 -4.54927497e-02 -4.20606136e-02
  -1.76639333e-02 -5.52885011e-02 -2.16723839e-03 -5.46253361e-02
  -2.78011300e-02 -5.93123101e-02  2.11068355e-02 -2.36237217e-02
  -1.29436888e-02 -3.92074697e-02  3.89866121e-02 -8.15043449e-02
   4.95100990e-02 -7.90525135e-03 -1.99464299e-02 -5.47344312e-02
   2.95977015e-03 -1.49442136e-01  6.63902611e-02  4.63569462e-02
  -1.44812688e-02 -6.48785233e-02 -4.97803614e-02 -4.96654771e-02
   1.47693772e-02 -5.39805256e-02 -2.06048191e-02 -8.17581862e-02
   6.64052144e-02 -7.40799354e-03  1.17703993e-02  1.16381712e-01
   4.27677296e-02 -6.47835284e-02 -1.64145119e-02 -1.75501604e-03
  -4.41521928e-02  3.75421531e-02  4.07631025e-02  8.17638263e-03
  -5.97192384e-02  2.64220759e-02 -8.80579650e-02 -6.86687529e-02
   4.67778333e-02 -1.82495906e-03 -4.08596806e-02 -4.06978205e-02
  -7.29303956e-02  3.81971523e-02 -9.16624907e-03  4.49555703e-02
   5.73711656e-03 -5.40507995e-02  3.02390680e-02  1.47203617e-02
   3.76007967e-02  4.54742834e-02 -4.08488838e-03  3.67034785e-02
  -6.15791045e-02 -1.80865377e-02 -3.73232625e-02 -8.35175738e-02]
 [-5.84578663e-02 -3.43876169e-03  7.21840188e-02  4.67849486e-02
   2.57562939e-02  1.25658274e-01 -1.14740683e-02  9.98547599e-02
  -4.59107570e-02 -1.11073412e-01 -1.47462683e-02  9.80861560e-02
  -8.96309242e-02 -3.32484990e-02  6.41864836e-02 -5.40174893e-04
  -6.33586496e-02 -3.06406766e-02 -9.74291842e-03  3.30751911e-02
  -1.63543969e-02 -4.11448665e-02  9.87274013e-03 -4.17977758e-02
  -3.80774699e-02 -3.30984741e-02  2.87543377e-03  1.51355695e-02
   2.17254702e-02 -2.47869547e-02 -1.55394999e-02  3.19795758e-02
  -7.74858706e-03 -3.92093696e-03  8.89605507e-02 -9.44809616e-03
  -1.37998601e-02 -1.16609940e-02 -4.21379926e-03 -5.59713431e-02
   2.18767300e-01 -7.24915266e-02  5.30009381e-02  6.73835026e-03
  -9.45736282e-03  4.98699881e-02 -1.39307780e-02 -5.41300559e-03
  -5.82405413e-03 -4.72815037e-02 -2.55208518e-02  6.81219101e-02
  -8.40285942e-02  7.94598311e-02  2.22866591e-02 -1.00685703e-02
  -3.18592153e-02 -1.02279320e-01 -9.33466330e-02  1.93878505e-02
   1.96683872e-02  1.01295702e-01  3.51105146e-02 -5.04737534e-02
   1.40927657e-01 -6.18220493e-02 -1.38671407e-02  5.36086187e-02
   6.75905496e-02 -1.67104285e-02  9.41566601e-02 -3.08844820e-02
  -5.81146330e-02 -4.63416614e-02 -5.48208766e-02  3.61328870e-02
  -8.19756910e-02 -7.21690729e-02  2.01154817e-02 -6.03277013e-02
   4.32861559e-02  8.16673711e-02 -7.96441454e-03 -3.39919329e-02
  -5.07171918e-03  1.17046669e-01  1.13156393e-01  2.75803488e-02
   5.63727990e-02  1.21919192e-01  4.96405919e-05  4.12245579e-02
   1.27674535e-01 -3.54530066e-02 -3.49324718e-02 -8.10941458e-02
  -3.02241221e-02 -3.91750522e-02  5.17215244e-02 -7.61010721e-02
   2.43065655e-02  6.97577447e-02 -3.13730761e-02  3.44737321e-02
  -4.89441166e-03 -2.89705358e-02  6.04638122e-02 -7.85415024e-02
  -8.45541432e-02 -2.13280357e-02 -4.49437872e-02  4.92744818e-02
   1.04576070e-02  1.22262225e-01  1.50472270e-02  3.38007435e-02
   4.82743606e-02  2.62269564e-03  1.14746770e-04 -2.72115786e-02
   4.91611194e-03 -4.06087041e-02  1.49551174e-03  1.33160800e-01
   3.29709202e-02 -6.76926970e-02 -2.93286256e-02 -3.82324904e-02]
 [-2.59167608e-02 -4.17871252e-02 -4.99567911e-02 -6.64434442e-03
   1.02947140e-02  5.02951592e-02 -2.35834010e-02 -7.48356655e-02
   7.37626199e-03 -6.64070845e-02 -2.59389952e-02  5.82927875e-02
  -5.55907469e-03  7.12365005e-03 -4.14621830e-03  5.70088513e-02
  -2.20829919e-02 -9.00531560e-02 -6.43892447e-03 -7.80015513e-02
   3.61682028e-02  1.85666829e-02 -5.54100610e-02 -1.01544559e-02
  -2.54142154e-02  5.24533167e-02  7.85084534e-03 -2.15950632e-03
  -4.30330858e-02  1.42699499e-02  1.92945190e-02 -7.75764929e-03
  -8.29297677e-02 -3.01959198e-02  5.01011647e-02 -6.47862777e-02
   2.41775811e-02 -1.19540291e-02 -1.12490002e-02  3.20767798e-02
  -1.15185492e-01 -1.50283752e-02 -3.29386964e-02  1.22377574e-02
   6.86730538e-03 -9.11328569e-02  9.23227370e-02 -3.00752949e-02
  -9.34903398e-02  5.23481565e-03 -9.41032660e-04 -2.56749298e-02
   3.14220302e-02 -9.08610318e-03  1.42598480e-01  5.64541034e-02
   5.03994823e-02  2.77385470e-02  2.34694500e-02 -1.25156626e-01
  -7.13293850e-02 -1.20085530e-01  4.88394797e-02  5.87226190e-02
   3.73262068e-04 -2.91212108e-02 -1.23854550e-02  1.85704932e-01
  -1.32050276e-01 -6.59294873e-02  6.06466318e-03 -4.73422073e-02
  -4.28553410e-02  7.77734350e-03 -5.68007752e-02 -2.88764052e-02
   3.89743000e-02  2.96363235e-02 -1.67528708e-02  1.37200095e-02
  -3.91825438e-02 -2.83220746e-02 -1.33762002e-01  4.35337760e-02
   2.21816842e-02 -8.74700695e-02 -7.77437240e-02 -3.85493152e-02
  -4.47802991e-02 -2.78368667e-02 -8.64735171e-02 -9.99433361e-03
   2.25030780e-02  4.31041867e-02 -5.82356565e-02 -5.35409972e-02
   2.05259081e-02 -2.73269173e-02  3.60446088e-02  1.54681727e-01
  -6.31284937e-02 -8.11397210e-02  3.52781340e-02 -1.78919286e-02
  -7.34960586e-02  1.74001589e-01 -6.95515499e-02  2.16183718e-02
  -1.11212566e-01  2.13690493e-02 -1.19622774e-01 -1.95436440e-02
   1.79555546e-02  5.87577038e-02 -2.70233415e-02  2.02001631e-02
   2.77087819e-02  7.67135248e-03  5.03070839e-02 -3.06325289e-03
   1.21079646e-02 -2.59314012e-02 -3.71793211e-02  1.43528894e-01
   6.84013367e-02  1.24186836e-03  1.99561026e-02  2.44941059e-02]
 [-1.30361542e-02  4.18102220e-02 -1.09983183e-01  2.88758297e-02
   3.45246047e-02  6.71217144e-02 -3.25155631e-02  3.05259414e-03
  -1.05227204e-03 -1.20089449e-01 -1.29900197e-03  7.73998164e-03
   5.35686389e-02 -6.00630008e-02 -1.15662135e-01  6.15193136e-02
  -6.82585537e-02 -1.26536682e-01 -6.19890317e-02 -3.44644189e-02
  -4.33623828e-02 -1.39720902e-01  5.05710766e-02 -9.11164731e-02
   7.49479905e-02 -1.85864177e-02  5.87210879e-02 -2.28553545e-02
  -3.61311948e-03 -4.28731227e-03  8.73978436e-03  1.60907224e-01
   3.08390595e-02 -2.88926400e-02  6.03133589e-02  4.88899536e-02
   7.90150929e-03 -4.57831435e-02  1.74770840e-02 -1.08767468e-02
  -5.97552992e-02 -4.44143228e-02 -5.91184981e-02  3.51276025e-02
   1.54124321e-02 -4.74034995e-02 -2.02760532e-01 -5.13762236e-02
  -6.70349449e-02  8.30514915e-03 -9.91826225e-03 -3.05252224e-02
   5.54031618e-02 -1.19191138e-02 -9.51961279e-02  9.76791605e-03
  -4.29634266e-02 -4.67478819e-02 -1.32662216e-02  7.47824311e-02
   1.80519804e-01 -1.53460903e-02  1.95030700e-02 -1.20155420e-02
  -1.49625570e-01 -3.02106701e-02 -1.01737551e-01  7.96253979e-02
  -7.81562850e-02 -5.99127188e-02  3.13419453e-03 -5.83163612e-02
   5.78206666e-02  8.50185975e-02  7.91047439e-02  1.32377535e-01
   3.18771452e-02 -8.58118907e-02 -4.43627536e-02  2.79234052e-02
   2.10689306e-02  1.11957051e-01  1.47159882e-02 -4.83657569e-02
  -3.16436626e-02 -1.92494169e-01 -1.21538594e-01 -1.99353155e-02
   6.15498684e-02 -2.30470717e-01  2.40119211e-02 -2.61331070e-02
   9.70360935e-02 -6.31720480e-03  1.39172778e-01  1.72787800e-01
   1.38079477e-02 -4.82023396e-02 -3.44208665e-02  6.32427260e-02
  -2.24272739e-02  5.99619746e-02  1.18114967e-02 -2.91829351e-02
  -5.45656011e-02 -7.44356439e-02  1.72795922e-01 -3.00196931e-02
   1.25203520e-01 -1.77236013e-02  3.60600837e-02  2.26223674e-02
  -1.63714811e-01  7.25056157e-02 -5.79584241e-02 -1.59381293e-02
  -1.29974354e-02 -7.72379488e-02  1.03305681e-02 -1.74639863e-03
  -1.65932029e-02  5.99236824e-02  6.17879331e-02 -1.25364482e-01
  -5.57480566e-02  2.14391928e-02  1.75246000e-02 -4.97406758e-02]
 [ 2.49245763e-03 -3.11710723e-02  3.42053920e-02  8.76922626e-03
  -5.00985570e-02 -3.73960249e-02  5.77562489e-03 -2.41196342e-02
   3.05245947e-02 -4.99560982e-02 -5.79517819e-02 -4.55349572e-02
   1.25115076e-02 -4.72087637e-02  6.33231699e-02  1.34662449e-01
   1.46488892e-03 -2.83270869e-02 -5.90421669e-02 -9.64499265e-03
   4.88377400e-02 -3.33577096e-02  4.57457220e-03 -5.98444194e-02
   9.29122232e-03 -1.27910040e-02 -9.43262782e-03  2.62042992e-02
   6.42134324e-02 -1.15329966e-01  1.16384551e-02  1.15665868e-02
  -5.19751869e-02 -1.37605190e-01 -4.51301150e-02 -4.88293283e-02
  -2.15973221e-02  7.37582594e-02 -1.09764941e-01 -9.98451933e-03
   2.94981077e-02 -7.39238691e-04 -2.41862964e-02  2.12445818e-02
  -9.68882218e-02 -1.59801215e-01 -5.00312932e-02  2.44502053e-02
   4.44972776e-02 -5.80894798e-02 -3.59643549e-02  4.60572913e-02
   3.60964909e-02 -8.20557177e-02  2.66004205e-02 -1.84706077e-01
  -6.39853701e-02  2.04054583e-02 -7.07392693e-02 -6.53525218e-02
   3.35505754e-02 -3.76872458e-02  7.09320679e-02 -1.02902845e-01
  -1.05165750e-01 -4.27115709e-02 -1.29855558e-01  6.38674647e-02
   4.88989707e-03 -1.05501385e-02 -1.30141124e-01  2.36749975e-03
  -2.10801050e-01 -4.38600406e-03  2.07425505e-02 -3.16802822e-02
  -2.14305110e-02 -4.27680388e-02  6.25652373e-02 -6.45413026e-02
  -3.74911465e-02  1.07991949e-01  3.73521149e-02 -5.76264001e-02
   2.70639043e-02 -2.24459097e-02  5.91276865e-03 -5.13541587e-02
   1.14368655e-01 -7.45818317e-02  3.50600742e-02 -8.68656710e-02
  -1.58072039e-01 -6.01676758e-04  1.13731824e-01 -1.18011214e-01
   5.38933324e-03  9.63656139e-03  2.70062350e-02 -1.80791780e-01
  -5.85897043e-02  1.95841327e-01 -3.90027501e-02 -1.00679295e-02
  -5.02363145e-02 -6.26526698e-02 -1.33329287e-01  6.30163550e-02
   2.80830972e-02 -2.59301476e-02 -6.22702092e-02  2.22085342e-02
  -1.02274619e-01 -1.46587178e-01 -2.34986991e-02 -7.87622929e-02
  -2.97445487e-02 -3.76865305e-02  1.01820149e-01 -2.32629068e-02
   1.94571745e-02 -8.22720826e-02 -3.37151140e-02  4.36972156e-02
   6.51277974e-02 -4.02632654e-02 -2.84082741e-02  1.25014978e-02]
 [ 5.22554247e-03  2.52348892e-02 -8.65292922e-02  1.88136753e-02
  -2.16332655e-02  7.73178879e-04  1.59140844e-02  3.14987898e-02
  -3.20024081e-02 -7.08983392e-02 -4.94206266e-04 -3.67494226e-02
  -1.66529305e-02 -4.55106907e-02 -3.12005132e-02  1.30086541e-01
  -5.79171516e-02 -5.22608636e-03 -1.66326892e-02  9.79418308e-02
  -6.99128062e-02  8.93690158e-03  1.59805790e-02 -2.48612016e-02
  -2.97078341e-02  2.90918890e-02 -1.71847403e-01  3.77641506e-02
  -5.23821227e-02 -4.51096967e-02  1.95523482e-02  1.65225174e-02
  -8.28074664e-03  9.09094959e-02 -2.96092778e-02  9.55905020e-03
  -7.92689100e-02  1.03271551e-01 -3.51929069e-02  1.35111518e-03
   1.09637648e-01 -3.35923620e-02 -8.23350698e-02 -3.50259393e-02
   8.91950801e-02  8.54550004e-02  9.61415544e-02 -2.57288013e-02
   5.82383294e-03 -3.00690643e-02 -1.37312440e-02  8.41042120e-03
   9.84894484e-02  1.91918872e-02 -4.48576249e-02  2.06653029e-02
   3.80722061e-02 -1.35824159e-01 -5.97152300e-02  7.50944316e-02
   1.05599351e-01  5.98399108e-03 -3.14307697e-02 -2.50922162e-02
   2.50910223e-02  3.39874662e-02  6.74419701e-02  1.30005062e-01
   7.22712791e-03 -1.91040486e-02  1.32612705e-01 -1.62041932e-02
  -2.91775260e-02 -2.02721339e-02 -2.69430839e-02 -1.14366077e-01
   3.39156985e-02  4.41621318e-02 -3.24817598e-02  1.22331490e-04
  -6.16188534e-02 -1.60269043e-03  3.33694592e-02  2.54033618e-02
  -2.84934957e-02  5.24069089e-03  6.90560639e-02 -1.06882928e-02
  -3.34283821e-02  8.09490234e-02 -3.83314900e-02 -1.15527898e-01
   7.42259324e-02 -1.74198132e-02 -4.34897877e-02 -4.53533186e-03
   1.33767584e-02  2.41606124e-02  1.55220032e-02  4.82013822e-02
  -4.93549882e-03 -6.95458353e-02 -1.84120387e-02 -2.20493302e-02
   2.53787264e-02  1.47117851e-02  9.52519178e-02 -8.43483880e-02
  -2.19131336e-02 -2.88560032e-03 -6.71379939e-02  2.35794531e-03
   4.03388739e-02  4.42589447e-03 -6.15166500e-02  3.22074164e-03
  -1.85672902e-02 -4.98860516e-02 -1.54875785e-01 -8.77662972e-02
  -4.36213799e-02 -8.63826089e-03  4.73724566e-02 -6.14068210e-02
   2.69677490e-02  2.94551346e-03 -5.60592189e-02  4.41107899e-02]
 [-5.78148142e-02  3.61761115e-02 -6.21520309e-03 -9.12627578e-02
   2.49451548e-02 -7.29705095e-02  1.06757209e-02 -1.14008471e-01
   4.25495729e-02 -6.51424453e-02  8.60549230e-03 -1.96648706e-02
  -8.46078023e-02  2.53621880e-02 -3.34233828e-02 -3.77283618e-02
  -8.33642296e-03  1.55140823e-02 -9.97364894e-02 -6.09135535e-03
  -6.30337894e-02  1.74493063e-02 -4.07127216e-02 -5.44786304e-02
  -1.06356656e-02  1.01497187e-03 -1.33205689e-02  4.34237681e-02
  -3.68886031e-02  4.17632004e-03 -6.75306469e-02 -9.99105349e-03
   4.25355276e-03  1.58042274e-02 -5.17494380e-02 -2.88557839e-02
   1.68476589e-02 -7.88709745e-02  4.57191765e-02 -4.05703112e-02
  -7.95758367e-02  1.49324979e-03  5.04064523e-02 -6.96095005e-02
   1.05689801e-01  2.24864855e-02 -9.00414959e-02  4.80706356e-02
  -3.45026031e-02 -1.95112415e-02  4.86949980e-02 -2.66376361e-02
  -7.37585276e-02  1.09835146e-02 -3.26447189e-02  1.67840235e-02
  -1.38178756e-02 -2.57356316e-02 -2.64451262e-02  9.12401602e-02
   2.38981787e-02 -5.27745392e-03  1.95831968e-03  2.17714850e-02
   6.02251058e-03 -2.64289752e-02 -4.15198766e-02 -1.30595446e-01
  -1.73083413e-02 -3.83770689e-02 -2.41659433e-02 -1.57114193e-02
  -1.39377154e-02 -4.03905958e-02 -3.96538526e-02 -2.14381646e-02
   2.57015787e-03 -6.34435043e-02 -1.75743960e-02 -4.49403524e-02
  -4.98509444e-02 -4.65543345e-02  1.72099501e-01 -1.66165736e-02
  -6.60588685e-03 -6.10440820e-02 -2.16905177e-02  3.90473157e-02
   1.77849792e-02  2.81036105e-02  1.78165734e-02 -5.94753362e-02
   5.25187142e-02 -4.22013402e-02  8.99105296e-02  8.62831622e-03
   1.42306439e-03 -6.49549589e-02 -6.81119114e-02 -1.53376795e-02
   1.98675897e-02  8.11678916e-02 -2.16477551e-02  7.64985010e-03
  -4.67898734e-02  3.86653878e-02 -5.12735061e-02 -2.35470161e-02
   3.36519293e-02  3.41507904e-02 -6.81530032e-03 -4.94355895e-02
   1.01950800e-03  4.70435284e-02 -3.00059374e-02 -1.42084518e-02
  -4.75127436e-02 -5.75684868e-02  4.40540724e-02  2.06123181e-02
  -4.34293561e-02  3.83116342e-02 -1.91808585e-02 -2.82707419e-02
  -3.99058945e-02 -8.82368593e-04  2.71514114e-02 -2.79355031e-02]
 [ 2.74137631e-02  9.07333009e-03  1.73023921e-02 -4.69247811e-03
  -3.00402008e-02  8.74941051e-02 -6.54664263e-02  1.05398580e-01
  -3.30958739e-02 -9.95111391e-02 -4.41221818e-02  3.71616781e-02
  -2.26669069e-02 -4.43759300e-02 -1.69103593e-03  2.90298406e-02
   3.94367874e-02  1.55508919e-02  2.59937812e-02  5.51656708e-02
  -2.03936230e-02 -6.16431311e-02 -6.82915598e-02  5.13080042e-03
  -4.21560975e-03 -5.38529307e-02 -3.73887978e-02  1.43801970e-02
  -8.68516937e-02  8.52669328e-02 -3.64147127e-02  6.31068693e-03
  -2.50215102e-02  5.20686097e-02  4.13049944e-02 -1.38091296e-02
  -2.06418112e-02  4.54322360e-02 -6.82066903e-02 -4.87827286e-02
   5.36409579e-02 -2.11074017e-02  5.93217947e-02 -1.81546975e-02
   1.17096212e-02  3.18274572e-02 -1.03660394e-02 -5.36313932e-03
  -7.36628398e-02 -5.22055663e-02  3.66872847e-02 -1.38389571e-02
  -1.62883103e-02 -8.11401606e-02  6.52735606e-02  5.58543652e-02
  -4.51001450e-02 -5.17578563e-03 -3.87975201e-02  6.09570518e-02
  -9.57969856e-03  1.27233043e-01 -5.86954765e-02  3.90610993e-02
   1.04448564e-01 -3.42589580e-02 -4.80463654e-02 -1.97651256e-02
   5.64439856e-02 -4.15549763e-02  5.40874600e-02  5.47231268e-03
   5.22766225e-02 -2.15691011e-02 -1.54838087e-02  1.33566692e-01
  -8.38784650e-02  1.64967664e-02 -7.34929591e-02 -3.74455824e-02
   4.10978831e-02  6.50733188e-02 -5.61482832e-02  4.90682479e-03
  -2.27281060e-02  4.07998115e-02  7.21898824e-02 -4.30288240e-02
   3.00645474e-02  2.78262254e-02  7.72300595e-03  9.51186791e-02
   3.06163263e-03  3.97551693e-02  7.66991684e-03 -8.11425894e-02
   3.23286243e-02  3.76742543e-03 -1.91544369e-02 -4.94113304e-02
  -1.20831160e-02  1.28021929e-02 -1.05427038e-02  1.98160447e-02
   3.95561606e-02 -1.27105396e-02  1.91512108e-02  2.65115350e-02
  -1.19321041e-01 -3.56047042e-02 -8.95417184e-02 -2.99290214e-02
  -1.19429454e-03  1.05875105e-01  4.27859575e-02  1.08757224e-02
  -5.61614754e-04 -2.05321424e-02  3.37900966e-02 -1.00212969e-01
  -5.14198327e-03 -1.49415648e-02  7.90798385e-03  7.65982643e-02
  -1.48380054e-02  5.01748770e-02 -5.59632406e-02 -2.92964466e-03]
 [-2.47510429e-02 -3.97982299e-02 -1.30540924e-02 -2.65282150e-02
  -7.56713971e-02  1.73898339e-02  6.53567398e-03  3.38554308e-02
  -5.68974838e-02 -1.68185662e-02  5.17047532e-02 -1.48776084e-01
  -8.02060366e-02 -5.63497506e-02 -3.60803753e-02 -3.70052122e-02
   3.42666432e-02 -8.40142593e-02 -3.89765240e-02 -5.24537824e-02
   7.31035843e-02  5.26738577e-02 -9.66660026e-03  4.55507897e-02
  -3.08689438e-02 -2.20734198e-02  6.58480637e-03 -2.74086725e-02
  -1.72070116e-02  2.24904120e-02  3.16841900e-02 -1.01023039e-03
  -1.48574822e-02  5.52243441e-02 -5.36976717e-02 -5.55953570e-02
  -1.30509548e-02 -8.88625234e-02 -7.02000782e-02 -4.61793020e-02
  -2.10314080e-01 -5.43954894e-02  5.14241084e-02  7.14953803e-03
  -1.34915104e-02 -1.03797726e-01  1.34859309e-01  8.82761553e-02
   9.02315078e-05 -2.26971190e-02 -3.10240127e-02 -7.10961744e-02
   8.86768699e-02  1.27014086e-01  1.92542583e-01  1.93730265e-01
   4.10768874e-02 -3.97468591e-03  6.00609891e-02 -1.24378458e-01
  -5.07484097e-03 -1.44974932e-01 -2.71246359e-02  2.99018435e-03
   1.11483019e-02 -2.77008042e-02  8.78468007e-02  5.58586903e-02
  -1.46516949e-01 -3.88639718e-02 -4.46920358e-02  4.39185277e-02
  -2.69484483e-02  5.80444699e-03  3.21524702e-02 -6.72249943e-02
  -4.40092385e-03  4.15630080e-02 -6.41620159e-02  3.38100940e-02
   2.21951734e-02  2.04982720e-02 -6.45278767e-02 -6.39899373e-02
  -2.32308172e-02 -1.52936047e-02  7.43093528e-03 -3.23325656e-02
   5.11547923e-02 -1.20213807e-01 -9.71640274e-03 -1.08564258e-01
   9.20974314e-02  3.36813852e-02 -9.62584466e-02  2.24757325e-02
   4.96009886e-02 -5.18299527e-02  5.07800432e-04 -2.30974657e-03
  -5.67868054e-02  2.07651872e-02 -8.15399885e-02 -1.53484074e-02
   2.81940419e-02  9.28764045e-02  7.99741317e-03 -9.19857919e-02
   8.69848859e-03  1.79000646e-02 -3.13594788e-02 -2.60200780e-02
  -2.47681048e-02 -3.38384882e-02 -1.27425592e-03 -3.17077227e-02
   2.12879665e-02  8.62039719e-03  1.04176484e-01 -2.06620414e-02
  -2.35478431e-02 -6.81611197e-03 -7.77955353e-02  9.34485637e-04
   9.52464044e-02 -1.64010376e-02 -1.04751382e-02  1.99121516e-02]
 [-2.31972709e-02 -2.58579925e-02 -8.59043896e-02  2.85342373e-02
  -9.39851569e-04 -4.04915325e-02  3.17215696e-02  8.51206854e-02
  -1.15839336e-02  3.96610536e-02 -3.78743485e-02  1.14289410e-01
   1.03654429e-01 -6.16247989e-02 -3.00207287e-02 -1.51499864e-02
  -7.85920918e-02  4.55504768e-02 -3.93478088e-02  3.33573706e-02
  -7.38763288e-02 -8.26034471e-02  2.31991000e-02 -3.72794159e-02
  -3.64877135e-02 -4.01354246e-02 -5.90832643e-02 -6.03445712e-03
  -5.69850728e-02 -8.51947255e-03 -1.01793921e-02  6.48898184e-02
   8.28825459e-02 -9.13323648e-03  3.19516839e-04  3.60036418e-02
  -1.41519997e-02  1.36122052e-02 -8.63808468e-02  5.60748912e-02
  -1.96645521e-02  3.49317566e-02 -1.24555692e-01  1.11988559e-02
   7.41216317e-02  1.82843190e-02 -1.34353369e-01  1.67829581e-02
