lstm/lstm_cell/kernel:0
(1, 320)
[[ 0.0795549  -0.00736013  0.12424947 -0.14880842  0.14740637  0.14533922
   0.0270858   0.14476168  0.05826173 -0.07730757 -0.0277464   0.05187175
  -0.05185355 -0.10003753  0.14901637  0.22220331 -0.03909032  0.00864592
   0.08864582  0.17179315  0.09504692 -0.0182845   0.10235684  0.01440473
   0.06596156 -0.03227473  0.14881171  0.03209756 -0.06960927  0.05339755
   0.1272454   0.01239277 -0.06913333 -0.10933745  0.01870247 -0.04249787
   0.01042771  0.06660377  0.00316561  0.03640394  0.1533564  -0.00685262
  -0.07058603  0.09761006  0.07427052 -0.08981895 -0.07068917  0.07146984
   0.01200079  0.05227625 -0.06373423  0.07467939 -0.03123529 -0.02181914
   0.19434886 -0.09158238 -0.13044754  0.14247696  0.03730923 -0.01180247
  -0.06759175  0.1637335   0.1241115  -0.04402562  0.08774333  0.14055565
   0.00649575  0.06966249 -0.03626359 -0.06527004  0.08225729  0.1040411
   0.12430452  0.05001683  0.11527933 -0.0569106  -0.14410737  0.02504278
  -0.05699596 -0.12477013 -0.00732414  0.06656604  0.12366445 -0.03202742
   0.00654054 -0.01411999  0.0991914   0.03962201  0.08163572  0.13714728
  -0.03360505  0.12391375  0.03812581  0.06093659  0.06209709  0.14140591
  -0.11236198  0.10893338 -0.08755755 -0.09666833 -0.06575503  0.04484631
   0.04177248  0.14049226 -0.0026327  -0.01491651 -0.11872826 -0.02582974
  -0.00539493 -0.00076124  0.07689498  0.01469512  0.09335642 -0.08968081
   0.02018072  0.05294371  0.13236454 -0.02456885  0.03425993 -0.00437648
   0.0260883   0.04324942  0.07450384 -0.10343921  0.00668783 -0.00896559
   0.08466433  0.09332101 -0.11652029  0.0396635   0.03169517  0.13582213
  -0.07583632 -0.11187887  0.05931936  0.12995288  0.01861436 -0.06033811
   0.06702203  0.09236078 -0.12025955 -0.12147018  0.04388367  0.00902685
  -0.03673599  0.01846366  0.08327337 -0.04541599 -0.02521595 -0.09746575
   0.10138988  0.05668685  0.0210121   0.08755321 -0.08036655  0.01653824
   0.00164283  0.09768996  0.00735708 -0.13647656 -0.09699038 -0.08820994
   0.08930263 -0.0335341  -0.13006236  0.12077836  0.04387644 -0.06082948
   0.04849898  0.13280237 -0.05803708 -0.0720264  -0.03401909  0.03436533
   0.09449197  0.10809987  0.13323708 -0.04458074  0.09680683  0.15059218
   0.06393399  0.07420737  0.12570761 -0.13052627  0.12816012 -0.08259121
  -0.10822136 -0.06858902  0.13094337 -0.1026123  -0.06504653 -0.00318495
   0.03701178 -0.02461135  0.1585046  -0.04861612 -0.06924447  0.09605481
   0.07244248  0.06980866  0.04089684  0.08955983  0.08803362  0.1163808
  -0.09091113  0.01173218  0.06593305  0.11991306 -0.02337936  0.08588462
  -0.09322194 -0.03361727 -0.0878314   0.10944329 -0.09312954 -0.02284685
   0.00090031 -0.0919558  -0.1055724   0.10274917  0.13476917 -0.137582
  -0.129024   -0.01648727  0.04866266 -0.1240559   0.0202712   0.1239429
  -0.1295519  -0.03970741 -0.03875302 -0.04466397  0.05570184 -0.14516133
  -0.12343911 -0.02549242 -0.05706264  0.10886731 -0.12208276  0.02371583
   0.08273302  0.01707187  0.06660914  0.06358871  0.09928456  0.11465647
   0.0900259   0.08843928  0.07329213  0.1425009   0.11654518 -0.03913983
   0.04057645  0.1070861  -0.03461776  0.07281134 -0.06265569  0.07146277
   0.15235794  0.01996337 -0.03454706 -0.03502823  0.06670957  0.08610398
   0.12008112  0.00208018  0.10295873  0.04679939 -0.00506952  0.03218676
  -0.03793174  0.02180401  0.03857506  0.10108138  0.24534492  0.08670685
   0.12523834 -0.09715045  0.01220467  0.06268623  0.19268872 -0.03770047
  -0.02274658  0.14617239  0.16306694 -0.077021   -0.01391264  0.09412403
  -0.09640975  0.05982544  0.02229446 -0.05370083  0.20599422 -0.04304179
   0.18334445  0.04469928  0.04162914 -0.09310427  0.14116277 -0.05518912
  -0.06709932  0.22845767  0.15063424  0.1058422  -0.05285661 -0.10310468
  -0.04293345 -0.0984604  -0.00646735  0.00701711 -0.01427792 -0.11837304
   0.05156795  0.03208723  0.03601516 -0.08040319 -0.08335716  0.13300976
   0.01427684 -0.04864745]]
lstm/lstm_cell/recurrent_kernel:0
(80, 320)
[[-0.1132782  -0.00785761 -0.00549355 ... -0.07895032  0.07751577
  -0.08309609]
 [-0.07387327  0.02512362  0.08971341 ... -0.0299697  -0.04705999
   0.01020993]
 [-0.03653425 -0.02142313 -0.05051128 ...  0.00467985  0.03843592
  -0.03628456]
 ...
 [ 0.01847311 -0.00530256  0.06764401 ...  0.09042991  0.07873096
   0.03154022]
 [-0.00039084 -0.07219439 -0.02707708 ... -0.03677144  0.04107428
  -0.01328129]
 [ 0.01564713  0.11772545  0.07685167 ...  0.07341938 -0.03076753
   0.05328598]]
lstm/lstm_cell/bias:0
(320,)
[-1.21443570e-02  1.40552577e-02  4.48452961e-03 -3.20656709e-02
  3.64167169e-02  5.44227380e-03 -7.29974639e-03  4.10863338e-03
 -2.83935131e-03  1.16963396e-02 -1.05734151e-02  4.97154798e-03
  2.47060657e-02  2.39526737e-03  1.18370233e-02  4.74481136e-02
  4.80911369e-03  1.69408612e-03  3.71972541e-03  6.10703379e-02
 -1.12457275e-02 -2.75884429e-03 -3.68342176e-03 -1.29704713e-03
  7.08361669e-03  3.10320966e-03  3.93094681e-03  2.82988138e-03
  8.69044568e-04  8.89723562e-03  1.20353943e-03 -6.35880139e-03
 -1.02894865e-02 -4.67766263e-03  5.69861569e-02 -7.19242613e-04
 -3.06213740e-03 -1.69731048e-03  1.76689413e-03  3.68452980e-03
  3.72994062e-03  1.30652664e-02  1.33968359e-02 -1.18151009e-02
  1.36191985e-02 -2.84868502e-03 -3.67803662e-03 -6.68981997e-03
 -1.57550126e-02  1.54368086e-02 -7.20764510e-04  3.83398356e-03
  1.42532028e-02  6.02176646e-03  2.63435487e-02 -5.74668078e-03
 -7.42446259e-03 -7.99024769e-04 -3.28166294e-03  1.60315004e-03
  1.62609108e-02  7.83575848e-02  3.31401639e-03 -1.68384295e-02
 -6.31796895e-03 -3.76322241e-05 -1.95312314e-02  1.31638732e-03
 -3.98993446e-03 -6.22645952e-03  2.21650652e-03 -1.19796898e-02
  1.90879661e-03  4.93909195e-02  7.81102898e-03  1.36683148e-03
 -1.90733001e-02  4.84756194e-02  3.35512683e-02 -1.92243401e-02
  9.88778055e-01  9.78635788e-01  9.96764481e-01  9.60459054e-01
  9.96791542e-01  9.95760322e-01  9.75628257e-01  9.93581116e-01
  9.93025243e-01  9.83487546e-01  9.88145828e-01  9.94722664e-01
  9.98819172e-01  1.00140297e+00  9.76815820e-01  9.56028402e-01
  9.91412044e-01  9.93354201e-01  9.94306326e-01  9.65365589e-01
  9.83050942e-01  9.72335160e-01  9.85763252e-01  9.90397096e-01
  9.93912637e-01  9.91753459e-01  9.92960751e-01  9.95315909e-01
  9.94241893e-01  9.91856933e-01  9.96055782e-01  9.92466569e-01
  9.88577008e-01  9.91127491e-01  9.89475548e-01  9.82767165e-01
  9.75230634e-01  9.91543829e-01  9.80857074e-01  9.96779561e-01
  9.78495538e-01  9.96053219e-01  9.87482071e-01  9.80801821e-01
  9.91029561e-01  9.91762578e-01  9.88378406e-01  9.89537776e-01
  9.77771819e-01  9.87360299e-01  9.80970085e-01  9.99232829e-01
  9.56806540e-01  9.94747043e-01  9.81102884e-01  9.85352337e-01
  9.92108345e-01  9.89838362e-01  9.86912370e-01  9.93113935e-01
  9.89191055e-01  9.66360509e-01  9.95315135e-01  9.65292811e-01
  9.92119014e-01  9.97183502e-01  9.81089532e-01  9.93968785e-01
  9.89053965e-01  9.86665785e-01  9.90200818e-01  9.86105442e-01
  9.91880059e-01  9.87290978e-01  9.91328001e-01  9.99079049e-01
  9.77484643e-01  9.89051878e-01  9.84498799e-01  9.76278663e-01
  1.42446300e-02  1.99973695e-02 -1.23086199e-02  8.35392438e-03
  1.92632098e-02 -1.45934979e-02 -1.09028583e-02  1.07939718e-02
 -9.05161258e-03 -1.90571882e-02  1.69292465e-02  9.10001248e-03
  4.17980738e-03 -4.88007162e-03 -8.98268167e-03 -1.69323627e-02
 -1.91195440e-02  1.02860350e-02 -1.41608166e-02 -2.32856348e-02
 -1.42510803e-02 -1.12097720e-02 -2.20613088e-02  2.06610523e-02
 -1.56151569e-02  1.35081988e-02  1.46926697e-02  1.18608708e-02
 -1.41885998e-02  1.80836152e-02  9.09682550e-03 -2.98377196e-03
 -9.10645071e-03  1.05913952e-02 -2.70950347e-02  1.37886722e-02
  1.07027059e-02 -1.25870416e-02 -1.62635054e-02 -9.84177366e-03
  1.28926698e-03 -1.36674736e-02 -1.76936798e-02 -2.49363538e-02
  1.52195357e-02 -8.67256150e-03 -1.30201709e-02 -2.34125871e-02
  1.37498109e-02 -1.65091455e-02  1.96130201e-02  3.58272577e-03
  9.39388666e-03 -1.81605145e-02  2.15210505e-02  3.75243067e-03
  4.09560365e-04  1.64841283e-02  1.77312959e-02 -1.77943446e-02
 -2.43381932e-02  2.54096612e-02  1.84489135e-02  4.96349717e-03
  1.92245364e-03  1.32923918e-02 -4.21597250e-03 -1.90399121e-02
  1.48636308e-02  1.84324309e-02  1.13131925e-02  1.06054498e-02
 -1.06973536e-02  2.57481728e-02  1.65486671e-02  4.70508169e-03
  1.37357684e-02 -1.62257683e-02  2.01560035e-02 -8.60686228e-03
 -1.19863590e-02  1.36806862e-02  4.43991041e-03 -3.28693949e-02
  3.60599644e-02  5.36868116e-03 -9.29858256e-03  4.03622724e-03
 -2.91910442e-03  9.11354925e-03 -1.06982300e-02  5.76768024e-03
  2.29070578e-02  1.53446209e-03  1.53564569e-02  4.88255247e-02
  5.26698353e-03  1.01266522e-03  2.64487183e-03  6.22580610e-02
 -1.07881473e-02 -2.06351560e-03 -3.51096527e-03 -2.21270137e-03
  6.05403725e-03  2.94368668e-03  4.28996701e-03  2.72010313e-03
  7.06229999e-04  8.88837222e-03  2.05496210e-03 -6.27532415e-03
 -1.01728085e-02 -5.60390111e-03  4.74192835e-02 -7.30735017e-04
 -5.21670235e-03 -5.73709433e-04  1.81824993e-03  3.44122783e-03
  1.63488754e-03  1.36468690e-02  1.30549818e-02 -1.24474484e-02
  1.18956147e-02 -2.64138915e-03 -3.76303284e-03 -6.91639399e-03
 -1.47020100e-02  1.47975739e-02 -8.23048758e-04  4.57505835e-03
  6.89124828e-03  6.30797260e-03  2.42282841e-02 -6.32985495e-03
 -7.78982323e-03  1.31408253e-03 -4.61169519e-03  2.20888085e-03
  1.59502700e-02  7.58253485e-02  2.62489868e-03 -1.86917521e-02
 -6.17393712e-03  1.51342689e-03 -1.94812492e-02  2.94394861e-03
 -4.08568047e-03 -6.15671370e-03  3.16676334e-03 -1.26766833e-02
  2.39431299e-03  4.92738783e-02  8.40581395e-03  1.37465692e-03
 -1.90165341e-02  4.43957970e-02  3.30200307e-02 -1.92016363e-02]
lstm_1/lstm_cell_1/kernel:0
(80, 400)
[[-0.08023725 -0.07139659 -0.00365738 ... -0.08172002 -0.06239353
   0.02360365]
 [-0.10604403  0.05574414 -0.07467759 ... -0.04832759 -0.01228014
   0.0971972 ]
 [-0.08021042 -0.07639926  0.00542119 ... -0.00188703  0.05014784
   0.01967489]
 ...
 [-0.09271058 -0.07560021 -0.06127882 ...  0.01953372  0.08018766
   0.12501827]
 [-0.11632822 -0.13809937 -0.04314593 ... -0.03695243  0.01292407
  -0.01747502]
 [-0.00056349 -0.02826533  0.06337366 ... -0.04447636  0.06392479
  -0.07253035]]
lstm_1/lstm_cell_1/recurrent_kernel:0
(100, 400)
[[-0.04862831 -0.00175956  0.05794332 ... -0.06810755  0.0118985
  -0.0258447 ]
 [-0.06186401 -0.01772406  0.01206351 ...  0.04850836 -0.0354964
  -0.03756951]
 [ 0.05126464 -0.01058916  0.03131675 ... -0.12864439  0.01327004
   0.07798794]
 ...
 [-0.08521812  0.14182526 -0.01563124 ... -0.00688076 -0.06603027
   0.04511237]
 [ 0.02668131  0.10086855  0.03210629 ... -0.02086322  0.07466926
   0.02353848]
 [ 0.06463556 -0.01401855  0.02536309 ... -0.0355872  -0.02084049
   0.01046729]]
lstm_1/lstm_cell_1/bias:0
(400,)
[ 2.16959836e-03 -2.79939291e-03 -2.24927329e-02  2.74620764e-03
  1.03614284e-02  6.02047518e-03 -1.35379303e-02  2.48169061e-02
 -2.06312165e-03 -3.68423003e-04 -2.13238853e-03 -7.61448056e-04
 -3.14143766e-03 -3.62884649e-03 -1.84677541e-02 -1.05712442e-02
 -5.95160341e-03 -3.70216332e-02 -2.58001648e-02 -6.81338226e-03
 -9.49776266e-03 -1.82155687e-02  1.62636791e-03 -1.21052973e-02
 -4.23917286e-02 -6.61814446e-03 -1.56450476e-02 -2.26070150e-03
 -1.70620007e-03 -1.57570709e-02  8.99224979e-05 -1.08282696e-02
 -3.06175509e-03  1.88480224e-03 -5.14117721e-03 -1.02667892e-02
 -1.05420677e-02 -8.36486276e-03 -2.29034163e-02 -1.65172536e-02
 -8.84159934e-03 -5.15025016e-03  8.91799340e-04 -2.34746672e-02
 -2.72566956e-02 -8.81293789e-03  3.54611984e-06 -1.12021435e-02
 -2.03723330e-02 -4.68440074e-03 -1.23983901e-02 -1.28386961e-02
  5.93830459e-03 -5.90674020e-03 -1.69016421e-02 -1.54105611e-02
 -3.37709039e-02  3.88514309e-04 -1.85997796e-03 -1.97449569e-02
  6.46209996e-03 -3.19426209e-02 -1.09376456e-03 -7.25478691e-04
 -1.91794857e-02 -9.81174782e-03  1.16088864e-04 -3.21371737e-03
 -2.86436494e-04 -5.61048102e-04 -3.75960767e-03  5.61530516e-03
 -2.35367455e-02  2.13758438e-03  4.09574155e-03 -9.54269432e-03
 -4.23960481e-03 -1.31954392e-02  6.15321286e-03 -1.18271559e-02
 -1.25039862e-02  4.42107907e-04  2.08360143e-03 -2.86168512e-03
 -5.70108043e-03 -2.35423073e-03  2.99651118e-04 -2.14853548e-02
 -2.66748425e-02 -1.38514247e-02 -2.96344538e-03 -2.55601127e-02
 -1.71459988e-02 -3.53036937e-03  2.01277947e-03 -5.31784201e-04
  2.06954181e-02 -5.49199386e-03 -3.16139162e-02 -5.06469887e-03
  9.91285622e-01  9.91417229e-01  9.82848704e-01  9.98218596e-01
  1.00430095e+00  1.00489128e+00  9.61671114e-01  9.85724688e-01
  9.97575700e-01  1.00045323e+00  9.79673147e-01  9.98226702e-01
  9.93526936e-01  9.94220555e-01  9.83091056e-01  9.89650249e-01
  9.89125311e-01  9.60046053e-01  9.61519361e-01  9.93884444e-01
  9.94381011e-01  9.62833583e-01  1.00175750e+00  9.87958789e-01
  9.39702988e-01  9.58082676e-01  9.83178735e-01  9.92684960e-01
  9.95723665e-01  9.84020174e-01  9.88479376e-01  9.74684000e-01
  9.96461570e-01  9.99983966e-01  9.95647848e-01  9.89885390e-01
  9.86968696e-01  9.86961067e-01  9.65705812e-01  9.68552709e-01
  9.79998291e-01  9.94538307e-01  9.99912441e-01  9.59723771e-01
  9.61706400e-01  9.90683079e-01  9.99692023e-01  9.88456666e-01
  9.77935314e-01  9.85510826e-01  9.89086270e-01  9.85144794e-01
  9.80684042e-01  9.86581326e-01  9.79921877e-01  9.80602920e-01
  9.45054054e-01  1.00051236e+00  9.97600257e-01  9.77627218e-01
  1.00014257e+00  9.69881237e-01  9.96751428e-01  9.74225640e-01
  9.86874640e-01  9.86027658e-01  9.95307446e-01  9.93914485e-01
  9.99948204e-01  9.97405887e-01  9.94935155e-01  1.00094414e+00
  9.78715897e-01  1.00091529e+00  9.91847456e-01  9.90270674e-01
  9.95258212e-01  9.86586690e-01  1.00100100e+00  9.82395232e-01
  9.78074431e-01  1.00008988e+00  1.00049973e+00  9.96620953e-01
  9.72662091e-01  9.95796978e-01  9.95210826e-01  9.72630799e-01
  9.67265248e-01  9.84232843e-01  9.97369587e-01  9.69041646e-01
  9.84219909e-01  9.97050524e-01  9.95072722e-01  9.97669756e-01
  1.01117384e+00  9.97167230e-01  9.61118639e-01  9.95358884e-01
 -7.80918915e-03  2.89680809e-03  3.98583245e-03 -5.89463068e-03
 -1.21443104e-02  9.74612031e-03 -9.73761640e-03 -1.30555173e-02
 -9.70053859e-03 -2.89250771e-03 -1.01595419e-02  8.04561749e-03
  6.82493858e-03 -5.76366531e-03 -4.52355947e-03 -4.47923085e-03
  1.16576981e-02 -5.32661285e-03 -9.06106085e-03 -4.63841204e-03
  7.08456896e-03 -1.11158760e-02 -1.44370254e-02  7.34287174e-03
  1.22457733e-02  1.57885477e-02  7.46812252e-03 -1.22844167e-02
  8.21316987e-03  6.00299519e-03 -1.23355836e-02  4.57086740e-03
  5.35137812e-03  8.16794578e-03  4.90228506e-03  8.37788731e-03
 -5.87766664e-03  1.10729774e-02  4.76765446e-03  9.12276376e-03
  1.05377212e-02  6.11769082e-03 -9.41866357e-03 -5.70403971e-03
 -6.90561673e-03 -7.70187331e-03  5.60809812e-03 -7.85967615e-03
  4.78315214e-03 -1.40849613e-02  2.01550731e-03  5.52074565e-03
 -1.30999284e-02  7.89808109e-03  5.89976739e-03  1.12994877e-03
 -6.51733018e-03  6.37462037e-03 -1.64373906e-03  6.96474593e-03
  8.83097760e-03 -6.02769572e-03 -8.13215971e-03 -8.46236572e-03
 -8.07468407e-03  7.89690856e-03 -1.02506308e-02 -9.80751961e-03
 -7.92004820e-03 -7.34853931e-03  1.14296898e-02 -1.01631610e-02
 -1.01719443e-02  1.18118487e-02  1.04164788e-02  8.16600863e-03
 -3.95044079e-03  1.12687200e-02 -1.60930809e-02  8.41621496e-03
  3.41157475e-03 -1.00405840e-02  1.18484134e-02  1.09166596e-02
 -1.13177141e-02 -1.06615406e-02 -6.85048569e-03 -1.08932685e-02
 -6.26426376e-03  6.14401745e-03 -4.09192126e-03  6.10653218e-03
  5.36472350e-03 -6.89109368e-03 -9.17023886e-03 -7.55879702e-03
  1.28204934e-02  4.79835365e-03 -4.11732239e-04  8.22110102e-03
  1.36631774e-03 -3.67340585e-03 -2.17799712e-02  1.91421725e-03
  9.88457166e-03  4.40864312e-03 -1.49972634e-02  2.39328872e-02
 -2.78382306e-03 -4.29154432e-04 -3.17033078e-03 -2.62315338e-03
 -3.86479497e-03 -3.94653482e-03 -1.87612362e-02 -1.17344754e-02
 -6.48423145e-03 -3.90873887e-02 -2.67503448e-02 -6.87395409e-03
 -9.94368643e-03 -1.97521448e-02  1.23153569e-03 -1.32205365e-02
 -4.45219576e-02 -8.07386264e-03 -1.57015193e-02 -2.67955987e-03
 -2.04049866e-03 -1.51578709e-02 -2.37314089e-04 -1.31544964e-02
 -4.14820202e-03  1.39587116e-03 -5.17289015e-03 -1.03932172e-02
 -1.04753310e-02 -8.00246932e-03 -2.41674166e-02 -1.77512448e-02
 -1.05724521e-02 -5.38739283e-03  5.01984381e-04 -2.44891010e-02
 -2.75995992e-02 -9.29257367e-03 -1.17101008e-03 -1.17149819e-02
 -2.17620675e-02 -6.30332297e-03 -1.23380534e-02 -1.30283348e-02
  6.13301015e-03 -6.03471743e-03 -1.72873344e-02 -1.64227877e-02
 -3.41957547e-02 -6.02703774e-04 -1.66277436e-03 -2.08979081e-02
  4.92744800e-03 -3.14952284e-02 -1.77172862e-03 -1.47349981e-03
 -1.89583711e-02 -1.01196812e-02 -3.43723479e-03 -3.93433403e-03
 -8.13094899e-04 -9.55401803e-04 -4.28459654e-03  5.63863153e-03
 -2.41722800e-02  1.31839165e-03  1.30087428e-03 -1.00530600e-02
 -4.76447167e-03 -1.37947146e-02  5.81994792e-03 -1.20182438e-02
 -1.43902088e-02 -2.34146632e-04  1.16259954e-03 -3.53840156e-03
 -6.37636799e-03 -2.69416883e-03 -5.30060424e-05 -2.22347677e-02
 -2.51086056e-02 -1.36870779e-02 -3.10496404e-03 -2.54750662e-02
 -1.69190038e-02 -3.96250747e-03  1.51003245e-03 -1.79140654e-03
  2.01986320e-02 -6.28446788e-03 -3.32721099e-02 -5.31859742e-03]
dense/kernel:0
(100, 1)
[[-0.2059206 ]
 [ 0.132216  ]
 [-0.16338903]
 [-0.07135616]
 [-0.15066472]
 [ 0.06731381]
 [-0.15588582]
 [-0.2510855 ]
 [-0.11473497]
 [-0.11473401]
 [-0.16648047]
 [ 0.09486548]
 [ 0.113583  ]
 [-0.11429325]
 [-0.06206943]
 [-0.1329082 ]
 [ 0.16315357]
 [-0.2113351 ]
 [-0.18046525]
 [-0.21828695]
 [ 0.17168105]
 [-0.16886693]
 [-0.18048754]
 [ 0.18435189]
 [ 0.10023282]
 [ 0.19671975]
 [ 0.19714351]
 [-0.17518823]
 [ 0.19701774]
 [ 0.18846324]
 [-0.20166439]
 [ 0.14952259]
 [ 0.08405339]
 [ 0.18960942]
 [ 0.20599142]
 [ 0.13368218]
 [-0.17172466]
 [ 0.07452694]
 [ 0.17399175]
 [ 0.24141033]
 [ 0.13229775]
 [ 0.20589855]
 [-0.20369717]
 [-0.10209101]
 [-0.18212686]
 [-0.22530653]
 [ 0.09987801]
 [-0.06484789]
 [ 0.1153211 ]
 [-0.18188538]
 [ 0.17312247]
 [ 0.10545377]
 [-0.21755394]
 [ 0.14464533]
 [ 0.18764566]
 [-0.09511683]
 [-0.19655663]
 [ 0.05797796]
 [ 0.0064489 ]
 [ 0.18849586]
 [ 0.07300585]
 [-0.0405062 ]
 [-0.08851711]
 [-0.17173104]
 [-0.15819049]
 [ 0.18084973]
 [-0.12254079]
 [-0.19956215]
 [-0.04753426]
 [-0.16430613]
 [ 0.13193445]
 [-0.21775812]
 [-0.20656979]
 [ 0.15117684]
 [ 0.08868228]
 [ 0.20848998]
 [-0.13007164]
 [ 0.24143656]
 [-0.0926365 ]
 [ 0.18853697]
 [ 0.10682561]
 [-0.10142668]
 [ 0.13165879]
 [ 0.10582052]
 [-0.16259947]
 [-0.21445395]
 [-0.22342476]
 [-0.10109185]
 [-0.12969434]
 [ 0.19246534]
 [-0.05364246]
 [ 0.22006391]
 [ 0.197938  ]
 [-0.21523073]
 [-0.24459976]
 [-0.08356025]
 [ 0.08740794]
 [-0.08087341]
 [-0.10969628]
 [ 0.18351378]]
dense/bias:0
(1,)
[0.07908484]
